{"learner":{"attributes":{"scikit_learn":"{\"_estimator_type\": \"regressor\"}"},"feature_names":["typing_speed","typing_accuracy","typing_latency","typing_errors","sleep_duration","sleep_quality","steps","screen_time","social_minutes","social_quality","question_affect"],"feature_types":["float","float","float","float","float","float","float","float","float","float","float"],"gradient_booster":{"model":{"cats":{"enc":[],"feature_segments":[],"sorted_idx":[]},"gbtree_model_param":{"num_parallel_tree":"1","num_trees":"300"},"iteration_indptr":[0,1,2,3,4,5,6,7,8,9,10,11,12,13,14,15,16,17,18,19,20,21,22,23,24,25,26,27,28,29,30,31,32,33,34,35,36,37,38,39,40,41,42,43,44,45,46,47,48,49,50,51,52,53,54,55,56,57,58,59,60,61,62,63,64,65,66,67,68,69,70,71,72,73,74,75,76,77,78,79,80,81,82,83,84,85,86,87,88,89,90,91,92,93,94,95,96,97,98,99,100,101,102,103,104,105,106,107,108,109,110,111,112,113,114,115,116,117,118,119,120,121,122,123,124,125,126,127,128,129,130,131,132,133,134,135,136,137,138,139,140,141,142,143,144,145,146,147,148,149,150,151,152,153,154,155,156,157,158,159,160,161,162,163,164,165,166,167,168,169,170,171,172,173,174,175,176,177,178,179,180,181,182,183,184,185,186,187,188,189,190,191,192,193,194,195,196,197,198,199,200,201,202,203,204,205,206,207,208,209,210,211,212,213,214,215,216,217,218,219,220,221,222,223,224,225,226,227,228,229,230,231,232,233,234,235,236,237,238,239,240,241,242,243,244,245,246,247,248,249,250,251,252,253,254,255,256,257,258,259,260,261,262,263,264,265,266,267,268,269,270,271,272,273,274,275,276,277,278,279,280,281,282,283,284,285,286,287,288,289,290,291,292,293,294,295,296,297,298,299,300],"tree_info":[0,0,0,0,0,0,0,0,0,0,0,0,0,0,0,0,0,0,0,0,0,0,0,0,0,0,0,0,0,0,0,0,0,0,0,0,0,0,0,0,0,0,0,0,0,0,0,0,0,0,0,0,0,0,0,0,0,0,0,0,0,0,0,0,0,0,0,0,0,0,0,0,0,0,0,0,0,0,0,0,0,0,0,0,0,0,0,0,0,0,0,0,0,0,0,0,0,0,0,0,0,0,0,0,0,0,0,0,0,0,0,0,0,0,0,0,0,0,0,0,0,0,0,0,0,0,0,0,0,0,0,0,0,0,0,0,0,0,0,0,0,0,0,0,0,0,0,0,0,0,0,0,0,0,0,0,0,0,0,0,0,0,0,0,0,0,0,0,0,0,0,0,0,0,0,0,0,0,0,0,0,0,0,0,0,0,0,0,0,0,0,0,0,0,0,0,0,0,0,0,0,0,0,0,0,0,0,0,0,0,0,0,0,0,0,0,0,0,0,0,0,0,0,0,0,0,0,0,0,0,0,0,0,0,0,0,0,0,0,0,0,0,0,0,0,0,0,0,0,0,0,0,0,0,0,0,0,0,0,0,0,0,0,0,0,0,0,0,0,0,0,0,0,0,0,0,0,0,0,0,0,0,0,0,0,0,0,0,0,0,0,0,0,0,0,0,0,0,0,0],"trees":[{"base_weights":[-3.0432515E-2,-1.1627813E1,3.4708122E1,1.4250017E0,-2.14211E1,4.2495964E1,2.7441748E1,-5.150544E0,9.928607E0,-1.4209595E1,-2.7500563E1,3.9248047E1,1.2821647E0,7.2586417E0,2.9842796E1,-1.3907112E0,-8.405474E0,1.821643E1,6.8077726E0,-8.28651E0,-1.7454277E1,-2.8731617E1,-1.9218266E1,1.1855122E0,2.5127815E1,1.6547514E1,-9.708721E0,3.2481136E1,2.5266352E1,-4.135968E0,1.0676684E0,-7.120381E0,-1.3097814E1,1.7065044E1,3.9557545E1,1.1047758E1,1.9014881E0,-4.4658756E0,-1.0116218E1,-1.4500844E1,-2.0062717E1,-2.6965555E1,-3.139081E1,-1.682589E1,-2.2541142E1,8.104501E-1,1.7876254E-1,8.838833E0,1.7449986E1,-5.863967E0,-1.7584799E1,3.3055176E1,2.8973074E1,2.7502415E1,2.1418463E1,-3.6648154E-2,-1.40745E-1,1.7316353E-1,-2.2943686E-3,-2.906094E-1,-1.7858106E-1,-3.5390362E-1,-4.835987E-1,5.8921635E-1,4.058095E-1,1.1974182E0,2.6726258E-1,3.0930784E-1,8.141103E-1,1.055985E-1,-7.112996E-2,-1.6822211E-1,1.0495893E-1,-4.878076E-1,-2.6626185E-1,-5.0526124E-1,-4.1044554E-1,-5.7197654E-1,-7.3690885E-1,-7.749057E-1,-8.3515805E-1,-9.7160506E-1,-8.346199E-1,-6.868701E-1,-4.646176E-1,-6.027132E-1,-7.395816E-1,3.4800327E-1,1.4800122E-2,5.752423E-1,4.7758526E-1,-1.4707176E-2,-2.719454E-1,-2.3886654E-1,-5.7569635E-1,9.560339E-1,1.0237952E0,5.2677333E-1,8.8126814E-1,6.06791E-1,8.455629E-1,5.7609814E-1,6.8844485E-1],"categories":[],"categories_nodes":[],"categories_segments":[],"categories_sizes":[],"default_left":[0,0,0,0,0,0,0,0,0,0,0,0,0,0,0,0,0,0,0,0,0,0,0,0,0,0,0,0,0,0,0,0,0,0,0,0,0,0,0,0,0,0,0,0,0,0,0,0,0,0,0,0,0,0,0,0,0,0,0,0,0,0,0,0,0,0,0,0,0,0,0,0,0,0,0,0,0,0,0,0,0,0,0,0,0,0,0,0,0,0,0,0,0,0,0,0,0,0,0,0,0,0,0],"id":0,"left_children":[1,3,5,7,9,11,13,15,17,19,21,23,-1,25,27,29,31,33,35,37,39,41,43,-1,45,47,49,51,53,55,57,59,61,63,65,67,69,71,73,75,77,79,81,83,85,-1,-1,87,89,91,93,95,97,99,101,-1,-1,-1,-1,-1,-1,-1,-1,-1,-1,-1,-1,-1,-1,-1,-1,-1,-1,-1,-1,-1,-1,-1,-1,-1,-1,-1,-1,-1,-1,-1,-1,-1,-1,-1,-1,-1,-1,-1,-1,-1,-1,-1,-1,-1,-1,-1,-1],"loss_changes":[1.2888415E7,3.0659045E6,4.51945E5,5.7497794E5,6.00377E5,1.37E3,2.00653E5,7.095642E4,1.1585434E5,1.203555E5,7.52445E4,7.446875E1,0E0,6.9823234E4,4.3902E4,1.817241E4,1.8648234E4,2.9450062E4,6.777459E4,1.5481031E4,3.090975E4,2.95385E4,7.2920625E3,0E0,1.284292E2,1.8354297E3,4.651092E3,3.7665E3,1.1104E4,2.053666E3,7.649093E3,7.2609297E3,2.432414E3,1.0350125E4,3.2164844E2,2.0461562E4,1.0463611E4,6.574741E3,1.1298797E4,3.4199375E3,9.169E3,3.14175E3,8.25925E3,4.236172E3,1.5798281E3,0E0,0E0,7.316924E2,3.67875E2,1.8360251E3,6.3490234E2,1.468E3,1.037125E3,3.6839375E3,1.2671562E3,0E0,0E0,0E0,0E0,0E0,0E0,0E0,0E0,0E0,0E0,0E0,0E0,0E0,0E0,0E0,0E0,0E0,0E0,0E0,0E0,0E0,0E0,0E0,0E0,0E0,0E0,0E0,0E0,0E0,0E0,0E0,0E0,0E0,0E0,0E0,0E0,0E0,0E0,0E0,0E0,0E0,0E0,0E0,0E0,0E0,0E0,0E0,0E0],"parents":[2147483647,0,0,1,1,2,2,3,3,4,4,5,5,6,6,7,7,8,8,9,9,10,10,11,11,13,13,14,14,15,15,16,16,17,17,18,18,19,19,20,20,21,21,22,22,24,24,25,25,26,26,27,27,28,28,29,29,30,30,31,31,32,32,33,33,34,34,35,35,36,36,37,37,38,38,39,39,40,40,41,41,42,42,43,43,44,44,47,47,48,48,49,49,50,50,51,51,52,52,53,53,54,54],"right_children":[2,4,6,8,10,12,14,16,18,20,22,24,-1,26,28,30,32,34,36,38,40,42,44,-1,46,48,50,52,54,56,58,60,62,64,66,68,70,72,74,76,78,80,82,84,86,-1,-1,88,90,92,94,96,98,100,102,-1,-1,-1,-1,-1,-1,-1,-1,-1,-1,-1,-1,-1,-1,-1,-1,-1,-1,-1,-1,-1,-1,-1,-1,-1,-1,-1,-1,-1,-1,-1,-1,-1,-1,-1,-1,-1,-1,-1,-1,-1,-1,-1,-1,-1,-1,-1,-1],"split_conditions":[1.687E2,4E0,2.99E1,8.5E0,4.3E0,8.6E0,8E0,8.59E1,3.05E1,1.368E2,3.6E0,2.81E1,1.2821647E0,2.46E0,5.4E0,6.8E0,1.429E2,1.518E2,6.1E0,8.12E1,2.115E2,1.408E2,2.287E2,1.1855122E0,8.19E1,1.849E2,1.803E2,7.6E1,6.1E0,4.35E1,2.99E1,4.8E0,1.803E2,6E0,2.72E0,1.545E2,7.85E1,8.2E0,3.4E0,4.4E0,2.937E2,1.116E2,2.3E0,4.1E0,7.6E0,8.104501E-1,1.7876254E-1,8.45E1,6.12E1,1.067E2,6.8E0,2.041E2,9E0,8.6E0,1.01E1,-3.6648154E-2,-1.40745E-1,1.7316353E-1,-2.2943686E-3,-2.906094E-1,-1.7858106E-1,-3.5390362E-1,-4.835987E-1,5.8921635E-1,4.058095E-1,1.1974182E0,2.6726258E-1,3.0930784E-1,8.141103E-1,1.055985E-1,-7.112996E-2,-1.6822211E-1,1.0495893E-1,-4.878076E-1,-2.6626185E-1,-5.0526124E-1,-4.1044554E-1,-5.7197654E-1,-7.3690885E-1,-7.749057E-1,-8.3515805E-1,-9.7160506E-1,-8.346199E-1,-6.868701E-1,-4.646176E-1,-6.027132E-1,-7.395816E-1,3.4800327E-1,1.4800122E-2,5.752423E-1,4.7758526E-1,-1.4707176E-2,-2.719454E-1,-2.3886654E-1,-5.7569635E-1,9.560339E-1,1.0237952E0,5.2677333E-1,8.8126814E-1,6.06791E-1,8.455629E-1,5.7609814E-1,6.8844485E-1],"split_indices":[2,9,8,7,10,7,7,8,8,8,7,8,0,10,4,7,8,2,4,8,8,8,8,0,1,2,8,8,4,8,8,7,8,4,10,2,8,7,7,7,8,8,7,7,4,0,0,1,8,8,4,2,7,7,7,0,0,0,0,0,0,0,0,0,0,0,0,0,0,0,0,0,0,0,0,0,0,0,0,0,0,0,0,0,0,0,0,0,0,0,0,0,0,0,0,0,0,0,0,0,0,0,0],"split_type":[0,0,0,0,0,0,0,0,0,0,0,0,0,0,0,0,0,0,0,0,0,0,0,0,0,0,0,0,0,0,0,0,0,0,0,0,0,0,0,0,0,0,0,0,0,0,0,0,0,0,0,0,0,0,0,0,0,0,0,0,0,0,0,0,0,0,0,0,0,0,0,0,0,0,0,0,0,0,0,0,0,0,0,0,0,0,0,0,0,0,0,0,0,0,0,0,0,0,0,0,0,0,0],"sum_hessian":[3.1989E4,2.3983E4,8.006E3,1.0281E4,1.3702E4,3.862E3,4.144E3,5.798E3,4.483E3,6.269E3,7.433E3,2.8E2,3.582E3,4.41E2,3.703E3,2.691E3,3.107E3,1.225E3,3.258E3,2.22E3,4.049E3,6.469E3,9.64E2,2.73E2,7E0,2.85E2,1.56E2,2.345E3,1.358E3,1.271E3,1.42E3,2.441E3,6.66E2,1.164E3,6.1E1,1.747E3,1.511E3,7.2E2,1.5E3,1.902E3,2.147E3,3.894E3,2.575E3,5.64E2,4E2,6E0,1E0,3.1E1,2.54E2,1.06E2,5E1,2.008E3,3.37E2,8.55E2,5.03E2,2.04E2,1.067E3,2.77E2,1.143E3,7.61E2,1.68E3,4.69E2,1.97E2,6.71E2,4.93E2,6E1,1E0,1.672E3,7.5E1,1.096E3,4.15E2,6.3E2,9E1,2.5E2,1.25E3,4.88E2,1.414E3,1.762E3,3.85E2,1.706E3,2.188E3,2.007E3,5.68E2,9.9E1,4.65E2,1.9E2,2.1E2,2.3E1,8E0,1.14E2,1.4E2,4E1,6.6E1,8E0,4.2E1,9.67E2,1.041E3,1.3E1,3.24E2,7.6E1,7.79E2,2.11E2,2.92E2],"tree_param":{"num_deleted":"0","num_feature":"11","num_nodes":"103","size_leaf_vector":"1"}},{"base_weights":[9.4872154E-2,2.9952711E1,-1.3759496E1,1.2623202E1,3.4526924E1,-6.817301E0,-2.619195E1,2.6754457E1,7.528977E0,4.120227E1,2.799695E1,-1.3572712E0,-1.4824151E1,-1.7158855E1,-2.7725803E1,2.9309042E1,7.063189E-1,1.2037838E1,3.278651E0,1.2424963E0,3.8901688E1,2.9989485E1,1.9663483E1,5.373353E0,-4.1831284E0,-1.169209E1,-1.8401781E1,-1.2369793E1,-2.082591E1,-2.6022533E1,-3.0234093E1,2.4492428E-1,8.8053155E-1,1.0594911E1,1.4558522E1,4.699006E0,-4.0975266E0,3.3630133E-1,1.1684433E0,3.0887096E1,2.2843899E1,2.1724934E1,1.6982777E1,7.376387E0,-3.575143E-1,-1.5196842E0,-6.922933E0,-9.28005E0,-1.3417124E1,-1.728295E1,-2.2081528E1,-8.610291E0,-1.3976328E1,-1.8729055E1,-2.4257713E1,-2.5027855E1,-2.696752E1,-2.4609941E1,-3.087354E1,3.2124457E-1,-1.7268242E-1,5.557707E-1,3.7048638E-1,2.6085794E-1,1.0843782E-1,-5.4273438E-2,-2.9587305E-1,9.6163064E-1,8.6276704E-1,6.3671154E-1,7.245696E-1,7.0841503E-1,5.538528E-1,-4.7769226E-2,5.2106255E-1,2.573621E-1,6.056086E-2,9.55394E-2,-1.0108078E-1,4.5921303E-2,-1.0687906E-1,-1.4352912E-1,-2.5365826E-1,-2.2375219E-1,-3.555437E-1,-3.5406333E-1,-4.384907E-1,-4.6532077E-1,-5.5891466E-1,-5.812515E-1,-7.1386343E-1,-1.0961563E-1,-2.787264E-1,-3.773113E-1,-4.6625644E-1,-5.214891E-1,-6.1324537E-1,-6.622955E-1,-7.9899096E-1,-7.522724E-1,-4.2669836E-1,-3.5157245E-1,-8.1155276E-1,-7.0641744E-1,-8.657243E-1,-8.928542E-1,-9.7952E-1],"categories":[],"categories_nodes":[],"categories_segments":[],"categories_sizes":[],"default_left":[0,0,0,0,0,0,0,0,0,0,0,0,0,0,0,0,0,0,0,0,0,0,0,0,0,0,0,0,0,0,0,0,0,0,0,0,0,0,0,0,0,0,0,0,0,0,0,0,0,0,0,0,0,0,0,0,0,0,0,0,0,0,0,0,0,0,0,0,0,0,0,0,0,0,0,0,0,0,0,0,0,0,0,0,0,0,0,0,0,0,0,0,0,0,0,0,0,0,0,0,0,0,0,0,0,0,0],"id":1,"left_children":[1,3,5,7,9,11,13,15,17,19,21,23,25,27,29,31,-1,33,35,-1,37,39,41,43,45,47,49,51,53,55,57,-1,-1,59,61,63,65,-1,-1,67,69,71,73,75,77,79,81,83,85,87,89,91,93,95,97,99,101,103,105,-1,-1,-1,-1,-1,-1,-1,-1,-1,-1,-1,-1,-1,-1,-1,-1,-1,-1,-1,-1,-1,-1,-1,-1,-1,-1,-1,-1,-1,-1,-1,-1,-1,-1,-1,-1,-1,-1,-1,-1,-1,-1,-1,-1,-1,-1,-1,-1],"loss_changes":[1.330211E7,8.07472E5,1.8955882E6,1.531326E5,3.50312E5,6.162238E5,1.085665E5,3.9355938E3,2.9990719E4,3.53E2,6.714125E4,1.5944628E5,6.38235E4,1.9850594E4,2.79485E4,3.571875E1,0E0,2.61E3,8.4845E3,0E0,2.10625E1,2.039625E4,3.9967188E3,2.8459383E4,4.307283E4,1.25660625E4,1.059425E4,2.8935078E3,4.2015E3,3.097E3,9.0005E3,0E0,0E0,9.63375E2,2.172379E3,2.9067441E3,1.7103735E3,0E0,0E0,6.33175E3,2.7385938E2,2.294625E3,2.5226562E3,1.1816305E4,6.8705376E3,1.8669713E4,9.4959375E3,5.883953E3,3.2672188E3,4.6045E3,2.4056562E3,4.7879297E2,5.66875E2,5.805469E2,6.658594E2,6.6225E2,2.31E3,5.93375E2,3.83525E3,0E0,0E0,0E0,0E0,0E0,0E0,0E0,0E0,0E0,0E0,0E0,0E0,0E0,0E0,0E0,0E0,0E0,0E0,0E0,0E0,0E0,0E0,0E0,0E0,0E0,0E0,0E0,0E0,0E0,0E0,0E0,0E0,0E0,0E0,0E0,0E0,0E0,0E0,0E0,0E0,0E0,0E0,0E0,0E0,0E0,0E0,0E0,0E0],"parents":[2147483647,0,0,1,1,2,2,3,3,4,4,5,5,6,6,7,7,8,8,9,9,10,10,11,11,12,12,13,13,14,14,15,15,17,17,18,18,20,20,21,21,22,22,23,23,24,24,25,25,26,26,27,27,28,28,29,29,30,30,33,33,34,34,35,35,36,36,39,39,40,40,41,41,42,42,43,43,44,44,45,45,46,46,47,47,48,48,49,49,50,50,51,51,52,52,53,53,54,54,55,55,56,56,57,57,58,58],"right_children":[2,4,6,8,10,12,14,16,18,20,22,24,26,28,30,32,-1,34,36,-1,38,40,42,44,46,48,50,52,54,56,58,-1,-1,60,62,64,66,-1,-1,68,70,72,74,76,78,80,82,84,86,88,90,92,94,96,98,100,102,104,106,-1,-1,-1,-1,-1,-1,-1,-1,-1,-1,-1,-1,-1,-1,-1,-1,-1,-1,-1,-1,-1,-1,-1,-1,-1,-1,-1,-1,-1,-1,-1,-1,-1,-1,-1,-1,-1,-1,-1,-1,-1,-1,-1,-1,-1,-1,-1,-1],"split_conditions":[5.46E1,1.561E2,8.35E1,2.99E1,2.99E1,1.239E2,4.17E0,6E0,6.1E0,3.85E1,3.44E1,6.1E0,2.017E2,1.408E2,1.408E2,7.88E1,7.063189E-1,1.198E2,1.028E2,1.2424963E0,1.582E2,6E0,6.1E0,6.85E1,6.82E1,7.05E1,2.787E2,8.74E1,2.287E2,1.146E2,9.43E1,2.4492428E-1,8.8053155E-1,6.977E3,4.69E1,4.58E1,1.524E2,3.3630133E-1,1.1684433E0,5.1E0,1.908E2,4.34E1,1.661E2,6.78E1,5.34E1,6.45E1,8.03E1,1.59E2,1.524E2,7.17E1,7.25E1,6E0,1.177E2,8.74E1,7.8E0,1.167E2,8E3,2.858E2,1.747E2,3.2124457E-1,-1.7268242E-1,5.557707E-1,3.7048638E-1,2.6085794E-1,1.0843782E-1,-5.4273438E-2,-2.9587305E-1,9.6163064E-1,8.6276704E-1,6.3671154E-1,7.245696E-1,7.0841503E-1,5.538528E-1,-4.7769226E-2,5.2106255E-1,2.573621E-1,6.056086E-2,9.55394E-2,-1.0108078E-1,4.5921303E-2,-1.0687906E-1,-1.4352912E-1,-2.5365826E-1,-2.2375219E-1,-3.555437E-1,-3.5406333E-1,-4.384907E-1,-4.6532077E-1,-5.5891466E-1,-5.812515E-1,-7.1386343E-1,-1.0961563E-1,-2.787264E-1,-3.773113E-1,-4.6625644E-1,-5.214891E-1,-6.1324537E-1,-6.622955E-1,-7.9899096E-1,-7.522724E-1,-4.2669836E-1,-3.5157245E-1,-8.1155276E-1,-7.0641744E-1,-8.657243E-1,-8.928542E-1,-9.7952E-1],"split_indices":[5,2,5,8,8,8,10,4,4,5,5,4,8,8,8,2,0,2,8,0,2,4,4,5,5,5,8,8,8,8,5,0,0,6,5,5,8,0,0,4,2,5,2,8,8,8,8,8,8,5,5,4,8,5,4,2,6,8,8,0,0,0,0,0,0,0,0,0,0,0,0,0,0,0,0,0,0,0,0,0,0,0,0,0,0,0,0,0,0,0,0,0,0,0,0,0,0,0,0,0,0,0,0,0,0,0,0],"split_type":[0,0,0,0,0,0,0,0,0,0,0,0,0,0,0,0,0,0,0,0,0,0,0,0,0,0,0,0,0,0,0,0,0,0,0,0,0,0,0,0,0,0,0,0,0,0,0,0,0,0,0,0,0,0,0,0,0,0,0,0,0,0,0,0,0,0,0,0,0,0,0,0,0,0,0,0,0,0,0,0,0,0,0,0,0,0,0,0,0,0,0,0,0,0,0,0,0,0,0,0,0,0,0,0,0,0,0],"sum_hessian":[3.2155E4,1.0191E4,2.1964E4,2.129E3,8.062E3,1.4095E4,7.869E3,5.63E2,1.566E3,3.984E3,4.078E3,8.381E3,5.714E3,1.144E3,6.725E3,3.09E2,2.54E2,7.59E2,8.07E2,3.629E3,3.55E2,3.289E3,7.89E2,2.478E3,5.903E3,3.049E3,2.665E3,4.98E2,6.46E2,4.012E3,2.713E3,1E0,3.08E2,4.86E2,2.73E2,6.77E2,1.3E2,1E0,3.54E2,2.919E3,3.7E2,4.42E2,3.47E2,1.836E3,6.42E2,2.994E3,2.909E3,1.274E3,1.775E3,2.048E3,6.17E2,1.51E2,3.47E2,4.05E2,2.41E2,1.968E3,2.044E3,2.81E2,2.432E3,4.83E2,3E0,9.5E1,1.78E2,1.43E2,5.34E2,9.4E1,3.6E1,1.876E3,1.043E3,1.73E2,1.97E2,2.76E2,1.66E2,7E0,3.4E2,1.499E3,3.37E2,2.95E2,3.47E2,1.201E3,1.793E3,1.216E3,1.693E3,7.48E2,5.26E2,7.61E2,1.014E3,8.9E2,1.158E3,2.44E2,3.73E2,1.9E1,1.32E2,1.88E2,1.59E2,2.33E2,1.72E2,1.31E2,1.1E2,1.958E3,1E1,1.2E1,2.032E3,2.3E2,5.1E1,1.507E3,9.25E2],"tree_param":{"num_deleted":"0","num_feature":"11","num_nodes":"107","size_leaf_vector":"1"}},{"base_weights":[3.2984264E-2,-1.086875E1,3.2724575E1,1.5451429E0,-2.0157377E1,3.999565E1,2.582898E1,-4.75324E0,9.530624E0,-1.3536435E1,-2.5931267E1,4.0005306E1,3.563278E-2,9.71504E0,2.8417196E1,-1.3272169E0,-7.932954E0,1.7336407E1,6.4790926E0,-8.5612335E0,-1.6760109E1,-2.691971E1,-1.7571709E1,3.733485E1,1.2064574E0,1.6256063E1,-9.9759655E0,3.0423622E1,2.563274E1,-4.0995154E0,9.07391E-1,-6.51493E0,-1.1962714E1,1.610813E1,3.6221317E1,5.8518724E0,2.1790462E1,-1.59217415E1,-7.4833765E0,-1.499985E1,-2.0169247E1,-3.0083418E1,-2.5719368E1,-1.4907195E1,-2.1407978E1,1.1288701E0,2.5100212E1,1.6498907E1,-3.6142013E0,-6.063696E0,-1.6705826E1,2.4603117E1,3.0922089E1,2.0230331E1,2.6449186E1,-2.7684506E-2,-1.3888781E-1,1.6949096E-1,-8.078544E-3,-2.7169698E-1,-1.6191202E-1,-3.2514787E-1,-4.535974E-1,4.2176786E-1,5.628595E-1,1.1197592E0,3.8576412E-1,2.11675E-1,-1.3412725E-2,3.3894998E-1,7.508142E-1,-3.5578358E-1,-6.928623E-1,-1.4483692E-1,-2.882577E-1,-5.2044994E-1,-4.2660597E-1,-6.695808E-1,-5.5121654E-1,-8.2720816E-1,-9.420779E-1,-7.340354E-1,-8.0665404E-1,-2.0485911E-1,-4.6840337E-1,-5.981432E-1,-7.0028305E-1,7.984025E-1,1.7222065E-1,4.5024937E-1,5.503039E-1,4.4193476E-2,-1.4778863E-1,-4.3667357E-2,-2.514499E-1,-5.4064935E-1,-1.701742E-1,6.0099345E-1,7.7935123E-1,8.9758325E-1,9.834855E-1,6.102319E-1,-2.7074032E-2,7.257014E-1,8.3562356E-1],"categories":[],"categories_nodes":[],"categories_segments":[],"categories_sizes":[],"default_left":[0,0,0,0,0,0,0,0,0,0,0,0,0,0,0,0,0,0,0,0,0,0,0,0,0,0,0,0,0,0,0,0,0,0,0,0,0,0,0,0,0,0,0,0,0,0,0,0,0,0,0,0,0,0,0,0,0,0,0,0,0,0,0,0,0,0,0,0,0,0,0,0,0,0,0,0,0,0,0,0,0,0,0,0,0,0,0,0,0,0,0,0,0,0,0,0,0,0,0,0,0,0,0,0,0],"id":2,"left_children":[1,3,5,7,9,11,13,15,17,19,21,23,-1,25,27,29,31,33,35,37,39,41,43,45,-1,47,49,51,53,55,57,59,61,63,65,67,69,71,73,75,77,79,81,83,85,-1,87,89,91,93,95,97,99,101,103,-1,-1,-1,-1,-1,-1,-1,-1,-1,-1,-1,-1,-1,-1,-1,-1,-1,-1,-1,-1,-1,-1,-1,-1,-1,-1,-1,-1,-1,-1,-1,-1,-1,-1,-1,-1,-1,-1,-1,-1,-1,-1,-1,-1,-1,-1,-1,-1,-1,-1],"loss_changes":[1.1418183E7,2.7704212E6,4.00676E5,5.1728547E5,5.25025E5,1.413E3,1.7134575E5,6.2628688E4,1.079095E5,1.02566625E5,6.0177E4,6.835E2,0E0,7.3706586E4,1.902525E4,1.7157676E4,1.6962078E4,2.8968094E4,3.1199422E4,1.9873453E4,2.3011125E4,2.4146E4,7.6436406E3,1.2796875E2,0E0,2.1297031E3,3.663752E3,5.2015E3,6.0413125E3,2.0770273E3,8.561484E3,6.224492E3,2.587461E3,6.2512812E3,1.5060234E3,2.3778078E4,4.0640703E3,9.080523E3,1.2369227E4,4.451625E3,4.6854375E3,5.090375E3,6.3125E3,2.5350156E3,4.3610938E2,0E0,1.4016992E2,8.9047656E2,4.7307007E1,9.7049536E2,6.5270215E2,5.2914844E2,2.5435E3,4.8635938E2,3.4269375E3,0E0,0E0,0E0,0E0,0E0,0E0,0E0,0E0,0E0,0E0,0E0,0E0,0E0,0E0,0E0,0E0,0E0,0E0,0E0,0E0,0E0,0E0,0E0,0E0,0E0,0E0,0E0,0E0,0E0,0E0,0E0,0E0,0E0,0E0,0E0,0E0,0E0,0E0,0E0,0E0,0E0,0E0,0E0,0E0,0E0,0E0,0E0,0E0,0E0,0E0],"parents":[2147483647,0,0,1,1,2,2,3,3,4,4,5,5,6,6,7,7,8,8,9,9,10,10,11,11,13,13,14,14,15,15,16,16,17,17,18,18,19,19,20,20,21,21,22,22,23,23,25,25,26,26,27,27,28,28,29,29,30,30,31,31,32,32,33,33,34,34,35,35,36,36,37,37,38,38,39,39,40,40,41,41,42,42,43,43,44,44,46,46,47,47,48,48,49,49,50,50,51,51,52,52,53,53,54,54],"right_children":[2,4,6,8,10,12,14,16,18,20,22,24,-1,26,28,30,32,34,36,38,40,42,44,46,-1,48,50,52,54,56,58,60,62,64,66,68,70,72,74,76,78,80,82,84,86,-1,88,90,92,94,96,98,100,102,104,-1,-1,-1,-1,-1,-1,-1,-1,-1,-1,-1,-1,-1,-1,-1,-1,-1,-1,-1,-1,-1,-1,-1,-1,-1,-1,-1,-1,-1,-1,-1,-1,-1,-1,-1,-1,-1,-1,-1,-1,-1,-1,-1,-1,-1,-1,-1,-1,-1,-1],"split_conditions":[1.687E2,4E0,2.99E1,8.5E0,4.32E0,9.22E1,8.5E0,8.74E1,3.05E1,1.463E2,4.1E0,8.7E0,3.563278E-2,2.57E0,5.8E1,6.6E0,1.386E2,1.45E2,1.494E2,3.2E0,2.418E2,1.4E0,2.325E2,2.81E1,1.2064574E0,9.18E1,1.803E2,1.03E1,1.02E1,4.35E1,2.99E1,4.8E0,1.803E2,1E1,3.17E0,8.03E1,1.06E1,4.01E0,9.43E1,1.11E2,5.3E0,1.487E2,1.231E2,1.177E2,2.787E2,1.1288701E0,8.42E1,2.167E2,5.43E1,1.082E2,6.94E1,2.041E2,2.091E2,5.33E1,1.947E2,-2.7684506E-2,-1.3888781E-1,1.6949096E-1,-8.078544E-3,-2.7169698E-1,-1.6191202E-1,-3.2514787E-1,-4.535974E-1,4.2176786E-1,5.628595E-1,1.1197592E0,3.8576412E-1,2.11675E-1,-1.3412725E-2,3.3894998E-1,7.508142E-1,-3.5578358E-1,-6.928623E-1,-1.4483692E-1,-2.882577E-1,-5.2044994E-1,-4.2660597E-1,-6.695808E-1,-5.5121654E-1,-8.2720816E-1,-9.420779E-1,-7.340354E-1,-8.0665404E-1,-2.0485911E-1,-4.6840337E-1,-5.981432E-1,-7.0028305E-1,7.984025E-1,1.7222065E-1,4.5024937E-1,5.503039E-1,4.4193476E-2,-1.4778863E-1,-4.3667357E-2,-2.514499E-1,-5.4064935E-1,-1.701742E-1,6.0099345E-1,7.7935123E-1,8.9758325E-1,9.834855E-1,6.102319E-1,-2.7074032E-2,7.257014E-1,8.3562356E-1],"split_indices":[2,9,8,7,10,1,7,8,8,8,7,7,0,10,8,7,8,2,2,7,8,7,8,8,0,1,8,7,7,8,8,7,8,7,10,8,7,10,8,2,7,8,8,8,8,0,1,2,0,8,0,2,2,0,2,0,0,0,0,0,0,0,0,0,0,0,0,0,0,0,0,0,0,0,0,0,0,0,0,0,0,0,0,0,0,0,0,0,0,0,0,0,0,0,0,0,0,0,0,0,0,0,0,0,0],"split_type":[0,0,0,0,0,0,0,0,0,0,0,0,0,0,0,0,0,0,0,0,0,0,0,0,0,0,0,0,0,0,0,0,0,0,0,0,0,0,0,0,0,0,0,0,0,0,0,0,0,0,0,0,0,0,0,0,0,0,0,0,0,0,0,0,0,0,0,0,0,0,0,0,0,0,0,0,0,0,0,0,0,0,0,0,0,0,0,0,0,0,0,0,0,0,0,0,0,0,0,0,0,0,0,0,0],"sum_hessian":[3.2036E4,2.4025E4,8.011E3,1.0283E4,1.3742E4,3.897E3,4.114E3,5.749E3,4.534E3,6.403E3,7.339E3,3.896E3,1E0,5.7E2,3.544E3,2.768E3,2.981E3,1.273E3,3.261E3,2.519E3,3.884E3,6.561E3,7.78E2,2.97E2,3.599E3,4.28E2,1.42E2,2.054E3,1.49E3,1.235E3,1.533E3,2.207E3,7.74E2,1.197E3,7.6E1,3.134E3,1.27E2,3.2E2,2.199E3,2.565E3,1.319E3,1.798E3,4.763E3,4.62E2,3.16E2,2.88E2,9E0,4.23E2,5E0,9.1E1,5.1E1,1.66E2,1.888E3,1.99E2,1.291E3,1.77E2,1.058E3,3.04E2,1.229E3,6.72E2,1.535E3,5.74E2,2E2,6.79E2,5.18E2,7.2E1,4E0,2.631E3,5.03E2,3.1E1,9.6E1,2.06E2,1.14E2,9.79E2,1.22E3,6.34E2,1.931E3,5.95E2,7.24E2,6.27E2,1.171E3,2.311E3,2.452E3,3.8E1,4.24E2,1.86E2,1.3E2,8E0,1E0,2.39E2,1.84E2,1E0,4E0,3.1E1,6E1,4.5E1,6E0,4.2E1,1.24E2,1.238E3,6.5E2,1.98E2,1E0,5.02E2,7.89E2],"tree_param":{"num_deleted":"0","num_feature":"11","num_nodes":"105","size_leaf_vector":"1"}},{"base_weights":[1.316428E-1,2.8311949E1,-1.2968976E1,1.1996548E1,3.2563396E1,-6.383515E0,-2.4665243E1,2.5126684E1,7.2118506E0,3.8779854E1,2.6444447E1,-1.3239306E0,-1.3954591E1,-1.5969355E1,-2.6033575E1,2.3396233E1,2.7569742E1,6.31548E-1,9.462006E0,1.0783281E0,1.1691487E0,2.8172659E1,1.8139439E1,-4.692351E0,4.3694158E0,-1.0942279E1,-1.7335012E1,-1.2588938E1,-2.0230793E1,-2.4642546E1,-2.8688747E1,2.3882172E1,1.2901496E1,6.1901355E-1,8.464031E-1,2.0588007E0,-7.50724E0,6.7008557E0,1.074927E1,3.0096212E1,2.598031E1,1.5783353E1,2.112715E1,-2.6001294E0,-6.770918E0,5.821438E0,-4.639629E-1,-8.070908E0,-1.2340758E1,-1.6115427E1,-2.0688501E1,-8.206374E0,-1.4067344E1,-1.8691797E1,-2.3757893E1,-1.5450516E1,-2.4749344E1,-2.9951128E1,-2.5368961E1,7.439846E-1,6.186861E-1,5.957935E-1,2.7698427E-1,1.0632856E-1,-2.4802003E-2,-1.1833737E-1,-3.9959064E-1,2.1340266E-1,4.3112103E-2,4.0410322E-1,2.7614516E-1,8.6832124E-1,9.389721E-1,7.27228E-1,8.32741E-1,1.6260454E-1,4.8869744E-1,6.958924E-1,5.924693E-1,-1.1958606E-1,-5.792115E-3,-1.3758308E-1,-2.3978677E-1,2.1986444E-1,1.02060385E-1,5.5973496E-2,-9.4618686E-2,-1.821556E-1,-2.9566476E-1,-3.030225E-1,-4.009403E-1,-3.950118E-1,-5.0648504E-1,-5.5254704E-1,-6.703546E-1,-4.1358933E-1,-2.2240028E-1,-5.1043886E-1,-3.8544837E-1,-5.2484536E-1,-6.06764E-1,-7.384117E-1,-4.835353E-1,-5.145653E-1,-2.4196073E-1,-7.172741E-1,-7.759888E-1,-8.7537444E-1,-9.5366E-1,-7.978591E-1,-6.637574E-1],"categories":[],"categories_nodes":[],"categories_segments":[],"categories_sizes":[],"default_left":[0,0,0,0,0,0,0,0,0,0,0,0,0,0,0,0,0,0,0,0,0,0,0,0,0,0,0,0,0,0,0,0,0,0,0,0,0,0,0,0,0,0,0,0,0,0,0,0,0,0,0,0,0,0,0,0,0,0,0,0,0,0,0,0,0,0,0,0,0,0,0,0,0,0,0,0,0,0,0,0,0,0,0,0,0,0,0,0,0,0,0,0,0,0,0,0,0,0,0,0,0,0,0,0,0,0,0,0,0,0,0],"id":3,"left_children":[1,3,5,7,9,11,13,15,17,19,21,23,25,27,29,31,33,35,37,-1,-1,39,41,43,45,47,49,51,53,55,57,59,61,-1,-1,63,65,67,69,71,73,75,77,79,81,83,85,87,89,91,93,95,97,99,101,103,105,107,109,-1,-1,-1,-1,-1,-1,-1,-1,-1,-1,-1,-1,-1,-1,-1,-1,-1,-1,-1,-1,-1,-1,-1,-1,-1,-1,-1,-1,-1,-1,-1,-1,-1,-1,-1,-1,-1,-1,-1,-1,-1,-1,-1,-1,-1,-1,-1,-1,-1,-1,-1,-1],"loss_changes":[1.1820386E7,7.04418E5,1.6833848E6,1.3187425E5,3.05561E5,5.356979E5,9.3264E4,1.726625E3,2.2825953E4,7.725E2,5.783325E4,1.6080536E5,5.6854875E4,1.5202375E4,2.4412E4,1.4003125E3,4.313125E2,4.5922026E3,4.0118984E3,0E0,0E0,1.340025E4,4.615172E3,2.2892E4,2.187834E4,1.1806531E4,1.0455625E4,3.7785547E3,2.1234531E3,4.00575E3,9.013375E3,4.4232812E2,2.506106E2,0E0,0E0,1.4431665E3,1.1692185E3,7.889492E2,3.1620781E3,1.567875E3,4.2095E3,1.9958125E3,4.1739062E2,8.763844E3,7.0169297E3,8.716898E3,4.524393E3,3.4148906E3,4.4338125E3,4.164875E3,2.2211562E3,5.7925684E2,1.3910234E3,2.5928906E2,5.186797E2,5.402803E2,3.52675E3,1.461375E3,1.9932188E3,0E0,0E0,0E0,0E0,0E0,0E0,0E0,0E0,0E0,0E0,0E0,0E0,0E0,0E0,0E0,0E0,0E0,0E0,0E0,0E0,0E0,0E0,0E0,0E0,0E0,0E0,0E0,0E0,0E0,0E0,0E0,0E0,0E0,0E0,0E0,0E0,0E0,0E0,0E0,0E0,0E0,0E0,0E0,0E0,0E0,0E0,0E0,0E0,0E0,0E0,0E0,0E0],"parents":[2147483647,0,0,1,1,2,2,3,3,4,4,5,5,6,6,7,7,8,8,9,9,10,10,11,11,12,12,13,13,14,14,15,15,16,16,17,17,18,18,21,21,22,22,23,23,24,24,25,25,26,26,27,27,28,28,29,29,30,30,31,31,32,32,35,35,36,36,37,37,38,38,39,39,40,40,41,41,42,42,43,43,44,44,45,45,46,46,47,47,48,48,49,49,50,50,51,51,52,52,53,53,54,54,55,55,56,56,57,57,58,58],"right_children":[2,4,6,8,10,12,14,16,18,20,22,24,26,28,30,32,34,36,38,-1,-1,40,42,44,46,48,50,52,54,56,58,60,62,-1,-1,64,66,68,70,72,74,76,78,80,82,84,86,88,90,92,94,96,98,100,102,104,106,108,110,-1,-1,-1,-1,-1,-1,-1,-1,-1,-1,-1,-1,-1,-1,-1,-1,-1,-1,-1,-1,-1,-1,-1,-1,-1,-1,-1,-1,-1,-1,-1,-1,-1,-1,-1,-1,-1,-1,-1,-1,-1,-1,-1,-1,-1,-1,-1,-1,-1,-1,-1,-1],"split_conditions":[5.46E1,1.561E2,8.35E1,3.05E1,2.99E1,1.239E2,4.11E0,1.144E2,8.5E0,8.6E0,3.59E1,8.2E0,2.017E2,1.606E2,1.475E2,2.99E1,8.6E0,1.35E2,1.046E2,1.0783281E0,1.1691487E0,5.27E1,8.6E0,6.92E1,6.93E1,6.85E1,2.727E2,8.67E1,2.54E2,8.96E1,2.2E0,5.26E1,8.78E1,6.1901355E-1,8.464031E-1,8.67E1,5E0,7.94E1,4.75E1,2.041E2,2.003E2,5.7E0,2E0,6.8E0,7.52E1,6.35E1,6.56E1,1.487E2,4E0,6.73E1,7.31E1,1.014E2,3.8E0,2.088E2,6.6E0,1.389E2,1.215E2,1.905E2,4.1E0,7.439846E-1,6.186861E-1,5.957935E-1,2.7698427E-1,1.0632856E-1,-2.4802003E-2,-1.1833737E-1,-3.9959064E-1,2.1340266E-1,4.3112103E-2,4.0410322E-1,2.7614516E-1,8.6832124E-1,9.389721E-1,7.27228E-1,8.32741E-1,1.6260454E-1,4.8869744E-1,6.958924E-1,5.924693E-1,-1.1958606E-1,-5.792115E-3,-1.3758308E-1,-2.3978677E-1,2.1986444E-1,1.02060385E-1,5.5973496E-2,-9.4618686E-2,-1.821556E-1,-2.9566476E-1,-3.030225E-1,-4.009403E-1,-3.950118E-1,-5.0648504E-1,-5.5254704E-1,-6.703546E-1,-4.1358933E-1,-2.2240028E-1,-5.1043886E-1,-3.8544837E-1,-5.2484536E-1,-6.06764E-1,-7.384117E-1,-4.835353E-1,-5.145653E-1,-2.4196073E-1,-7.172741E-1,-7.759888E-1,-8.7537444E-1,-9.5366E-1,-7.978591E-1,-6.637574E-1],"split_indices":[5,2,5,8,8,8,10,2,7,7,5,7,8,8,8,8,7,8,2,0,0,8,7,5,8,5,8,8,8,5,7,5,1,0,0,8,9,8,5,2,2,7,9,7,8,5,5,8,9,5,5,2,7,8,7,2,8,8,7,0,0,0,0,0,0,0,0,0,0,0,0,0,0,0,0,0,0,0,0,0,0,0,0,0,0,0,0,0,0,0,0,0,0,0,0,0,0,0,0,0,0,0,0,0,0,0,0,0,0,0,0],"split_type":[0,0,0,0,0,0,0,0,0,0,0,0,0,0,0,0,0,0,0,0,0,0,0,0,0,0,0,0,0,0,0,0,0,0,0,0,0,0,0,0,0,0,0,0,0,0,0,0,0,0,0,0,0,0,0,0,0,0,0,0,0,0,0,0,0,0,0,0,0,0,0,0,0,0,0,0,0,0,0,0,0,0,0,0,0,0,0,0,0,0,0,0,0,0,0,0,0,0,0,0,0,0,0,0,0,0,0,0,0,0,0],"sum_hessian":[3.2016E4,1.016E4,2.1856E4,2.101E3,8.059E3,1.3984E4,7.872E3,5.6E2,1.541E3,3.995E3,4.064E3,8.383E3,5.601E3,1.072E3,6.8E3,3.34E2,2.26E2,3.93E2,1.148E3,2.65E2,3.73E3,3.362E3,7.02E2,5.267E3,3.116E3,2.964E3,2.637E3,6E2,4.72E2,4.469E3,2.331E3,3.18E2,1.6E1,2.2E1,2.04E2,3.35E2,5.8E1,3.67E2,7.81E2,1.784E3,1.578E3,3.96E2,3.06E2,2.626E3,2.641E3,2.396E3,7.2E2,9.73E2,1.991E3,1.938E3,6.99E2,1.53E2,4.47E2,3.33E2,1.39E2,5.3E1,4.416E3,1.683E3,6.48E2,2.43E2,7.5E1,4E0,1.2E1,2.21E2,1.14E2,3.7E1,2.1E1,3.4E2,2.7E1,2.8E2,5.01E2,9.24E2,8.6E2,8.05E2,7.73E2,1.9E1,3.77E2,1.16E2,1.9E2,1.666E3,9.6E2,9.49E2,1.692E3,1.475E3,9.21E2,3.86E2,3.34E2,4.61E2,5.12E2,6.28E2,1.363E3,4.04E2,1.534E3,3E2,3.99E2,1.7E1,1.36E2,1.27E2,3.2E2,1.94E2,1.39E2,1.23E2,1.6E1,4.2E1,1.1E1,2.533E3,1.883E3,1.197E3,4.86E2,4.65E2,1.83E2],"tree_param":{"num_deleted":"0","num_feature":"11","num_nodes":"111","size_leaf_vector":"1"}},{"base_weights":[-1.9195523E-3,2.737811E1,-1.2590267E1,3.2003613E1,1.3510917E1,-6.23761E0,-2.398622E1,3.764408E1,2.6288607E1,2.6900984E1,8.677154E0,-1.2472734E0,-1.3625339E1,-1.5589037E1,-2.5319185E1,1.134575E0,3.336548E1,2.775044E1,1.856112E1,3.4527397E1,2.42542E1,1.6043892E1,6.403955E0,-4.296268E0,4.905884E0,-1.0774065E1,-1.6799673E1,-1.1603946E1,-1.9160074E1,-2.3922659E1,-2.7819706E1,1.0230685E0,6.757186E-1,2.8273357E1,2.0670786E1,1.9493977E1,8.945958E0,1.0514926E0,7.4186844E-1,2.6722841E1,6.327955E-1,1.6676455E1,1.030458E1,1.0688935E1,2.3846292E0,-2.622154E0,-7.1198826E0,8.480938E0,7.9506165E-1,-8.282336E0,-1.2206482E1,-1.559962E1,-2.0022438E1,-7.5962405E0,-1.2976106E1,-1.6583982E1,-2.1932352E1,-1.3945912E1,-2.4049435E1,-2.1858097E1,-2.8493086E1,8.8566494E-1,7.967282E-1,6.546172E-1,3.4803534E-1,5.042737E-1,6.1398184E-1,4.200249E-2,3.0051687E-1,5.8874345E-1,8.159657E-1,4.4660157E-1,5.906623E-1,4.38561E-1,1.6064587E-1,1.7140296E-1,3.5227522E-1,1.2886092E-1,-8.215528E-2,1.9309918E-3,-1.2393589E-1,-1.3956717E-1,-2.4129613E-1,3.0608055E-1,2.0305629E-1,9.485159E-2,-3.3713985E-2,-1.9015408E-1,-2.9636106E-1,-3.1881237E-1,-4.056079E-1,-3.8666603E-1,-4.9078044E-1,-5.6284463E-1,-6.71601E-1,-1.582802E-1,-2.9209566E-1,-4.5003462E-1,-3.4725913E-1,-5.4703474E-1,-4.4363886E-1,-5.6155056E-1,-7.0878667E-1,-4.6692201E-1,-2.6479903E-1,-6.92372E-1,-7.48686E-1,-5.9392846E-1,-7.572217E-1,-8.812943E-1,-8.055908E-1],"categories":[],"categories_nodes":[],"categories_segments":[],"categories_sizes":[],"default_left":[0,0,0,0,0,0,0,0,0,0,0,0,0,0,0,0,0,0,0,0,0,0,0,0,0,0,0,0,0,0,0,0,0,0,0,0,0,0,0,0,0,0,0,0,0,0,0,0,0,0,0,0,0,0,0,0,0,0,0,0,0,0,0,0,0,0,0,0,0,0,0,0,0,0,0,0,0,0,0,0,0,0,0,0,0,0,0,0,0,0,0,0,0,0,0,0,0,0,0,0,0,0,0,0,0,0,0,0,0,0,0],"id":4,"left_children":[1,3,5,7,9,11,13,15,17,19,21,23,25,27,29,-1,31,33,35,37,39,41,43,45,47,49,51,53,55,57,59,-1,-1,61,63,65,67,-1,-1,69,-1,71,73,75,77,79,81,83,85,87,89,91,93,95,97,99,101,103,105,107,109,-1,-1,-1,-1,-1,-1,-1,-1,-1,-1,-1,-1,-1,-1,-1,-1,-1,-1,-1,-1,-1,-1,-1,-1,-1,-1,-1,-1,-1,-1,-1,-1,-1,-1,-1,-1,-1,-1,-1,-1,-1,-1,-1,-1,-1,-1,-1,-1,-1,-1],"loss_changes":[1.1035278E7,6.46383E5,1.5876808E6,2.42742E5,1.63131E5,5.1922144E5,8.74715E4,1.5875E3,4.19475E4,1.2666625E4,3.0977938E4,1.5774434E5,5.121E4,1.5118578E4,2.29855E4,0E0,4.9401562E2,1.11105E4,5.2163125E3,3.359375E0,3.3380312E3,1.4146719E3,2.4430781E4,2.655682E4,4.0937453E4,1.05850625E4,1.0071875E4,2.7170234E3,3.6855938E3,5.17E3,9.09625E3,0E0,0E0,5.513E3,2.0514766E3,1.0836094E3,4.3057715E2,0E0,0E0,4.0215625E2,0E0,1.8202578E3,9.039878E2,3.5342031E3,7.1968594E3,1.4315201E4,4.729047E3,4.3239297E3,5.8936045E3,3.338414E3,3.7967188E3,3.8276562E3,1.7413438E3,6.0910205E2,9.043008E2,6.1372656E2,1.0276562E3,3.3479883E2,3.205E3,1.24275E3,2.358E3,0E0,0E0,0E0,0E0,0E0,0E0,0E0,0E0,0E0,0E0,0E0,0E0,0E0,0E0,0E0,0E0,0E0,0E0,0E0,0E0,0E0,0E0,0E0,0E0,0E0,0E0,0E0,0E0,0E0,0E0,0E0,0E0,0E0,0E0,0E0,0E0,0E0,0E0,0E0,0E0,0E0,0E0,0E0,0E0,0E0,0E0,0E0,0E0,0E0,0E0],"parents":[2147483647,0,0,1,1,2,2,3,3,4,4,5,5,6,6,7,7,8,8,9,9,10,10,11,11,12,12,13,13,14,14,16,16,17,17,18,18,19,19,20,20,21,21,22,22,23,23,24,24,25,25,26,26,27,27,28,28,29,29,30,30,33,33,34,34,35,35,36,36,39,39,41,41,42,42,43,43,44,44,45,45,46,46,47,47,48,48,49,49,50,50,51,51,52,52,53,53,54,54,55,55,56,56,57,57,58,58,59,59,60,60],"right_children":[2,4,6,8,10,12,14,16,18,20,22,24,26,28,30,-1,32,34,36,38,40,42,44,46,48,50,52,54,56,58,60,-1,-1,62,64,66,68,-1,-1,70,-1,72,74,76,78,80,82,84,86,88,90,92,94,96,98,100,102,104,106,108,110,-1,-1,-1,-1,-1,-1,-1,-1,-1,-1,-1,-1,-1,-1,-1,-1,-1,-1,-1,-1,-1,-1,-1,-1,-1,-1,-1,-1,-1,-1,-1,-1,-1,-1,-1,-1,-1,-1,-1,-1,-1,-1,-1,-1,-1,-1,-1,-1,-1,-1],"split_conditions":[5.46E1,4.14E1,8.35E1,2.99E1,2.99E1,1.239E2,4.09E0,6E0,6E0,2.01E0,2.24E0,8.5E0,2.017E2,1.463E2,1.463E2,1.134575E0,2.43E0,3.44E1,6.14E1,1.692E3,6E0,5.49E1,6.1E0,7.17E1,6.1E0,6.92E1,2.727E2,8.28E1,2.115E2,1.1269E4,9.22E1,1.0230685E0,6.757186E-1,5E0,2.86E0,9.6E0,8.9E0,1.0514926E0,7.4186844E-1,8E0,6.327955E-1,8.5E0,6.1E0,8.6E0,8.74E1,6.69E1,6.85E1,6.14E1,6.16E1,1.487E2,1.551E2,6.76E1,7.9E0,6.482E3,4.5E0,5E0,7.3E0,5.6E0,1.162E2,2.632E2,1.7E0,8.8566494E-1,7.967282E-1,6.546172E-1,3.4803534E-1,5.042737E-1,6.1398184E-1,4.200249E-2,3.0051687E-1,5.8874345E-1,8.159657E-1,4.4660157E-1,5.906623E-1,4.38561E-1,1.6064587E-1,1.7140296E-1,3.5227522E-1,1.2886092E-1,-8.215528E-2,1.9309918E-3,-1.2393589E-1,-1.3956717E-1,-2.4129613E-1,3.0608055E-1,2.0305629E-1,9.485159E-2,-3.3713985E-2,-1.9015408E-1,-2.9636106E-1,-3.1881237E-1,-4.056079E-1,-3.8666603E-1,-4.9078044E-1,-5.6284463E-1,-6.71601E-1,-1.582802E-1,-2.9209566E-1,-4.5003462E-1,-3.4725913E-1,-5.4703474E-1,-4.4363886E-1,-5.6155056E-1,-7.0878667E-1,-4.6692201E-1,-2.6479903E-1,-6.92372E-1,-7.48686E-1,-5.9392846E-1,-7.572217E-1,-8.812943E-1,-8.055908E-1],"split_indices":[5,5,5,8,8,8,10,4,4,10,10,7,8,8,8,0,10,5,0,6,4,0,4,5,4,5,8,8,8,6,5,0,0,4,10,7,7,0,0,7,0,7,4,7,8,8,8,5,5,8,8,5,4,6,7,7,4,7,8,8,7,0,0,0,0,0,0,0,0,0,0,0,0,0,0,0,0,0,0,0,0,0,0,0,0,0,0,0,0,0,0,0,0,0,0,0,0,0,0,0,0,0,0,0,0,0,0,0,0,0,0],"split_type":[0,0,0,0,0,0,0,0,0,0,0,0,0,0,0,0,0,0,0,0,0,0,0,0,0,0,0,0,0,0,0,0,0,0,0,0,0,0,0,0,0,0,0,0,0,0,0,0,0,0,0,0,0,0,0,0,0,0,0,0,0,0,0,0,0,0,0,0,0,0,0,0,0,0,0,0,0,0,0,0,0,0,0,0,0,0,0,0,0,0,0,0,0,0,0,0,0,0,0,0,0,0,0,0,0,0,0,0,0,0,0],"sum_hessian":[3.2015E4,1.0083E4,2.1932E4,7.56E3,2.523E3,1.4083E4,7.849E3,3.802E3,3.758E3,6.68E2,1.855E3,8.406E3,5.677E3,1.077E3,6.772E3,3.645E3,1.57E2,3.158E3,6E2,1.69E2,4.99E2,4.36E2,1.419E3,5.621E3,2.785E3,2.993E3,2.684E3,5.11E2,5.66E2,4.352E3,2.42E3,1.45E2,1.2E1,2.938E3,2.2E2,5.46E2,5.4E1,1.58E2,1.1E1,2.76E2,2.23E2,3.91E2,4.5E1,6.86E2,7.33E2,3.53E3,2.091E3,1.489E3,1.296E3,1.095E3,1.898E3,1.96E3,7.24E2,1.32E2,3.79E2,2.97E2,2.69E2,5.6E1,4.296E3,2.49E2,2.171E3,1.691E3,1.247E3,1.94E2,2.6E1,1.5E2,3.96E2,7E0,4.7E1,2E1,2.56E2,2.49E2,1.42E2,2.3E1,2.2E1,1.21E2,5.65E2,5.34E2,1.99E2,1.27E3,2.26E3,5.71E2,1.52E3,7.4E2,7.49E2,5.8E2,7.16E2,4.96E2,5.99E2,8.66E2,1.032E3,4.33E2,1.527E3,4.78E2,2.46E2,6.5E1,6.7E1,1.51E2,2.28E2,1.5E2,1.47E2,9.7E1,1.72E2,4.1E1,1.5E1,2.088E3,2.208E3,1.59E2,9E1,1.4E3,7.71E2],"tree_param":{"num_deleted":"0","num_feature":"11","num_nodes":"111","size_leaf_vector":"1"}},{"base_weights":[4.036365E-2,2.6491425E1,-1.2192486E1,1.1370611E1,3.0528389E1,-6.16153E0,-2.339663E1,2.4029705E1,6.7483215E0,3.6482193E1,2.4888294E1,-1.1845671E0,-1.3167718E1,-1.5087138E1,-2.4574747E1,2.6354406E1,2.0841871E1,1.0882354E1,2.8412914E0,3.366903E1,3.6684155E1,2.669929E1,1.7217976E1,-4.822575E0,3.7179668E0,-1.0149468E1,-1.6167307E1,-1.1909145E1,-1.9254417E1,-2.3400423E1,-2.7485308E1,5.884451E-1,2.6871397E1,1.8998085E1,6.5863097E-1,4.826205E0,1.1896694E1,4.33989E0,-3.9268277E0,1.0116976E0,2.8380018E-1,1.1032515E0,9.876708E-1,2.750721E1,2.0165945E1,1.4854731E1,1.9894907E1,-3.287909E0,-7.1381335E0,7.291555E0,5.3207415E-1,-7.8757644E0,-1.1722866E1,-1.5167692E1,-1.989359E1,-8.788776E0,-1.3276342E1,-1.7756657E1,-2.2751E1,-2.2233536E1,-2.4412249E1,-2.5184551E1,-2.847684E1,8.278028E-1,7.147608E-1,1.3748606E-1,5.72922E-1,1.5934165E-1,-1.9565909E-1,3.326761E-1,4.732383E-1,7.136562E-2,1.8740982E-1,-7.2049744E-2,-3.613518E-1,8.4983486E-1,7.4762094E-1,6.262573E-1,5.158744E-1,4.5506573E-1,-1.00101456E-1,6.718697E-1,4.9988732E-1,4.267116E-3,-1.1987466E-1,-1.682772E-1,-2.532437E-1,8.0676034E-2,2.5502566E-1,7.532117E-2,-5.7461396E-2,-2.5437394E-1,-5.7977546E-2,-3.8520285E-1,-2.9938334E-1,-3.821352E-1,-4.830405E-1,-5.267042E-1,-6.394333E-1,-3.543791E-1,-2.1916054E-1,-4.8374307E-1,-3.6819732E-1,-5.5423814E-1,-4.5889086E-1,-7.062428E-1,-4.6945697E-1,-4.9339983E-1,-6.7156E-1,-6.051402E-1,-7.415673E-1,-6.810813E-1,-7.761761E-1,-8.5843927E-1,-6.026774E-1],"categories":[],"categories_nodes":[],"categories_segments":[],"categories_sizes":[],"default_left":[0,0,0,0,0,0,0,0,0,0,0,0,0,0,0,0,0,0,0,0,0,0,0,0,0,0,0,0,0,0,0,0,0,0,0,0,0,0,0,0,0,0,0,0,0,0,0,0,0,0,0,0,0,0,0,0,0,0,0,0,0,0,0,0,0,0,0,0,0,0,0,0,0,0,0,0,0,0,0,0,0,0,0,0,0,0,0,0,0,0,0,0,0,0,0,0,0,0,0,0,0,0,0,0,0,0,0,0,0,0,0,0,0,0,0],"id":5,"left_children":[1,3,5,7,9,11,13,15,17,19,21,23,25,27,29,31,33,35,37,39,41,43,45,47,49,51,53,55,57,59,61,-1,63,65,-1,67,69,71,73,-1,-1,-1,-1,75,77,79,81,83,85,87,89,91,93,95,97,99,101,103,105,107,109,111,113,-1,-1,-1,-1,-1,-1,-1,-1,-1,-1,-1,-1,-1,-1,-1,-1,-1,-1,-1,-1,-1,-1,-1,-1,-1,-1,-1,-1,-1,-1,-1,-1,-1,-1,-1,-1,-1,-1,-1,-1,-1,-1,-1,-1,-1,-1,-1,-1,-1,-1,-1,-1],"loss_changes":[1.0383744E7,6.19109E5,1.482582E6,1.2505781E5,2.680345E5,4.9743325E5,7.4793E4,3.6896875E3,2.5311227E4,9.775E2,5.671525E4,1.4880133E5,5.3477875E4,1.2431547E4,2.2336E4,6.1228125E2,8.75E1,4.6235547E3,8.212338E3,3.934375E1,2.8E1,1.7012E4,4.6958594E3,1.6994773E4,4.045865E4,1.0482594E4,1.0761125E4,2.208375E3,1.7536875E3,5.121E3,3.678875E3,0E0,4.578125E0,5.564453E1,0E0,6.458015E2,1.8667266E3,2.4609531E3,1.791179E3,0E0,0E0,0E0,0E0,5.57475E3,4.2051562E2,2.4678203E3,2.5930781E3,6.9987734E3,3.7546094E3,9.299578E3,9.108915E3,4.329742E3,3.2707812E3,5.117125E3,1.7009219E3,6.717822E2,8.7928125E2,2.3495312E2,3.0528516E2,1.5985E3,2.829375E3,4.1834375E2,9.72875E2,0E0,0E0,0E0,0E0,0E0,0E0,0E0,0E0,0E0,0E0,0E0,0E0,0E0,0E0,0E0,0E0,0E0,0E0,0E0,0E0,0E0,0E0,0E0,0E0,0E0,0E0,0E0,0E0,0E0,0E0,0E0,0E0,0E0,0E0,0E0,0E0,0E0,0E0,0E0,0E0,0E0,0E0,0E0,0E0,0E0,0E0,0E0,0E0,0E0,0E0,0E0,0E0],"parents":[2147483647,0,0,1,1,2,2,3,3,4,4,5,5,6,6,7,7,8,8,9,9,10,10,11,11,12,12,13,13,14,14,15,15,16,16,17,17,18,18,19,19,20,20,21,21,22,22,23,23,24,24,25,25,26,26,27,27,28,28,29,29,30,30,32,32,33,33,35,35,36,36,37,37,38,38,43,43,44,44,45,45,46,46,47,47,48,48,49,49,50,50,51,51,52,52,53,53,54,54,55,55,56,56,57,57,58,58,59,59,60,60,61,61,62,62],"right_children":[2,4,6,8,10,12,14,16,18,20,22,24,26,28,30,32,34,36,38,40,42,44,46,48,50,52,54,56,58,60,62,-1,64,66,-1,68,70,72,74,-1,-1,-1,-1,76,78,80,82,84,86,88,90,92,94,96,98,100,102,104,106,108,110,112,114,-1,-1,-1,-1,-1,-1,-1,-1,-1,-1,-1,-1,-1,-1,-1,-1,-1,-1,-1,-1,-1,-1,-1,-1,-1,-1,-1,-1,-1,-1,-1,-1,-1,-1,-1,-1,-1,-1,-1,-1,-1,-1,-1,-1,-1,-1,-1,-1,-1,-1,-1,-1],"split_conditions":[5.46E1,1.561E2,8.41E1,2.99E1,2.99E1,1.223E2,4.09E0,6E0,6.1E0,8.6E0,3.44E1,7.9E0,1.95E2,1.606E2,8.8E0,8.4E0,1.037E2,8.6E0,1.028E2,2.93E1,6.1E0,6E0,8.6E0,7.17E1,6E0,7.02E1,2.787E2,9.19E1,2.54E2,1.215E2,1.44E2,5.884451E-1,5.23E1,5.56E1,6.5863097E-1,1.844E2,1.285E2,9.6E0,2.088E2,1.0116976E0,2.8380018E-1,1.1032515E0,9.876708E-1,7.02E1,2.36E0,8.99E1,6.1E0,6.2E0,8.51E1,8.6E0,6.44E1,8.1E0,5.8E0,6.88E1,7.25E1,4.6E0,3.6E0,6.2E0,6.9E0,9.14E1,9.05E1,1.075E2,1.297E2,8.278028E-1,7.147608E-1,1.3748606E-1,5.72922E-1,1.5934165E-1,-1.9565909E-1,3.326761E-1,4.732383E-1,7.136562E-2,1.8740982E-1,-7.2049744E-2,-3.613518E-1,8.4983486E-1,7.4762094E-1,6.262573E-1,5.158744E-1,4.5506573E-1,-1.00101456E-1,6.718697E-1,4.9988732E-1,4.267116E-3,-1.1987466E-1,-1.682772E-1,-2.532437E-1,8.0676034E-2,2.5502566E-1,7.532117E-2,-5.7461396E-2,-2.5437394E-1,-5.7977546E-2,-3.8520285E-1,-2.9938334E-1,-3.821352E-1,-4.830405E-1,-5.267042E-1,-6.394333E-1,-3.543791E-1,-2.1916054E-1,-4.8374307E-1,-3.6819732E-1,-5.5423814E-1,-4.5889086E-1,-7.062428E-1,-4.6945697E-1,-4.9339983E-1,-6.7156E-1,-6.051402E-1,-7.415673E-1,-6.810813E-1,-7.761761E-1,-8.5843927E-1,-6.026774E-1],"split_indices":[5,2,5,8,8,8,10,4,4,7,5,7,8,8,4,7,2,7,8,8,4,4,7,5,4,5,8,8,8,8,8,0,5,0,0,8,2,7,8,0,0,0,0,8,10,1,4,4,8,7,5,7,7,5,5,7,7,7,7,5,5,8,2,0,0,0,0,0,0,0,0,0,0,0,0,0,0,0,0,0,0,0,0,0,0,0,0,0,0,0,0,0,0,0,0,0,0,0,0,0,0,0,0,0,0,0,0,0,0,0,0,0,0,0,0],"split_type":[0,0,0,0,0,0,0,0,0,0,0,0,0,0,0,0,0,0,0,0,0,0,0,0,0,0,0,0,0,0,0,0,0,0,0,0,0,0,0,0,0,0,0,0,0,0,0,0,0,0,0,0,0,0,0,0,0,0,0,0,0,0,0,0,0,0,0,0,0,0,0,0,0,0,0,0,0,0,0,0,0,0,0,0,0,0,0,0,0,0,0,0,0,0,0,0,0,0,0,0,0,0,0,0,0,0,0,0,0,0,0,0,0,0,0],"sum_hessian":[3.2089E4,1.0147E4,2.1942E4,2.139E3,8.008E3,1.4265E4,7.677E3,5.71E2,1.568E3,3.893E3,4.115E3,8.341E3,5.924E3,9.55E2,6.722E3,3.26E2,2.45E2,7.61E2,8.07E2,2.72E2,3.621E3,3.327E3,7.88E2,4.788E3,3.553E3,2.955E3,2.969E3,5.44E2,4.11E2,4.796E3,1.926E3,2.6E1,3E2,9.9E1,1.46E2,1.1E2,6.51E2,6.61E2,1.46E2,2.71E2,1E0,3.527E3,9.4E1,2.958E3,3.69E2,4.22E2,3.66E2,2.881E3,1.907E3,1.674E3,1.879E3,1.211E3,1.744E3,2.345E3,6.24E2,1.68E2,3.76E2,2.92E2,1.19E2,2.238E3,2.558E3,5.88E2,1.338E3,2.36E2,6.4E1,1E0,9.8E1,1.06E2,4E0,5.42E2,1.09E2,3.27E2,3.34E2,1.24E2,2.2E1,2.238E3,7.2E2,2.93E2,7.6E1,4.15E2,7E0,2.03E2,1.63E2,4.93E2,2.388E3,8.8E2,1.027E3,3.49E2,1.325E3,1.039E3,8.4E2,1.099E3,1.12E2,1.059E3,6.85E2,6.55E2,1.69E3,2.41E2,3.83E2,5.3E1,1.15E2,9.4E1,2.82E2,2.21E2,7.1E1,1.05E2,1.4E1,6E1,2.178E3,1.77E2,2.381E3,1.35E2,4.53E2,1.314E3,2.4E1],"tree_param":{"num_deleted":"0","num_feature":"11","num_nodes":"115","size_leaf_vector":"1"}},{"base_weights":[-3.171184E-2,2.558815E1,-1.1947623E1,3.0047092E1,1.2648044E1,-6.3013344E0,-2.31027E1,3.5417297E1,2.4701643E1,2.4822159E1,7.863003E0,-1.7915937E0,-1.3604713E1,-1.6784628E1,-2.4025003E1,1.0663861E0,3.0781622E1,2.6012201E1,1.755186E1,3.2184467E1,2.2433758E1,1.5219989E1,5.837476E0,-4.7055497E0,4.0076714E0,-1.1480172E1,-1.700879E1,-1.3370921E1,-2.0119211E1,-2.2709568E1,-2.7119349E1,9.3096894E-1,3.4740874E-1,2.6529488E1,1.9273386E1,1.8524588E1,8.343767E0,9.7088104E-1,3.3178312E-1,2.485527E1,1.9413937E1,1.5609239E1,1.2685881E0,1.0394687E1,2.579305E0,-2.9986756E0,-7.2542267E0,7.75127E0,6.3279104E-1,-9.3537855E0,-1.2914123E1,-1.5677168E1,-1.9291468E1,-1.7230734E1,-1.1190588E1,-1.83461E1,-2.354858E1,-2.1814722E1,-2.3775303E1,-2.628024E1,-8.769015E-1,8.3094716E-1,7.4612886E-1,6.2745446E-1,3.8735694E-1,4.6908712E-1,5.829429E-1,-2.8721122E-2,2.8306156E-1,5.3373367E-1,7.5708985E-1,5.9299153E-1,2.3104712E-1,3.9536774E-1,5.214315E-1,1.0530517E-1,-1.22763716E-1,1.500936E-1,3.3703017E-1,1.2888324E-1,-6.567574E-2,-1.4270525E-1,-3.4462538E-2,-1.4757319E-1,-2.4942206E-1,2.8832173E-1,1.8751647E-1,5.9867296E-2,-9.052924E-2,-2.1143173E-1,-3.2575646E-1,-3.1746998E-1,-4.0446973E-1,-4.38042E-1,-5.4476994E-1,-5.376424E-1,-6.4539915E-1,-4.6065846E-1,-6.0386956E-1,-2.7596834E-1,-4.0573904E-1,-4.6323553E-1,-5.8646935E-1,-7.3730177E-1,-5.682146E-1,-6.08623E-1,-6.694411E-1,-6.887676E-1,-7.407795E-1,-8.0967087E-1,-7.328113E-1],"categories":[],"categories_nodes":[],"categories_segments":[],"categories_sizes":[],"default_left":[0,0,0,0,0,0,0,0,0,0,0,0,0,0,0,0,0,0,0,0,0,0,0,0,0,0,0,0,0,0,0,0,0,0,0,0,0,0,0,0,0,0,0,0,0,0,0,0,0,0,0,0,0,0,0,0,0,0,0,0,0,0,0,0,0,0,0,0,0,0,0,0,0,0,0,0,0,0,0,0,0,0,0,0,0,0,0,0,0,0,0,0,0,0,0,0,0,0,0,0,0,0,0,0,0,0,0,0,0,0,0],"id":6,"left_children":[1,3,5,7,9,11,13,15,17,19,21,23,25,27,29,-1,31,33,35,37,39,41,43,45,47,49,51,53,55,57,59,-1,-1,61,63,65,67,-1,-1,69,71,73,75,77,79,81,83,85,87,89,91,93,95,97,99,101,103,105,107,109,-1,-1,-1,-1,-1,-1,-1,-1,-1,-1,-1,-1,-1,-1,-1,-1,-1,-1,-1,-1,-1,-1,-1,-1,-1,-1,-1,-1,-1,-1,-1,-1,-1,-1,-1,-1,-1,-1,-1,-1,-1,-1,-1,-1,-1,-1,-1,-1,-1,-1,-1],"loss_changes":[9.734897E6,5.83709E5,1.3707182E6,2.152255E5,1.5103131E5,4.7597162E5,4.2217E4,1.1485E3,3.49255E4,1.2149594E4,2.770296E4,1.5102656E5,3.9704188E4,1.0374344E4,2.5353E4,0E0,1.6528906E2,1.060525E4,5.112125E3,3.0851562E2,3.5832188E3,2.1632969E3,2.171091E4,2.5853672E4,3.7758707E4,1.024625E4,6.1355625E3,3.720461E3,2.4319688E3,3.75675E3,2.593375E3,0E0,0E0,5.046875E3,2.1425234E3,1.087E3,5.9792456E2,0E0,0E0,3.7201562E2,8.8802344E2,1.4546016E3,1.5856194E2,2.7052969E3,7.0089243E3,1.1586355E4,5.8616406E3,3.8940938E3,7.831314E3,4.6878984E3,2.5443125E3,3.3205E3,1.976625E3,5.9321094E2,1.2701641E3,7.9883594E2,2.7834375E2,1.417375E3,9.57E2,1.1376875E3,0E0,0E0,0E0,0E0,0E0,0E0,0E0,0E0,0E0,0E0,0E0,0E0,0E0,0E0,0E0,0E0,0E0,0E0,0E0,0E0,0E0,0E0,0E0,0E0,0E0,0E0,0E0,0E0,0E0,0E0,0E0,0E0,0E0,0E0,0E0,0E0,0E0,0E0,0E0,0E0,0E0,0E0,0E0,0E0,0E0,0E0,0E0,0E0,0E0,0E0,0E0],"parents":[2147483647,0,0,1,1,2,2,3,3,4,4,5,5,6,6,7,7,8,8,9,9,10,10,11,11,12,12,13,13,14,14,16,16,17,17,18,18,19,19,20,20,21,21,22,22,23,23,24,24,25,25,26,26,27,27,28,28,29,29,30,30,33,33,34,34,35,35,36,36,39,39,40,40,41,41,42,42,43,43,44,44,45,45,46,46,47,47,48,48,49,49,50,50,51,51,52,52,53,53,54,54,55,55,56,56,57,57,58,58,59,59],"right_children":[2,4,6,8,10,12,14,16,18,20,22,24,26,28,30,-1,32,34,36,38,40,42,44,46,48,50,52,54,56,58,60,-1,-1,62,64,66,68,-1,-1,70,72,74,76,78,80,82,84,86,88,90,92,94,96,98,100,102,104,106,108,110,-1,-1,-1,-1,-1,-1,-1,-1,-1,-1,-1,-1,-1,-1,-1,-1,-1,-1,-1,-1,-1,-1,-1,-1,-1,-1,-1,-1,-1,-1,-1,-1,-1,-1,-1,-1,-1,-1,-1,-1,-1,-1,-1,-1,-1,-1,-1,-1,-1,-1,-1],"split_conditions":[5.49E1,4.14E1,8.58E1,2.99E1,3.05E1,1.331E2,1.2605E4,6.1E0,6E0,5.85E1,4.76E1,8.3E0,2.26E2,1.577E2,1.512E2,1.0663861E0,8.37E1,3.49E1,6.14E1,7.2E0,6E0,3.428E3,6E0,7.17E1,6E0,7.09E1,7.69E1,3.7E0,2.587E2,1.215E2,1.905E2,9.3096894E-1,3.4740874E-1,5E0,6.28E1,9.4E0,8.9E0,9.7088104E-1,3.3178312E-1,8E0,2.99E1,8E0,5.23E1,8.5E0,8.28E1,6.2E0,7.52E1,6.06E1,7.85E1,1.606E2,1.487E2,2.787E2,7.9E0,5E0,4E0,8.74E1,6E0,5E0,8.4E0,2E0,-8.769015E-1,8.3094716E-1,7.4612886E-1,6.2745446E-1,3.8735694E-1,4.6908712E-1,5.829429E-1,-2.8721122E-2,2.8306156E-1,5.3373367E-1,7.5708985E-1,5.9299153E-1,2.3104712E-1,3.9536774E-1,5.214315E-1,1.0530517E-1,-1.22763716E-1,1.500936E-1,3.3703017E-1,1.2888324E-1,-6.567574E-2,-1.4270525E-1,-3.4462538E-2,-1.4757319E-1,-2.4942206E-1,2.8832173E-1,1.8751647E-1,5.9867296E-2,-9.052924E-2,-2.1143173E-1,-3.2575646E-1,-3.1746998E-1,-4.0446973E-1,-4.38042E-1,-5.4476994E-1,-5.376424E-1,-6.4539915E-1,-4.6065846E-1,-6.0386956E-1,-2.7596834E-1,-4.0573904E-1,-4.6323553E-1,-5.8646935E-1,-7.3730177E-1,-5.682146E-1,-6.08623E-1,-6.694411E-1,-6.887676E-1,-7.407795E-1,-8.0967087E-1,-7.328113E-1],"split_indices":[5,5,5,8,8,8,6,4,4,0,0,7,8,8,8,0,0,5,0,4,4,6,4,5,4,5,5,7,8,8,8,0,0,4,0,7,7,0,0,7,8,7,5,7,8,7,8,5,8,8,8,8,4,9,9,5,7,9,4,7,0,0,0,0,0,0,0,0,0,0,0,0,0,0,0,0,0,0,0,0,0,0,0,0,0,0,0,0,0,0,0,0,0,0,0,0,0,0,0,0,0,0,0,0,0,0,0,0,0,0,0],"split_type":[0,0,0,0,0,0,0,0,0,0,0,0,0,0,0,0,0,0,0,0,0,0,0,0,0,0,0,0,0,0,0,0,0,0,0,0,0,0,0,0,0,0,0,0,0,0,0,0,0,0,0,0,0,0,0,0,0,0,0,0,0,0,0,0,0,0,0,0,0,0,0,0,0,0,0,0,0,0,0,0,0,0,0,0,0,0,0,0,0,0,0,0,0,0,0,0,0,0,0,0,0,0,0,0,0,0,0,0,0,0,0],"sum_hessian":[3.1886E4,1.0122E4,2.1764E4,7.527E3,2.595E3,1.4451E4,7.313E3,3.752E3,3.775E3,7.31E2,1.864E3,8.935E3,5.516E3,9.34E2,6.379E3,3.644E3,1.08E2,3.188E3,5.87E2,1.76E2,5.55E2,4.01E2,1.463E3,5.947E3,2.988E3,3.399E3,2.117E3,4.64E2,4.7E2,4.482E3,1.897E3,1.06E2,2E0,2.958E3,2.3E2,5.3E2,5.7E1,1.74E2,2E0,3.04E2,2.51E2,3.9E2,1.1E1,6.09E2,8.54E2,3.563E3,2.384E3,1.416E3,1.572E3,1.372E3,2.027E3,1.342E3,7.75E2,1.65E2,2.99E2,3.14E2,1.56E2,2.448E3,2.034E3,1.367E3,5.3E2,1.726E3,1.232E3,1.81E2,4.9E1,1.31E2,3.99E2,6E0,5.1E1,1.8E1,2.86E2,2.43E2,8E0,1.68E2,2.22E2,8E0,3E0,8.3E1,5.26E2,6.28E2,2.26E2,1.826E3,1.737E3,7.46E2,1.638E3,6.3E2,7.86E2,1.145E3,4.27E2,5.44E2,8.28E2,4.01E2,1.626E3,9.41E2,4.01E2,4.85E2,2.9E2,1.04E2,6.1E1,1.64E2,1.35E2,9.6E1,2.18E2,1.24E2,3.2E1,6.14E2,1.834E3,1.09E3,9.44E2,9.79E2,3.88E2],"tree_param":{"num_deleted":"0","num_feature":"11","num_nodes":"111","size_leaf_vector":"1"}},{"base_weights":[9.928374E-3,2.4933563E1,-1.1526956E1,1.0461882E1,2.8722933E1,-6.0431247E0,-2.2419645E1,3.694171E-1,1.228739E1,3.15671E1,2.2150517E1,-1.3359427E0,-1.1792469E1,-1.4834329E1,-2.3146431E1,3.1150272E0,-4.830929E0,1.838914E1,1.0880855E1,3.2654076E1,2.81903E1,2.4283928E1,1.6308558E1,-5.2117753E0,3.0592294E0,-9.309685E0,-1.3753876E1,-1.1015557E1,-1.7051247E1,-2.607468E1,-2.2156542E1,6.8784666E-1,5.725831E0,-2.929631E0,-1.1007159E1,1.2424124E1,1.9186876E1,1.1339827E1,5.0769596E0,2.3906582E1,3.2742485E1,2.8624653E1,1.8565186E1,2.7835764E1,2.3023952E1,1.4513057E1,1.8541468E1,-3.044846E0,-7.0836935E0,5.2698665E0,3.0402914E-1,-7.397065E0,-1.1720861E1,-1.2264522E1,-1.603469E1,-1.3529749E1,-8.978478E0,-1.3496068E1,-1.7953415E1,-2.3288628E1,-7.9362524E-1,-2.0460707E1,-2.2702759E1,-3.920887E-2,8.928964E-2,1.881162E-2,2.1607043E-1,-1.2322457E-1,-4.801415E-3,-4.0266418E-1,-7.60429E-2,2.1208423E-1,4.8436648E-1,5.000414E-1,6.3691616E-1,3.067548E-1,4.4140646E-1,2.469744E-1,6.9502175E-2,8.281832E-1,4.9854285E-1,9.550092E-1,1.0093169E0,8.275947E-1,8.9317924E-1,8.5325646E-1,4.835658E-1,7.6694024E-1,8.849869E-1,6.438375E-1,7.413641E-1,-3.2806963E-2,4.446123E-1,5.060511E-1,5.9458166E-1,-1.3949144E-1,-5.209849E-2,-2.735292E-1,-1.7645712E-1,1.1490957E-1,2.1024734E-1,-4.5734834E-2,7.407533E-2,-1.89438E-1,-3.110391E-1,-3.097298E-1,-4.065178E-1,-3.095634E-1,-4.219705E-1,-5.3080606E-1,-4.3806833E-1,-4.1805947E-1,-2.0611008E-1,-2.835105E-1,-3.966676E-2,-4.2901957E-1,-2.6202977E-1,-4.9774355E-1,-5.975619E-1,-7.9761404E-1,-6.660395E-1,-4.3419415E-1,-6.218735E-1,-6.544792E-1,-7.0621455E-1],"categories":[],"categories_nodes":[],"categories_segments":[],"categories_sizes":[],"default_left":[0,0,0,0,0,0,0,0,0,0,0,0,0,0,0,0,0,0,0,0,0,0,0,0,0,0,0,0,0,0,0,0,0,0,0,0,0,0,0,0,0,0,0,0,0,0,0,0,0,0,0,0,0,0,0,0,0,0,0,0,0,0,0,0,0,0,0,0,0,0,0,0,0,0,0,0,0,0,0,0,0,0,0,0,0,0,0,0,0,0,0,0,0,0,0,0,0,0,0,0,0,0,0,0,0,0,0,0,0,0,0,0,0,0,0,0,0,0,0,0,0,0,0,0,0],"id":7,"left_children":[1,3,5,7,9,11,13,15,17,19,21,23,25,27,29,31,33,35,37,39,41,43,45,47,49,51,53,55,57,59,61,63,65,67,69,71,73,75,77,79,81,83,85,87,89,91,93,95,97,99,101,103,105,107,109,111,113,115,117,119,-1,121,123,-1,-1,-1,-1,-1,-1,-1,-1,-1,-1,-1,-1,-1,-1,-1,-1,-1,-1,-1,-1,-1,-1,-1,-1,-1,-1,-1,-1,-1,-1,-1,-1,-1,-1,-1,-1,-1,-1,-1,-1,-1,-1,-1,-1,-1,-1,-1,-1,-1,-1,-1,-1,-1,-1,-1,-1,-1,-1,-1,-1,-1,-1],"loss_changes":[9.198151E6,5.547755E5,1.3060605E6,3.8722453E4,1.49237E5,3.9364575E5,4.0022E4,4.6268823E3,1.5076469E4,1.962E4,2.984E4,1.3627853E5,3.1759062E4,5.25575E3,1.878525E4,1.3394827E3,1.2829526E3,1.3414375E3,3.8022969E3,2.486E3,5.196125E3,7.3025625E3,2.3448906E3,1.722182E4,2.283261E4,1.3254828E4,1.22225625E4,1.1025879E3,1.0566875E3,1.16225E3,4.166E3,5.1061273E2,7.633838E2,2.8315118E2,4.9795557E2,7.227915E2,1.1441016E3,4.8962344E3,9.216001E2,7.815781E2,2.3555E3,7.3875E2,1.0395664E3,9.8403125E2,2.9414375E3,1.7718281E3,2.793047E2,4.132213E3,5.5195547E3,5.1783125E3,6.615336E3,5.1314297E3,3.12575E3,7.6210312E3,3.1656875E3,1.8784766E2,4.7522852E2,2.0457812E2,5.260547E2,1.6289062E2,0E0,1.6735312E3,2.288625E3,0E0,0E0,0E0,0E0,0E0,0E0,0E0,0E0,0E0,0E0,0E0,0E0,0E0,0E0,0E0,0E0,0E0,0E0,0E0,0E0,0E0,0E0,0E0,0E0,0E0,0E0,0E0,0E0,0E0,0E0,0E0,0E0,0E0,0E0,0E0,0E0,0E0,0E0,0E0,0E0,0E0,0E0,0E0,0E0,0E0,0E0,0E0,0E0,0E0,0E0,0E0,0E0,0E0,0E0,0E0,0E0,0E0,0E0,0E0,0E0,0E0,0E0],"parents":[2147483647,0,0,1,1,2,2,3,3,4,4,5,5,6,6,7,7,8,8,9,9,10,10,11,11,12,12,13,13,14,14,15,15,16,16,17,17,18,18,19,19,20,20,21,21,22,22,23,23,24,24,25,25,26,26,27,27,28,28,29,29,30,30,31,31,32,32,33,33,34,34,35,35,36,36,37,37,38,38,39,39,40,40,41,41,42,42,43,43,44,44,45,45,46,46,47,47,48,48,49,49,50,50,51,51,52,52,53,53,54,54,55,55,56,56,57,57,58,58,59,59,61,61,62,62],"right_children":[2,4,6,8,10,12,14,16,18,20,22,24,26,28,30,32,34,36,38,40,42,44,46,48,50,52,54,56,58,60,62,64,66,68,70,72,74,76,78,80,82,84,86,88,90,92,94,96,98,100,102,104,106,108,110,112,114,116,118,120,-1,122,124,-1,-1,-1,-1,-1,-1,-1,-1,-1,-1,-1,-1,-1,-1,-1,-1,-1,-1,-1,-1,-1,-1,-1,-1,-1,-1,-1,-1,-1,-1,-1,-1,-1,-1,-1,-1,-1,-1,-1,-1,-1,-1,-1,-1,-1,-1,-1,-1,-1,-1,-1,-1,-1,-1,-1,-1,-1,-1,-1,-1,-1,-1],"split_conditions":[5.46E1,1.582E2,8.58E1,7.8E0,1.89E3,4E0,4.06E0,4E0,2E0,2E0,3.44E1,7.7E0,7.17E1,4E0,1.3E0,6.73E1,5E0,8.9E0,5.534E3,7.3E0,3.59E1,2.18E3,8.6E0,6.92E1,6.4E1,3.71E0,5E0,4.6E0,3.14E0,9.89E1,5E0,1.268E2,6E0,1.367E2,1.276E2,7.62E1,1.094E2,1.204E2,3E0,1.336E3,2.091E2,2.048E2,1.321E3,4.39E1,2.003E2,1.661E2,2.108E2,5.6E0,4.8E0,1.131E2,8.9E0,5E0,5E0,3.6E0,5.2E0,9.74E1,8.3E0,1.518E2,5E0,6.64E1,-7.9362524E-1,8.88E1,9.94E1,-3.920887E-2,8.928964E-2,1.881162E-2,2.1607043E-1,-1.2322457E-1,-4.801415E-3,-4.0266418E-1,-7.60429E-2,2.1208423E-1,4.8436648E-1,5.000414E-1,6.3691616E-1,3.067548E-1,4.4140646E-1,2.469744E-1,6.9502175E-2,8.281832E-1,4.9854285E-1,9.550092E-1,1.0093169E0,8.275947E-1,8.9317924E-1,8.5325646E-1,4.835658E-1,7.6694024E-1,8.849869E-1,6.438375E-1,7.413641E-1,-3.2806963E-2,4.446123E-1,5.060511E-1,5.9458166E-1,-1.3949144E-1,-5.209849E-2,-2.735292E-1,-1.7645712E-1,1.1490957E-1,2.1024734E-1,-4.5734834E-2,7.407533E-2,-1.89438E-1,-3.110391E-1,-3.097298E-1,-4.065178E-1,-3.095634E-1,-4.219705E-1,-5.3080606E-1,-4.3806833E-1,-4.1805947E-1,-2.0611008E-1,-2.835105E-1,-3.966676E-2,-4.2901957E-1,-2.6202977E-1,-4.9774355E-1,-5.975619E-1,-7.9761404E-1,-6.660395E-1,-4.3419415E-1,-6.218735E-1,-6.544792E-1,-7.0621455E-1],"split_indices":[5,2,5,7,6,9,10,9,9,9,5,7,5,9,7,0,9,7,6,7,5,6,7,5,5,10,9,7,10,5,9,2,7,2,2,0,2,2,9,6,2,2,6,0,2,2,2,7,7,2,7,9,9,10,7,1,7,2,9,0,0,5,5,0,0,0,0,0,0,0,0,0,0,0,0,0,0,0,0,0,0,0,0,0,0,0,0,0,0,0,0,0,0,0,0,0,0,0,0,0,0,0,0,0,0,0,0,0,0,0,0,0,0,0,0,0,0,0,0,0,0,0,0,0,0],"split_type":[0,0,0,0,0,0,0,0,0,0,0,0,0,0,0,0,0,0,0,0,0,0,0,0,0,0,0,0,0,0,0,0,0,0,0,0,0,0,0,0,0,0,0,0,0,0,0,0,0,0,0,0,0,0,0,0,0,0,0,0,0,0,0,0,0,0,0,0,0,0,0,0,0,0,0,0,0,0,0,0,0,0,0,0,0,0,0,0,0,0,0,0,0,0,0,0,0,0,0,0,0,0,0,0,0,0,0,0,0,0,0,0,0,0,0,0,0,0,0,0,0,0,0,0,0],"sum_hessian":[3.1987E4,1.0121E4,2.1866E4,2.101E3,8.02E3,1.4545E4,7.321E3,3.22E2,1.779E3,5.595E3,2.425E3,7.998E3,6.547E3,6.42E2,6.679E3,2.11E2,1.11E2,3.31E2,1.448E3,4.226E3,1.369E3,1.774E3,6.51E2,4.25E3,3.748E3,2.892E3,3.655E3,2.38E2,4.04E2,1.681E3,4.998E3,1.1E2,1.01E2,8.6E1,2.5E1,4.1E1,2.9E2,1.341E3,1.07E2,4.5E1,4.181E3,1.308E3,6.1E1,4.59E2,1.315E3,3.65E2,2.86E2,1.971E3,2.279E3,2.079E3,1.669E3,1.615E3,1.277E3,2.215E3,1.44E3,1.04E2,1.34E2,8.5E1,3.19E2,2.09E2,1.472E3,1.227E3,3.771E3,5.9E1,5.1E1,2.3E1,7.8E1,6E1,2.6E1,1.9E1,6E0,1.8E1,2.3E1,1.34E2,1.56E2,1.011E3,3.3E2,4.9E1,5.8E1,2.8E1,1.7E1,2.1E3,2.081E3,7E2,6.08E2,1E1,5.1E1,2.01E2,2.58E2,6.9E2,6.25E2,7E0,3.58E2,1.3E2,1.56E2,8.84E2,1.087E3,8.44E2,1.435E3,1.139E3,9.4E2,9.05E2,7.64E2,1.186E3,4.29E2,7.28E2,5.49E2,1.068E3,1.147E3,6.62E2,7.78E2,9.7E1,7E0,1.26E2,8E0,7.1E1,1.4E1,1.94E2,1.25E2,4.6E1,1.63E2,5.5E1,1.172E3,1.845E3,1.926E3],"tree_param":{"num_deleted":"0","num_feature":"11","num_nodes":"125","size_leaf_vector":"1"}},{"base_weights":[6.253741E-2,2.407178E1,-1.1214283E1,1.0109421E1,2.7913864E1,-5.7047E0,-2.136992E1,2.196229E1,5.838794E0,3.337139E1,2.2620834E1,-1.3182381E0,-1.2248955E1,-1.5000911E1,-2.2544313E1,2.1031311E1,2.5220043E1,6.323092E-2,7.8243904E0,3.073388E1,1.0069289E0,2.4154068E1,1.5864569E1,-3.9201558E0,4.2269726E0,-9.461441E0,-1.4814984E1,-1.1847254E1,-1.8901524E1,-2.1340143E1,-2.5394022E1,2.1359533E1,1.1202476E1,8.577109E-1,2.3297651E1,1.5333854E0,-7.7785506E0,6.365396E0,1.0181053E1,9.234641E-1,2.5831077E-1,2.5547522E1,2.183683E1,1.3955718E1,1.8177088E1,-1.9253172E0,-5.9776654E0,5.472563E0,-2.3142588E-1,-7.744476E0,-1.1105976E1,-1.3474353E1,-1.6892729E1,-9.66265E0,-1.3851354E1,-1.6951311E1,-2.1302427E1,-2.009181E1,-2.2092363E1,-2.5978722E1,-2.303959E1,2.5483721E-1,6.4370877E-1,1.5134479E-1,4.004328E-1,4.8891532E-1,7.235409E-1,-3.5679325E-2,8.630098E-2,-1.5145501E-1,-3.7037355E-1,2.0130454E-1,4.826012E-2,3.3306602E-1,1.5876557E-1,7.3798496E-1,8.201311E-1,6.03295E-1,7.011161E-1,1.4336027E-1,4.321123E-1,4.9275386E-1,5.9175193E-1,1.0863763E-2,-1.00284606E-1,-1.1905891E-1,-2.1182472E-1,9.348911E-2,1.9645604E-1,4.5243215E-2,-7.043905E-2,-1.8987979E-1,-2.910346E-1,-3.5675707E-1,-2.5627327E-1,-3.208753E-1,-4.265657E-1,-4.4736475E-1,-5.547158E-1,-4.1375774E-1,-2.5981647E-1,-3.9142635E-1,-5.076598E-1,-5.6777024E-1,-4.7947165E-1,-6.555064E-1,-4.8176032E-1,-5.657727E-1,-6.1465317E-1,-6.799665E-1,-6.2995577E-1,-7.5960606E-1,-8.2049036E-1,-6.987971E-1,-4.831224E-1],"categories":[],"categories_nodes":[],"categories_segments":[],"categories_sizes":[],"default_left":[0,0,0,0,0,0,0,0,0,0,0,0,0,0,0,0,0,0,0,0,0,0,0,0,0,0,0,0,0,0,0,0,0,0,0,0,0,0,0,0,0,0,0,0,0,0,0,0,0,0,0,0,0,0,0,0,0,0,0,0,0,0,0,0,0,0,0,0,0,0,0,0,0,0,0,0,0,0,0,0,0,0,0,0,0,0,0,0,0,0,0,0,0,0,0,0,0,0,0,0,0,0,0,0,0,0,0,0,0,0,0,0,0,0,0],"id":8,"left_children":[1,3,5,7,9,11,13,15,17,19,21,23,25,27,29,31,33,35,37,39,-1,41,43,45,47,49,51,53,55,57,59,61,63,-1,65,67,69,71,73,-1,-1,75,77,79,81,83,85,87,89,91,93,95,97,99,101,103,105,107,109,111,113,-1,-1,-1,-1,-1,-1,-1,-1,-1,-1,-1,-1,-1,-1,-1,-1,-1,-1,-1,-1,-1,-1,-1,-1,-1,-1,-1,-1,-1,-1,-1,-1,-1,-1,-1,-1,-1,-1,-1,-1,-1,-1,-1,-1,-1,-1,-1,-1,-1,-1,-1,-1,-1,-1],"loss_changes":[8.670159E6,5.487165E5,1.2190452E6,1.1174016E5,2.310625E5,4.055152E5,5.6979E4,1.2438125E3,1.8646367E4,9.775E2,4.185025E4,1.2206455E5,4.0409375E4,1.44883125E4,2.165325E4,1.2479375E3,1.4380469E2,4.8193667E3,4.0956094E3,3.496875E1,0E0,1.0165375E4,3.0879219E3,2.3621617E4,1.5006387E4,7.5942188E3,7.9895625E3,2.7732578E3,2.1345469E3,3.831375E3,2.039E3,3.7548438E2,1.572312E2,0E0,9.510156E1,1.2908386E3,7.606116E2,1.2191348E3,2.0173008E3,0E0,0E0,2.83725E3,2.8515E3,1.6539062E3,5.95375E2,9.485398E3,6.1390547E3,5.334078E3,2.179482E3,3.6324297E3,2.692875E3,3.5672812E3,3.3729688E3,1.2088359E3,6.2827344E2,2.695078E2,3.2414062E2,4.560625E2,1.299125E3,6.860625E2,3.1095312E2,0E0,0E0,0E0,0E0,0E0,0E0,0E0,0E0,0E0,0E0,0E0,0E0,0E0,0E0,0E0,0E0,0E0,0E0,0E0,0E0,0E0,0E0,0E0,0E0,0E0,0E0,0E0,0E0,0E0,0E0,0E0,0E0,0E0,0E0,0E0,0E0,0E0,0E0,0E0,0E0,0E0,0E0,0E0,0E0,0E0,0E0,0E0,0E0,0E0,0E0,0E0,0E0,0E0,0E0],"parents":[2147483647,0,0,1,1,2,2,3,3,4,4,5,5,6,6,7,7,8,8,9,9,10,10,11,11,12,12,13,13,14,14,15,15,16,16,17,17,18,18,19,19,21,21,22,22,23,23,24,24,25,25,26,26,27,27,28,28,29,29,30,30,31,31,32,32,34,34,35,35,36,36,37,37,38,38,41,41,42,42,43,43,44,44,45,45,46,46,47,47,48,48,49,49,50,50,51,51,52,52,53,53,54,54,55,55,56,56,57,57,58,58,59,59,60,60],"right_children":[2,4,6,8,10,12,14,16,18,20,22,24,26,28,30,32,34,36,38,40,-1,42,44,46,48,50,52,54,56,58,60,62,64,-1,66,68,70,72,74,-1,-1,76,78,80,82,84,86,88,90,92,94,96,98,100,102,104,106,108,110,112,114,-1,-1,-1,-1,-1,-1,-1,-1,-1,-1,-1,-1,-1,-1,-1,-1,-1,-1,-1,-1,-1,-1,-1,-1,-1,-1,-1,-1,-1,-1,-1,-1,-1,-1,-1,-1,-1,-1,-1,-1,-1,-1,-1,-1,-1,-1,-1,-1,-1,-1,-1,-1,-1,-1],"split_conditions":[5.49E1,1.561E2,8.41E1,3.05E1,2.99E1,1.261E2,1.1829E4,1.225E2,8.5E0,8.6E0,3.49E1,8.5E0,1.95E2,1.783E2,1.512E2,2.99E1,4.64E1,1.35E2,1.154E2,2.93E1,1.0069289E0,5.95E1,8.6E0,6.92E1,6.93E1,7.2E1,2.54E2,1.185E2,2.501E2,1.116E2,2.1E0,6.9E0,7.51E1,8.577109E-1,8.7E0,5.9E0,5E0,7.94E1,7.52E1,9.234641E-1,2.5831077E-1,2.091E2,1.979E2,5.7E0,2.108E2,6.85E1,7.52E1,1.048E2,6.56E1,1.577E2,1.407E2,6.75E1,7.31E1,3.6E0,5E0,1.137E2,6.9E0,5E0,2.4E0,1.905E2,1.261E2,2.5483721E-1,6.4370877E-1,1.5134479E-1,4.004328E-1,4.8891532E-1,7.235409E-1,-3.5679325E-2,8.630098E-2,-1.5145501E-1,-3.7037355E-1,2.0130454E-1,4.826012E-2,3.3306602E-1,1.5876557E-1,7.3798496E-1,8.201311E-1,6.03295E-1,7.011161E-1,1.4336027E-1,4.321123E-1,4.9275386E-1,5.9175193E-1,1.0863763E-2,-1.00284606E-1,-1.1905891E-1,-2.1182472E-1,9.348911E-2,1.9645604E-1,4.5243215E-2,-7.043905E-2,-1.8987979E-1,-2.910346E-1,-3.5675707E-1,-2.5627327E-1,-3.208753E-1,-4.265657E-1,-4.4736475E-1,-5.547158E-1,-4.1375774E-1,-2.5981647E-1,-3.9142635E-1,-5.076598E-1,-5.6777024E-1,-4.7947165E-1,-6.555064E-1,-4.8176032E-1,-5.657727E-1,-6.1465317E-1,-6.799665E-1,-6.2995577E-1,-7.5960606E-1,-8.2049036E-1,-6.987971E-1,-4.831224E-1],"split_indices":[5,2,5,8,8,8,6,2,7,7,5,7,8,8,8,8,5,8,2,8,0,8,7,5,8,5,8,8,8,8,7,7,0,0,7,7,9,8,8,0,0,2,2,7,2,8,8,2,5,8,2,5,5,7,9,2,7,9,7,8,2,0,0,0,0,0,0,0,0,0,0,0,0,0,0,0,0,0,0,0,0,0,0,0,0,0,0,0,0,0,0,0,0,0,0,0,0,0,0,0,0,0,0,0,0,0,0,0,0,0,0,0,0,0,0],"split_type":[0,0,0,0,0,0,0,0,0,0,0,0,0,0,0,0,0,0,0,0,0,0,0,0,0,0,0,0,0,0,0,0,0,0,0,0,0,0,0,0,0,0,0,0,0,0,0,0,0,0,0,0,0,0,0,0,0,0,0,0,0,0,0,0,0,0,0,0,0,0,0,0,0,0,0,0,0,0,0,0,0,0,0,0,0,0,0,0,0,0,0,0,0,0,0,0,0,0,0,0,0,0,0,0,0,0,0,0,0,0,0,0,0,0,0],"sum_hessian":[3.2021E4,1.0233E4,2.1788E4,2.209E3,8.024E3,1.4126E4,7.662E3,5.84E2,1.625E3,3.948E3,4.076E3,8.458E3,5.668E3,1.195E3,6.467E3,4.6E2,1.24E2,4.16E2,1.209E3,2.8E2,3.668E3,3.32E3,7.56E2,5.757E3,2.701E3,2.719E3,2.949E3,6.63E2,5.32E2,4.552E3,1.915E3,4.44E2,1.6E1,4E1,8.4E1,3.51E2,6.5E1,7.49E2,4.6E2,2.79E2,1E0,2.067E3,1.253E3,4.18E2,3.38E2,2.924E3,2.833E3,2.111E3,5.9E2,1.333E3,1.386E3,1.797E3,1.152E3,3.2E2,3.43E2,2.98E2,2.34E2,1.722E3,2.83E3,1.526E3,3.89E2,4E0,4.4E2,5E0,1.1E1,1.1E1,7.3E1,1.16E2,2.35E2,4.2E1,2.3E1,6.98E2,5.1E1,3.86E2,7.4E1,1.361E3,7.06E2,5.96E2,6.57E2,2E1,3.98E2,1.64E2,1.74E2,1.119E3,1.805E3,9.94E2,1.839E3,6.63E2,1.448E3,3.24E2,2.66E2,7.76E2,5.57E2,1.058E3,3.28E2,3.83E2,1.414E3,5.19E2,6.33E2,6E1,2.6E2,2.76E2,6.7E1,9.2E1,2.06E2,2.09E2,2.5E1,4.31E2,1.291E3,1.844E3,9.86E2,1.044E3,4.82E2,3.73E2,1.6E1],"tree_param":{"num_deleted":"0","num_feature":"11","num_nodes":"115","size_leaf_vector":"1"}},{"base_weights":[-5.0065285E-3,2.3334717E1,-1.0921075E1,9.923736E0,2.7004572E1,-5.445526E0,-2.0605005E1,2.1361696E1,5.6979194E0,3.235895E1,2.1864994E1,-1.268798E0,-1.1857519E1,-1.3335537E1,-2.1734068E1,2.334935E1,1.8162973E1,9.644455E0,1.8655918E0,2.9856602E1,9.7636664E-1,2.343251E1,1.5395166E1,-4.5317936E0,2.8139863E0,-9.326573E0,-1.458515E1,-1.1346553E1,-1.89515E1,-2.054914E1,-2.408708E1,1.0202725E1,2.3505335E1,5.537548E-1,1.05745E1,4.4026456E0,1.0578109E1,3.080743E0,-4.161694E0,2.9958979E1,3.084294E-1,2.420447E1,1.7478989E1,1.2870332E1,1.7421347E1,-2.671305E0,-5.9929433E0,5.9252076E0,-2.135666E-1,-7.2791166E0,-1.0775559E1,-1.3599421E1,-1.736497E1,-8.721779E0,-1.3256768E1,-1.6535803E1,-2.0599533E1,-1.9561687E1,-2.1538427E1,-2.228845E1,-2.5266792E1,-1.3597927E-2,3.727373E-1,7.755962E-1,6.773039E-1,3.4333262E-1,2.8129462E-2,1.4455919E-1,-1.8636425E-1,2.9355663E-1,4.3685657E-1,2.137813E-2,1.3130178E-1,-8.369541E-2,-3.4819993E-1,9.02022E-1,4.472044E-1,7.461934E-1,6.5599704E-1,4.7818264E-1,5.616903E-1,6.1643906E-2,4.0300685E-1,5.9411186E-1,4.3434554E-1,3.2379784E-2,-9.803653E-2,-1.2932916E-1,-2.1415344E-1,5.5115853E-2,2.1812613E-1,8.126561E-2,-4.3947928E-2,-2.333001E-1,-4.661961E-2,-3.5256153E-1,-2.7810434E-1,-4.3241253E-1,-3.4266776E-1,-4.6039942E-1,-5.679654E-1,-3.300246E-1,-2.2841924E-1,-4.467514E-1,-3.6057022E-1,-5.263888E-1,-4.1001108E-1,-3.245489E-1,-6.253578E-1,-5.897551E-1,-2.890091E-1,-6.568945E-1,-5.121219E-1,-6.1063206E-1,-6.860495E-1,-7.6300937E-1,-5.8613235E-1],"categories":[],"categories_nodes":[],"categories_segments":[],"categories_sizes":[],"default_left":[0,0,0,0,0,0,0,0,0,0,0,0,0,0,0,0,0,0,0,0,0,0,0,0,0,0,0,0,0,0,0,0,0,0,0,0,0,0,0,0,0,0,0,0,0,0,0,0,0,0,0,0,0,0,0,0,0,0,0,0,0,0,0,0,0,0,0,0,0,0,0,0,0,0,0,0,0,0,0,0,0,0,0,0,0,0,0,0,0,0,0,0,0,0,0,0,0,0,0,0,0,0,0,0,0,0,0,0,0,0,0,0,0,0,0,0,0],"id":9,"left_children":[1,3,5,7,9,11,13,15,17,19,21,23,25,27,29,31,33,35,37,39,-1,41,43,45,47,49,51,53,55,57,59,61,63,-1,65,67,69,71,73,75,-1,77,79,81,83,85,87,89,91,93,95,97,99,101,103,105,107,109,111,113,115,-1,-1,-1,-1,-1,-1,-1,-1,-1,-1,-1,-1,-1,-1,-1,-1,-1,-1,-1,-1,-1,-1,-1,-1,-1,-1,-1,-1,-1,-1,-1,-1,-1,-1,-1,-1,-1,-1,-1,-1,-1,-1,-1,-1,-1,-1,-1,-1,-1,-1,-1,-1,-1,-1,-1,-1],"loss_changes":[8.151113E6,5.01493E5,1.1557232E6,1.05827984E5,2.195565E5,3.7293925E5,6.4329E4,3.3334375E3,2.421132E4,8.5775E2,4.108775E4,1.12371414E5,3.7784812E4,1.1636406E4,1.850075E4,5.0048438E2,3.2284375E2,3.8148203E3,5.9746094E3,2.6114062E2,0E0,1.468825E4,3.8684062E3,1.2728094E4,3.529571E4,8.3826875E3,7.0033125E3,3.8252969E3,7.581719E2,4.011625E3,4.26625E3,1.4768774E2,1.9242188E2,0E0,8.148547E1,5.642324E2,1.9706719E3,2.077709E3,1.3668494E3,1.203125E1,0E0,4.001875E3,4.3127344E2,2.1653867E3,2.8054531E3,4.621827E3,5.026836E3,1.0152656E4,6.952292E3,3.3634531E3,2.3430625E3,3.3014375E3,1.8857188E3,7.5950195E2,7.377344E2,9.936133E1,1.5904688E2,2.004125E3,3.2366875E3,5.5509375E2,8.098125E2,0E0,0E0,0E0,0E0,0E0,0E0,0E0,0E0,0E0,0E0,0E0,0E0,0E0,0E0,0E0,0E0,0E0,0E0,0E0,0E0,0E0,0E0,0E0,0E0,0E0,0E0,0E0,0E0,0E0,0E0,0E0,0E0,0E0,0E0,0E0,0E0,0E0,0E0,0E0,0E0,0E0,0E0,0E0,0E0,0E0,0E0,0E0,0E0,0E0,0E0,0E0,0E0,0E0,0E0,0E0,0E0],"parents":[2147483647,0,0,1,1,2,2,3,3,4,4,5,5,6,6,7,7,8,8,9,9,10,10,11,11,12,12,13,13,14,14,15,15,16,16,17,17,18,18,19,19,21,21,22,22,23,23,24,24,25,25,26,26,27,27,28,28,29,29,30,30,31,31,32,32,34,34,35,35,36,36,37,37,38,38,39,39,41,41,42,42,43,43,44,44,45,45,46,46,47,47,48,48,49,49,50,50,51,51,52,52,53,53,54,54,55,55,56,56,57,57,58,58,59,59,60,60],"right_children":[2,4,6,8,10,12,14,16,18,20,22,24,26,28,30,32,34,36,38,40,-1,42,44,46,48,50,52,54,56,58,60,62,64,-1,66,68,70,72,74,76,-1,78,80,82,84,86,88,90,92,94,96,98,100,102,104,106,108,110,112,114,116,-1,-1,-1,-1,-1,-1,-1,-1,-1,-1,-1,-1,-1,-1,-1,-1,-1,-1,-1,-1,-1,-1,-1,-1,-1,-1,-1,-1,-1,-1,-1,-1,-1,-1,-1,-1,-1,-1,-1,-1,-1,-1,-1,-1,-1,-1,-1,-1,-1,-1,-1,-1,-1,-1,-1,-1],"split_conditions":[5.49E1,1.561E2,8.35E1,3.05E1,2.99E1,1.261E2,4.06E0,6.1E0,6.1E0,8.6E0,3.44E1,7.7E0,2.017E2,2.088E2,8.7E0,6.9E0,2.99E1,8.6E0,1.028E2,5.12E1,9.7636664E-1,6E0,8.3E0,6.86E1,6.1E0,7.02E1,2.727E2,1.185E2,7.5E0,1.239E2,1.5E2,4.34E1,4.64E1,5.537548E-1,5.16E1,1.844E2,1.288E2,8.9E0,2.088E2,2.87E1,3.084294E-1,7.36E1,1.908E2,1.742E2,6.1E0,6.1E0,8.28E1,8.6E0,6.02E1,8.1E0,1.316E2,1.352E2,7.31E1,4.6E0,4.4E0,6.2E0,2.88E0,1.147E2,4.1E0,1.075E2,1.221E2,-1.3597927E-2,3.727373E-1,7.755962E-1,6.773039E-1,3.4333262E-1,2.8129462E-2,1.4455919E-1,-1.8636425E-1,2.9355663E-1,4.3685657E-1,2.137813E-2,1.3130178E-1,-8.369541E-2,-3.4819993E-1,9.02022E-1,4.472044E-1,7.461934E-1,6.5599704E-1,4.7818264E-1,5.616903E-1,6.1643906E-2,4.0300685E-1,5.9411186E-1,4.3434554E-1,3.2379784E-2,-9.803653E-2,-1.2932916E-1,-2.1415344E-1,5.5115853E-2,2.1812613E-1,8.126561E-2,-4.3947928E-2,-2.333001E-1,-4.661961E-2,-3.5256153E-1,-2.7810434E-1,-4.3241253E-1,-3.4266776E-1,-4.6039942E-1,-5.679654E-1,-3.300246E-1,-2.2841924E-1,-4.467514E-1,-3.6057022E-1,-5.263888E-1,-4.1001108E-1,-3.245489E-1,-6.253578E-1,-5.897551E-1,-2.890091E-1,-6.568945E-1,-5.121219E-1,-6.1063206E-1,-6.860495E-1,-7.6300937E-1,-5.8613235E-1],"split_indices":[5,2,5,8,8,8,10,4,4,7,5,7,8,8,4,7,8,7,8,5,0,4,7,5,4,5,8,8,4,8,8,5,5,0,5,8,2,7,8,8,0,8,2,2,4,4,8,7,5,7,2,2,5,7,7,7,10,2,7,8,2,0,0,0,0,0,0,0,0,0,0,0,0,0,0,0,0,0,0,0,0,0,0,0,0,0,0,0,0,0,0,0,0,0,0,0,0,0,0,0,0,0,0,0,0,0,0,0,0,0,0,0,0,0,0,0,0],"split_type":[0,0,0,0,0,0,0,0,0,0,0,0,0,0,0,0,0,0,0,0,0,0,0,0,0,0,0,0,0,0,0,0,0,0,0,0,0,0,0,0,0,0,0,0,0,0,0,0,0,0,0,0,0,0,0,0,0,0,0,0,0,0,0,0,0,0,0,0,0,0,0,0,0,0,0,0,0,0,0,0,0,0,0,0,0,0,0,0,0,0,0,0,0,0,0,0,0,0,0,0,0,0,0,0,0,0,0,0,0,0,0,0,0,0,0,0,0],"sum_hessian":[3.1991E4,1.0194E4,2.1797E4,2.191E3,8.003E3,1.3925E4,7.872E3,5.9E2,1.601E3,3.917E3,4.086E3,8.433E3,5.492E3,1.06E3,6.812E3,3.6E2,2.3E2,7.88E2,8.13E2,2.83E2,3.634E3,3.287E3,7.99E2,4.687E3,3.746E3,2.851E3,2.641E3,7.85E2,2.75E2,4.537E3,2.275E3,5E0,3.55E2,2.2E2,1E1,1.2E2,6.68E2,6.77E2,1.36E2,2.81E2,2E0,2.907E3,3.8E2,3.59E2,4.4E2,2.063E3,2.624E3,1.847E3,1.899E3,1.184E3,1.667E3,1.954E3,6.87E2,3.33E2,4.52E2,1.16E2,1.59E2,2.281E3,2.256E3,9.09E2,1.366E3,1E0,4E0,9.3E1,2.62E2,9E0,1E0,1.16E2,4E0,5.6E2,1.08E2,2.4E2,4.37E2,1.16E2,2E1,2.78E2,3E0,2.253E3,6.54E2,1.76E2,2.04E2,1.8E1,3.41E2,2.4E2,2E2,2.83E2,1.78E3,1.065E3,1.559E3,4.58E2,1.389E3,5.69E2,1.33E3,1.089E3,9.5E1,1.007E3,6.6E2,1.418E3,5.36E2,3.05E2,3.82E2,1.06E2,2.27E2,1.9E2,2.62E2,8.2E1,3.4E1,5E0,1.54E2,2.258E3,2.3E1,2.085E3,1.71E2,2.18E2,6.91E2,1.324E3,4.2E1],"tree_param":{"num_deleted":"0","num_feature":"11","num_nodes":"117","size_leaf_vector":"1"}},{"base_weights":[3.7869822E-2,2.2797829E1,-1.0447466E1,9.581935E0,2.6301092E1,-5.2278614E0,-1.9928257E1,2.0687164E1,5.5816073E0,3.1322731E1,2.1294231E1,2.3659179E-2,-1.0065205E1,-1.38762245E1,-2.1207603E1,1.8179367E1,2.165352E1,-7.2347987E-1,7.4443603E0,2.8732271E1,3.1512503E1,2.271883E1,1.4575191E1,-2.5946736E0,4.679537E0,-6.755574E0,-1.3057638E1,-1.1328286E1,-1.8493988E1,-2.0033232E1,-2.4002123E1,1.8275488E1,4.0562324E-2,1.6650967E1,2.2210989E1,6.901395E-1,-7.437903E0,5.85663E0,9.432938E0,2.8829205E1,3.0226088E-1,9.4717884E-1,2.711805E1,2.4143005E1,2.0935509E1,1.2378596E1,1.7042105E1,-7.149144E-1,-4.5438485E0,5.6977873E0,1.1051472E0,-5.100322E0,-8.716311E0,-1.1817067E1,-1.6049154E1,-8.614009E0,-1.3302836E1,-1.7242956E1,-2.1046555E1,-1.8718336E1,-2.064467E1,-2.4696602E1,-2.2094585E1,9.539795E-2,5.504988E-1,8.4778406E-2,5.0720274E-1,7.380872E-1,6.373831E-1,9.898921E-2,-2.3079589E-2,-1.4353289E-1,-3.5187754E-1,1.8833543E-1,3.8896594E-2,5.8429515E-1,2.6822513E-1,8.710102E-1,5.003412E-1,8.265064E-1,3.046711E-1,6.9215816E-1,7.559435E-1,5.839598E-1,6.733829E-1,1.0697529E-1,3.8207668E-1,4.4633186E-1,5.3543925E-1,-7.260996E-2,2.8094089E-2,-1.6841313E-1,-8.435868E-2,1.016534E-1,2.0685132E-1,6.9766104E-2,-2.6900416E-2,-1.8406744E-1,-8.440354E-2,-2.958328E-1,-2.097537E-1,-2.7682874E-1,-3.76048E-1,-5.6423503E-1,-4.4731867E-1,-1.8872495E-1,-2.9948726E-1,-4.5974463E-1,-3.7206447E-1,-5.188626E-1,-5.228805E-4,-6.586717E-1,-4.8513478E-1,-5.6262666E-1,-2.5970045E-1,-5.747919E-1,-6.3151497E-1,-7.192559E-1,-7.840266E-1,-6.682763E-1,-4.642046E-1],"categories":[],"categories_nodes":[],"categories_segments":[],"categories_sizes":[],"default_left":[0,0,0,0,0,0,0,0,0,0,0,0,0,0,0,0,0,0,0,0,0,0,0,0,0,0,0,0,0,0,0,0,0,0,0,0,0,0,0,0,0,0,0,0,0,0,0,0,0,0,0,0,0,0,0,0,0,0,0,0,0,0,0,0,0,0,0,0,0,0,0,0,0,0,0,0,0,0,0,0,0,0,0,0,0,0,0,0,0,0,0,0,0,0,0,0,0,0,0,0,0,0,0,0,0,0,0,0,0,0,0,0,0,0,0,0,0,0,0,0,0],"id":10,"left_children":[1,3,5,7,9,11,13,15,17,19,21,23,25,27,29,31,33,35,37,39,41,43,45,47,49,51,53,55,57,59,61,63,-1,65,67,69,71,73,75,77,-1,-1,79,81,83,85,87,89,91,93,95,97,99,101,103,105,107,109,111,113,115,117,119,-1,-1,-1,-1,-1,-1,-1,-1,-1,-1,-1,-1,-1,-1,-1,-1,-1,-1,-1,-1,-1,-1,-1,-1,-1,-1,-1,-1,-1,-1,-1,-1,-1,-1,-1,-1,-1,-1,-1,-1,-1,-1,-1,-1,-1,-1,-1,-1,-1,-1,-1,-1,-1,-1,-1,-1,-1,-1],"loss_changes":[7.635472E6,4.669485E5,1.0838365E6,9.388689E4,1.998715E5,3.5889962E5,5.99205E4,9.634375E2,1.829207E4,1.051E3,3.7927875E4,8.260371E4,7.274469E4,1.5791953E4,2.058175E4,2.373164E2,7.428906E2,3.3841565E3,3.7398594E3,2.213125E2,1.2125E2,7.865625E3,3.5930469E3,1.588743E4,8.870742E3,1.1295375E4,1.413925E4,4.5963984E3,1.1762812E3,3.251625E3,1.963375E3,1.22640625E2,0E0,1.0782129E2,2.9890625E2,1.1260342E3,6.498745E2,1.280709E3,2.4552344E3,2.139375E2,0E0,0E0,1.3804688E2,1.48225E3,2.8299375E3,1.1353594E3,3.065625E2,6.2234727E3,3.9292344E3,5.224371E3,1.3261968E3,4.4738945E3,3.0858281E3,4.964625E3,3.2655625E3,1.1234121E3,7.3328125E2,2.9702344E2,3.275625E2,3.6015625E2,1.452125E3,8.045625E2,2.735E2,0E0,0E0,0E0,0E0,0E0,0E0,0E0,0E0,0E0,0E0,0E0,0E0,0E0,0E0,0E0,0E0,0E0,0E0,0E0,0E0,0E0,0E0,0E0,0E0,0E0,0E0,0E0,0E0,0E0,0E0,0E0,0E0,0E0,0E0,0E0,0E0,0E0,0E0,0E0,0E0,0E0,0E0,0E0,0E0,0E0,0E0,0E0,0E0,0E0,0E0,0E0,0E0,0E0,0E0,0E0,0E0,0E0,0E0],"parents":[2147483647,0,0,1,1,2,2,3,3,4,4,5,5,6,6,7,7,8,8,9,9,10,10,11,11,12,12,13,13,14,14,15,15,16,16,17,17,18,18,19,19,20,20,21,21,22,22,23,23,24,24,25,25,26,26,27,27,28,28,29,29,30,30,31,31,33,33,34,34,35,35,36,36,37,37,38,38,39,39,42,42,43,43,44,44,45,45,46,46,47,47,48,48,49,49,50,50,51,51,52,52,53,53,54,54,55,55,56,56,57,57,58,58,59,59,60,60,61,61,62,62],"right_children":[2,4,6,8,10,12,14,16,18,20,22,24,26,28,30,32,34,36,38,40,42,44,46,48,50,52,54,56,58,60,62,64,-1,66,68,70,72,74,76,78,-1,-1,80,82,84,86,88,90,92,94,96,98,100,102,104,106,108,110,112,114,116,118,120,-1,-1,-1,-1,-1,-1,-1,-1,-1,-1,-1,-1,-1,-1,-1,-1,-1,-1,-1,-1,-1,-1,-1,-1,-1,-1,-1,-1,-1,-1,-1,-1,-1,-1,-1,-1,-1,-1,-1,-1,-1,-1,-1,-1,-1,-1,-1,-1,-1,-1,-1,-1,-1,-1,-1,-1,-1,-1],"split_conditions":[5.46E1,1.582E2,8.35E1,2.99E1,3.05E1,1.014E2,1.1829E4,1.039E2,8.3E0,8.6E0,3.59E1,8.6E0,1.651E2,2.041E2,1.512E2,4E0,8.6E0,1.376E2,1.134E2,5.12E1,2.99E1,5.42E1,8.5E0,6.86E1,6.2E1,7.18E1,2.54E2,1.191E2,2.787E2,1.075E2,1.9E0,5.56E1,4.0562324E-2,1.054E2,4.64E1,6.45E1,5E0,7.77E1,3.13E1,2.87E1,3.0226088E-1,9.4717884E-1,8.68E1,2.033E2,2.003E2,5.7E0,2.018E2,6.7E0,6.5E0,1.054E2,6.53E1,6.9E0,5.8E0,6.73E1,4.6E0,8.28E1,1.179E2,1.716E2,1.466E2,1.122E2,5E0,1.905E2,1.239E2,9.539795E-2,5.504988E-1,8.4778406E-2,5.0720274E-1,7.380872E-1,6.373831E-1,9.898921E-2,-2.3079589E-2,-1.4353289E-1,-3.5187754E-1,1.8833543E-1,3.8896594E-2,5.8429515E-1,2.6822513E-1,8.710102E-1,5.003412E-1,8.265064E-1,3.046711E-1,6.9215816E-1,7.559435E-1,5.839598E-1,6.733829E-1,1.0697529E-1,3.8207668E-1,4.4633186E-1,5.3543925E-1,-7.260996E-2,2.8094089E-2,-1.6841313E-1,-8.435868E-2,1.016534E-1,2.0685132E-1,6.9766104E-2,-2.6900416E-2,-1.8406744E-1,-8.440354E-2,-2.958328E-1,-2.097537E-1,-2.7682874E-1,-3.76048E-1,-5.6423503E-1,-4.4731867E-1,-1.8872495E-1,-2.9948726E-1,-4.5974463E-1,-3.7206447E-1,-5.188626E-1,-5.228805E-4,-6.586717E-1,-4.8513478E-1,-5.6262666E-1,-2.5970045E-1,-5.747919E-1,-6.3151497E-1,-7.192559E-1,-7.840266E-1,-6.682763E-1,-4.642046E-1],"split_indices":[5,2,5,8,8,8,6,2,7,7,5,7,8,8,8,9,7,8,2,5,8,8,7,5,8,5,8,8,8,8,7,0,0,2,5,8,9,8,5,8,0,0,1,2,2,7,2,7,7,2,5,7,7,5,7,8,2,2,2,2,9,8,2,0,0,0,0,0,0,0,0,0,0,0,0,0,0,0,0,0,0,0,0,0,0,0,0,0,0,0,0,0,0,0,0,0,0,0,0,0,0,0,0,0,0,0,0,0,0,0,0,0,0,0,0,0,0,0,0,0,0],"split_type":[0,0,0,0,0,0,0,0,0,0,0,0,0,0,0,0,0,0,0,0,0,0,0,0,0,0,0,0,0,0,0,0,0,0,0,0,0,0,0,0,0,0,0,0,0,0,0,0,0,0,0,0,0,0,0,0,0,0,0,0,0,0,0,0,0,0,0,0,0,0,0,0,0,0,0,0,0,0,0,0,0,0,0,0,0,0,0,0,0,0,0,0,0,0,0,0,0,0,0,0,0,0,0,0,0,0,0,0,0,0,0,0,0,0,0,0,0,0,0,0,0],"sum_hessian":[3.1993E4,1.009E4,2.1903E4,2.115E3,7.975E3,1.4127E4,7.776E3,5.59E2,1.556E3,3.979E3,3.996E3,6.774E3,7.353E3,1.359E3,6.417E3,1.61E2,3.98E2,3.55E2,1.201E3,2.82E2,3.697E3,3.295E3,7.01E2,4.336E3,2.438E3,3.493E3,3.86E3,8.78E2,4.81E2,4.524E3,1.893E3,1.6E2,1E0,4.3E1,3.55E2,2.94E2,6.1E1,6.7E2,5.31E2,2.8E2,2E0,3.641E3,5.6E1,1.825E3,1.47E3,3.74E2,3.27E2,2.208E3,2.128E3,1.897E3,5.41E2,1.896E3,1.597E3,2.732E3,1.128E3,3.72E2,5.06E2,3.28E2,1.53E2,1.446E3,3.078E3,1.379E3,5.14E2,1E0,1.59E2,1E0,4.2E1,9.5E1,2.6E2,1.05E2,1.89E2,3.9E1,2.2E1,6.13E2,5.7E1,2.3E1,5.08E2,2.74E2,6E0,5.4E1,2E0,9.17E2,9.08E2,7.52E2,7.18E2,1.5E1,3.59E2,9.4E1,2.33E2,1.086E3,1.122E3,1.314E3,8.14E2,6.49E2,1.248E3,3.36E2,2.05E2,1.304E3,5.92E2,9.57E2,6.4E2,5.96E2,2.136E3,3.25E2,8.03E2,1.4E2,2.32E2,1.51E2,3.55E2,3.27E2,1E0,1.26E2,2.7E1,1.44E3,6E0,6.71E2,2.407E3,9.3E2,4.49E2,4.98E2,1.6E1],"tree_param":{"num_deleted":"0","num_feature":"11","num_nodes":"121","size_leaf_vector":"1"}},{"base_weights":[-5.6927115E-2,2.2083761E1,-1.0246091E1,9.256917E0,2.5452389E1,-5.0729394E0,-1.9336584E1,2.0253565E1,5.378966E0,3.0358906E1,2.0560429E1,-9.237387E-1,-1.0940059E1,-1.2475665E1,-2.0416948E1,2.2155514E1,1.7262852E1,9.185024E0,1.8869512E0,2.8005043E1,3.053915E1,2.2645702E1,1.6262178E1,-3.4323535E0,3.8014576E0,-8.591942E0,-1.3752362E1,-9.742003E0,-1.5810486E1,-1.9081459E1,-2.2314013E1,4.7561336E-1,2.2711834E1,1.5698698E1,1.821556E1,4.2252975E0,9.990672E0,3.373394E0,-2.4945705E0,2.8191452E1,1.1592379E1,3.0604946E1,2.6143593E1,1.6326195E1,2.311083E1,1.2002743E1,1.7692991E1,1.29978E-1,-4.2769666E0,6.731919E0,4.213825E-1,-6.498993E0,-9.935258E0,-1.2775685E1,-1.6398458E1,-6.65292E0,-1.079625E1,-1.3502237E1,-1.7605175E1,-1.3410072E1,-1.9233349E1,-1.9766407E1,-2.334765E1,6.4828193E-1,7.513225E-1,4.7631344E-1,1.5875088E-1,5.4988116E-1,2.2090827E-1,6.602214E-2,1.8510401E-1,2.771654E-1,4.2658123E-1,-1.675562E-2,1.15730576E-1,-3.6651555E-2,-2.53079E-1,8.488187E-1,4.136602E-1,9.7106434E-2,3.86161E-1,9.20852E-1,8.118345E-1,7.9484755E-1,3.1558952E-1,5.3706044E-1,3.6340457E-1,6.707414E-1,7.506371E-1,1.0970467E-1,3.724516E-1,5.9198934E-1,4.5359758E-1,4.1587926E-2,-8.542179E-2,-9.196212E-2,-1.8450917E-1,2.5037864E-1,1.5619521E-1,8.530845E-2,-2.5264414E-2,-1.4360717E-1,-2.4350005E-1,-3.2999608E-1,-2.565443E-1,-3.1937665E-1,-4.0843672E-1,-5.6528044E-1,-4.5165467E-1,-1.4499515E-1,-2.6136473E-1,-2.0848246E-1,-3.4009007E-1,-4.5622167E-1,-3.603416E-1,-4.7485846E-1,-6.1487836E-1,-4.5606717E-1,-2.54045E-1,-5.4404247E-1,-5.9174436E-1,-6.3627315E-1,-5.374146E-1,-6.8537915E-1,-7.7465016E-1],"categories":[],"categories_nodes":[],"categories_segments":[],"categories_sizes":[],"default_left":[0,0,0,0,0,0,0,0,0,0,0,0,0,0,0,0,0,0,0,0,0,0,0,0,0,0,0,0,0,0,0,0,0,0,0,0,0,0,0,0,0,0,0,0,0,0,0,0,0,0,0,0,0,0,0,0,0,0,0,0,0,0,0,0,0,0,0,0,0,0,0,0,0,0,0,0,0,0,0,0,0,0,0,0,0,0,0,0,0,0,0,0,0,0,0,0,0,0,0,0,0,0,0,0,0,0,0,0,0,0,0,0,0,0,0,0,0,0,0,0,0,0,0,0,0],"id":11,"left_children":[1,3,5,7,9,11,13,15,17,19,21,23,25,27,29,31,33,35,37,39,41,43,45,47,49,51,53,55,57,59,61,-1,63,65,67,69,71,73,75,77,79,81,83,85,87,89,91,93,95,97,99,101,103,105,107,109,111,113,115,117,119,121,123,-1,-1,-1,-1,-1,-1,-1,-1,-1,-1,-1,-1,-1,-1,-1,-1,-1,-1,-1,-1,-1,-1,-1,-1,-1,-1,-1,-1,-1,-1,-1,-1,-1,-1,-1,-1,-1,-1,-1,-1,-1,-1,-1,-1,-1,-1,-1,-1,-1,-1,-1,-1,-1,-1,-1,-1,-1,-1,-1,-1,-1,-1],"loss_changes":[7.180242E6,4.331925E5,1.02493825E6,8.893269E4,1.900515E5,3.38199E5,5.83395E4,2.7118906E3,2.0516973E4,8.2675E2,3.53135E4,9.64903E4,3.7885688E4,9.6733125E3,1.6873E4,7.9334375E2,3.5921875E1,2.9106758E3,5.2643105E3,5.726875E2,2.615E2,7.494375E3,7.7347812E3,1.5998301E4,2.7959477E4,8.760719E3,6.5538125E3,1.8658789E3,1.7673047E3,3.199875E3,6.95125E3,0E0,2.3015625E2,8.123633E1,2.3117188E1,3.9985205E2,1.8874492E3,1.1503838E3,1.5400099E3,3.8015625E1,1.1795471E1,3.225E2,5.611328E1,1.024543E3,3.024375E3,1.0936055E3,4.8141875E3,3.8191868E3,9.736172E3,3.6791953E3,4.017853E3,3.367754E3,2.7197188E3,3.2782188E3,2.0212188E3,5.349756E2,8.3953125E2,3.664375E2,1.0570547E3,8.2779297E2,1.75175E3,1.8090312E3,1.888625E3,0E0,0E0,0E0,0E0,0E0,0E0,0E0,0E0,0E0,0E0,0E0,0E0,0E0,0E0,0E0,0E0,0E0,0E0,0E0,0E0,0E0,0E0,0E0,0E0,0E0,0E0,0E0,0E0,0E0,0E0,0E0,0E0,0E0,0E0,0E0,0E0,0E0,0E0,0E0,0E0,0E0,0E0,0E0,0E0,0E0,0E0,0E0,0E0,0E0,0E0,0E0,0E0,0E0,0E0,0E0,0E0,0E0,0E0,0E0,0E0,0E0,0E0],"parents":[2147483647,0,0,1,1,2,2,3,3,4,4,5,5,6,6,7,7,8,8,9,9,10,10,11,11,12,12,13,13,14,14,15,15,16,16,17,17,18,18,19,19,20,20,21,21,22,22,23,23,24,24,25,25,26,26,27,27,28,28,29,29,30,30,32,32,33,33,34,34,35,35,36,36,37,37,38,38,39,39,40,40,41,41,42,42,43,43,44,44,45,45,46,46,47,47,48,48,49,49,50,50,51,51,52,52,53,53,54,54,55,55,56,56,57,57,58,58,59,59,60,60,61,61,62,62],"right_children":[2,4,6,8,10,12,14,16,18,20,22,24,26,28,30,32,34,36,38,40,42,44,46,48,50,52,54,56,58,60,62,-1,64,66,68,70,72,74,76,78,80,82,84,86,88,90,92,94,96,98,100,102,104,106,108,110,112,114,116,118,120,122,124,-1,-1,-1,-1,-1,-1,-1,-1,-1,-1,-1,-1,-1,-1,-1,-1,-1,-1,-1,-1,-1,-1,-1,-1,-1,-1,-1,-1,-1,-1,-1,-1,-1,-1,-1,-1,-1,-1,-1,-1,-1,-1,-1,-1,-1,-1,-1,-1,-1,-1,-1,-1,-1,-1,-1,-1,-1,-1,-1,-1,-1,-1],"split_conditions":[5.46E1,1.561E2,8.35E1,2.99E1,3.05E1,1.223E2,4.06E0,6.1E0,6.1E0,8.6E0,5.6E0,8.4E0,2.017E2,1.606E2,1.408E2,8.4E0,1.037E2,8.6E0,8.74E1,2.93E1,2.99E1,9.6E0,8.7E0,6.2E0,6.1E0,6.98E1,2.727E2,8.67E1,2.115E2,9.14E1,9.89E1,4.7561336E-1,1.225E2,7.5E0,1.347E2,1.144E2,1.288E2,6.4E0,1.766E2,5.12E1,2.76E1,6.1E0,6.38E1,4.52E1,2.132E2,5.7E0,6.1E0,7.1E1,7.18E1,6.14E1,4.29E1,1.5E2,5.6E0,6.88E1,4.7E0,6.482E3,6.5E0,5E0,7.9E0,3.4E0,1.035E2,2.8E0,1.993E2,6.4828193E-1,7.513225E-1,4.7631344E-1,1.5875088E-1,5.4988116E-1,2.2090827E-1,6.602214E-2,1.8510401E-1,2.771654E-1,4.2658123E-1,-1.675562E-2,1.15730576E-1,-3.6651555E-2,-2.53079E-1,8.488187E-1,4.136602E-1,9.7106434E-2,3.86161E-1,9.20852E-1,8.118345E-1,7.9484755E-1,3.1558952E-1,5.3706044E-1,3.6340457E-1,6.707414E-1,7.506371E-1,1.0970467E-1,3.724516E-1,5.9198934E-1,4.5359758E-1,4.1587926E-2,-8.542179E-2,-9.196212E-2,-1.8450917E-1,2.5037864E-1,1.5619521E-1,8.530845E-2,-2.5264414E-2,-1.4360717E-1,-2.4350005E-1,-3.2999608E-1,-2.565443E-1,-3.1937665E-1,-4.0843672E-1,-5.6528044E-1,-4.5165467E-1,-1.4499515E-1,-2.6136473E-1,-2.0848246E-1,-3.4009007E-1,-4.5622167E-1,-3.603416E-1,-4.7485846E-1,-6.1487836E-1,-4.5606717E-1,-2.54045E-1,-5.4404247E-1,-5.9174436E-1,-6.3627315E-1,-5.374146E-1,-6.8537915E-1,-7.7465016E-1],"split_indices":[5,2,5,8,8,8,10,4,4,7,4,7,8,8,8,7,2,7,8,8,8,7,7,4,4,5,8,8,8,5,5,0,2,4,2,2,2,7,8,5,0,4,0,5,2,7,4,5,5,5,8,8,7,5,7,6,4,7,4,7,8,7,8,0,0,0,0,0,0,0,0,0,0,0,0,0,0,0,0,0,0,0,0,0,0,0,0,0,0,0,0,0,0,0,0,0,0,0,0,0,0,0,0,0,0,0,0,0,0,0,0,0,0,0,0,0,0,0,0,0,0,0,0,0,0],"split_type":[0,0,0,0,0,0,0,0,0,0,0,0,0,0,0,0,0,0,0,0,0,0,0,0,0,0,0,0,0,0,0,0,0,0,0,0,0,0,0,0,0,0,0,0,0,0,0,0,0,0,0,0,0,0,0,0,0,0,0,0,0,0,0,0,0,0,0,0,0,0,0,0,0,0,0,0,0,0,0,0,0,0,0,0,0,0,0,0,0,0,0,0,0,0,0,0,0,0,0,0,0,0,0,0,0,0,0,0,0,0,0,0,0,0,0,0,0,0,0,0,0,0,0,0,0],"sum_hessian":[3.1826E4,1.003E4,2.1796E4,2.087E3,7.943E3,1.3892E4,7.904E3,5.43E2,1.544E3,3.963E3,3.98E3,8.138E3,5.754E3,1.077E3,6.827E3,3.28E2,2.15E2,7.38E2,8.06E2,2.93E2,3.67E3,2.677E3,1.303E3,5.316E3,2.822E3,3.138E3,2.616E3,5.94E2,4.83E2,4.013E3,2.814E3,2.9E1,2.99E2,8.8E1,1.27E2,1.04E2,6.34E2,6.02E2,2.04E2,2.89E2,4E0,3.61E3,6E1,1.86E2,2.491E3,3.3E2,9.73E2,1.019E3,4.297E3,1.511E3,1.311E3,1.229E3,1.909E3,1.915E3,7.01E2,1.53E2,4.41E2,2.15E2,2.68E2,1.07E2,3.906E3,8.18E2,1.996E3,2.1E2,8.9E1,8.6E1,2E0,1.25E2,2E0,5.2E1,5.2E1,5.41E2,9.3E1,6.6E1,5.36E2,1.69E2,3.5E1,2.86E2,3E0,1E0,3E0,3.513E3,9.7E1,5.8E1,2E0,1.33E2,5.3E1,1.796E3,6.95E2,1.6E1,3.14E2,5.39E2,4.34E2,7.17E2,3.02E2,2.611E3,1.686E3,7.32E2,7.79E2,4.49E2,8.62E2,5.99E2,6.3E2,1.075E3,8.34E2,5.45E2,1.37E3,2.44E2,4.57E2,8.3E1,7E1,5.6E1,3.85E2,9.6E1,1.19E2,1.7E2,9.8E1,7.7E1,3E1,1.219E3,2.687E3,4.54E2,3.64E2,1.668E3,3.28E2],"tree_param":{"num_deleted":"0","num_feature":"11","num_nodes":"125","size_leaf_vector":"1"}},{"base_weights":[-2.785577E-3,2.145554E1,-9.913178E0,9.149518E0,2.468241E1,-4.960794E0,-1.8819124E1,1.9144321E1,5.226142E0,2.9476625E1,1.9901138E1,-1.4289905E0,-1.1401272E1,-1.3083294E1,-1.9993217E1,2.1926682E1,1.6980333E1,8.688046E0,1.9007902E0,2.971154E1,2.7798168E1,2.1991693E1,1.5653145E1,3.937549E0,-3.487932E0,-9.294019E0,-1.3644287E1,-1.0082362E1,-1.6804853E1,-1.8946634E1,-2.2471252E1,6.803866E-1,5.670104E-1,1.7413603E1,8.310313E0,1.0661064E1,7.4101424E0,3.38056E0,-2.625945E0,2.9773533E1,2.552253E1,2.791332E1,1.3530678E1,2.2460817E1,1.628354E1,1.7834219E1,1.28316765E1,5.38272E0,-7.766067E-2,-1.487217E0,-5.4700303E0,-6.4249806E0,-9.969972E0,-1.3046333E1,-1.7369637E1,-7.9319944E0,-1.1986958E1,-1.5182791E1,-1.927039E1,-1.7816568E1,-1.9605082E1,-2.1822866E1,-2.4068874E1,5.393162E-1,4.6473107E-1,2.6314583E-1,7.0446967E-3,2.697283E-1,4.0904415E-1,2.281357E-1,-1.3058583E-1,1.6442582E-1,7.821394E-2,-2.4333185E-2,-1.9441013E-1,8.959145E-1,8.0862135E-1,2.8170425E-1,7.7793014E-1,1.92224E-1,8.3830374E-1,9.564983E-2,4.4884446E-1,6.530179E-1,7.245895E-1,5.319808E-1,3.8000154E-1,5.836503E-1,4.5638976E-1,1.4298604E-1,3.9553472E-1,2.0913418E-1,9.7761914E-2,8.314706E-2,-4.7005616E-2,1.8959278E-2,-9.5578484E-2,-1.0773889E-1,-1.9725902E-1,-1.540699E-1,-2.2839779E-1,-3.286493E-1,-2.5177774E-1,-3.5232744E-1,-4.2645276E-1,-4.6866354E-1,-5.910128E-1,-1.8038836E-1,-2.7760777E-1,-2.6997608E-1,-3.753591E-1,-1.3335887E-1,-4.5961016E-1,-5.8351433E-1,-2.7735937E-1,-3.879415E-1,-5.3717196E-1,-5.644818E-1,-6.172542E-1,-6.561937E-1,-2.6521564E-1,-7.2953826E-1,-4.0892085E-1],"categories":[],"categories_nodes":[],"categories_segments":[],"categories_sizes":[],"default_left":[0,0,0,0,0,0,0,0,0,0,0,0,0,0,0,0,0,0,0,0,0,0,0,0,0,0,0,0,0,0,0,0,0,0,0,0,0,0,0,0,0,0,0,0,0,0,0,0,0,0,0,0,0,0,0,0,0,0,0,0,0,0,0,0,0,0,0,0,0,0,0,0,0,0,0,0,0,0,0,0,0,0,0,0,0,0,0,0,0,0,0,0,0,0,0,0,0,0,0,0,0,0,0,0,0,0,0,0,0,0,0,0,0,0,0,0,0,0,0,0,0,0,0],"id":12,"left_children":[1,3,5,7,9,11,13,15,17,19,21,23,25,27,29,31,33,35,37,39,41,43,45,47,49,51,53,55,57,59,61,-1,-1,63,65,67,69,71,73,75,77,79,81,83,85,87,89,91,93,95,97,99,101,103,105,107,109,111,113,115,117,119,121,-1,-1,-1,-1,-1,-1,-1,-1,-1,-1,-1,-1,-1,-1,-1,-1,-1,-1,-1,-1,-1,-1,-1,-1,-1,-1,-1,-1,-1,-1,-1,-1,-1,-1,-1,-1,-1,-1,-1,-1,-1,-1,-1,-1,-1,-1,-1,-1,-1,-1,-1,-1,-1,-1,-1,-1,-1,-1,-1,-1],"loss_changes":[6.8153415E6,4.01838E5,9.66835E5,8.244409E4,1.83274E5,3.2048194E5,5.249575E4,3.198125E3,1.7401215E4,7.5225E2,3.5347125E4,1.0057424E5,2.3458875E4,1.4728891E4,1.64345E4,1.54625E2,1.1249766E3,1.7893008E3,5.186837E3,1.485E2,4.5528125E2,6.840375E3,7.9495938E3,1.4646344E4,2.607768E4,4.9316562E3,5.1530312E3,2.9397422E3,2.0829688E3,3.056375E3,1.4688125E3,0E0,0E0,6.933594E1,6.4982056E1,1.3127305E3,1.0688887E3,9.327549E2,1.3308083E3,7.075E1,1.3870703E2,1.463125E2,4.1085083E1,2.3895E3,8.655781E2,2.8776406E3,1.5961562E3,6.239035E3,2.8429448E3,1.1791825E4,6.837172E3,7.1774414E2,3.1444844E3,3.0060625E3,1.0404297E3,8.3456836E2,5.0072656E2,4.6801562E2,2.3903125E2,5.0725E2,1.81875E3,7.07E2,1.088E3,0E0,0E0,0E0,0E0,0E0,0E0,0E0,0E0,0E0,0E0,0E0,0E0,0E0,0E0,0E0,0E0,0E0,0E0,0E0,0E0,0E0,0E0,0E0,0E0,0E0,0E0,0E0,0E0,0E0,0E0,0E0,0E0,0E0,0E0,0E0,0E0,0E0,0E0,0E0,0E0,0E0,0E0,0E0,0E0,0E0,0E0,0E0,0E0,0E0,0E0,0E0,0E0,0E0,0E0,0E0,0E0,0E0,0E0,0E0,0E0],"parents":[2147483647,0,0,1,1,2,2,3,3,4,4,5,5,6,6,7,7,8,8,9,9,10,10,11,11,12,12,13,13,14,14,15,15,16,16,17,17,18,18,19,19,20,20,21,21,22,22,23,23,24,24,25,25,26,26,27,27,28,28,29,29,30,30,33,33,34,34,35,35,36,36,37,37,38,38,39,39,40,40,41,41,42,42,43,43,44,44,45,45,46,46,47,47,48,48,49,49,50,50,51,51,52,52,53,53,54,54,55,55,56,56,57,57,58,58,59,59,60,60,61,61,62,62],"right_children":[2,4,6,8,10,12,14,16,18,20,22,24,26,28,30,32,34,36,38,40,42,44,46,48,50,52,54,56,58,60,62,-1,-1,64,66,68,70,72,74,76,78,80,82,84,86,88,90,92,94,96,98,100,102,104,106,108,110,112,114,116,118,120,122,-1,-1,-1,-1,-1,-1,-1,-1,-1,-1,-1,-1,-1,-1,-1,-1,-1,-1,-1,-1,-1,-1,-1,-1,-1,-1,-1,-1,-1,-1,-1,-1,-1,-1,-1,-1,-1,-1,-1,-1,-1,-1,-1,-1,-1,-1,-1,-1,-1,-1,-1,-1,-1,-1,-1,-1,-1,-1,-1,-1],"split_conditions":[5.46E1,1.545E2,8.35E1,3.05E1,3.05E1,1.376E2,1.1269E4,5.8E0,6.1E0,3.69E1,5.6E0,6.1E0,2.115E2,1.803E2,1.512E2,2.63E1,2.99E1,4.8E1,8.74E1,2.99E1,2.99E1,3.59E1,3.34E1,6.78E1,6.82E1,6.59E1,3.029E2,1.185E2,2.587E2,1.108E2,1.905E2,6.803866E-1,5.670104E-1,5.26E1,1.198E2,1.201E2,1.177E2,4.69E1,1.35E2,6E0,7.21E1,1.582E2,2.76E1,2.132E2,4.52E1,6.1E0,1.764E2,6.35E1,6.35E1,7.18E1,8.03E1,1.651E2,1.312E2,7.3E0,7.9E0,8.59E1,6.8E0,5.7E0,7E0,9.14E1,8.4E0,1.261E2,1.332E2,5.393162E-1,4.6473107E-1,2.6314583E-1,7.0446967E-3,2.697283E-1,4.0904415E-1,2.281357E-1,-1.3058583E-1,1.6442582E-1,7.821394E-2,-2.4333185E-2,-1.9441013E-1,8.959145E-1,8.0862135E-1,2.8170425E-1,7.7793014E-1,1.92224E-1,8.3830374E-1,9.564983E-2,4.4884446E-1,6.530179E-1,7.245895E-1,5.319808E-1,3.8000154E-1,5.836503E-1,4.5638976E-1,1.4298604E-1,3.9553472E-1,2.0913418E-1,9.7761914E-2,8.314706E-2,-4.7005616E-2,1.8959278E-2,-9.5578484E-2,-1.0773889E-1,-1.9725902E-1,-1.540699E-1,-2.2839779E-1,-3.286493E-1,-2.5177774E-1,-3.5232744E-1,-4.2645276E-1,-4.6866354E-1,-5.910128E-1,-1.8038836E-1,-2.7760777E-1,-2.6997608E-1,-3.753591E-1,-1.3335887E-1,-4.5961016E-1,-5.8351433E-1,-2.7735937E-1,-3.879415E-1,-5.3717196E-1,-5.644818E-1,-6.172542E-1,-6.561937E-1,-2.6521564E-1,-7.2953826E-1,-4.0892085E-1],"split_indices":[5,2,5,8,8,8,6,4,4,5,4,4,8,8,8,8,8,5,8,8,8,5,5,8,5,5,8,8,8,8,8,0,0,5,2,2,8,5,8,4,1,2,0,2,5,4,2,5,5,8,8,8,2,4,4,8,4,4,3,5,4,2,2,0,0,0,0,0,0,0,0,0,0,0,0,0,0,0,0,0,0,0,0,0,0,0,0,0,0,0,0,0,0,0,0,0,0,0,0,0,0,0,0,0,0,0,0,0,0,0,0,0,0,0,0,0,0,0,0,0,0,0,0],"split_type":[0,0,0,0,0,0,0,0,0,0,0,0,0,0,0,0,0,0,0,0,0,0,0,0,0,0,0,0,0,0,0,0,0,0,0,0,0,0,0,0,0,0,0,0,0,0,0,0,0,0,0,0,0,0,0,0,0,0,0,0,0,0,0,0,0,0,0,0,0,0,0,0,0,0,0,0,0,0,0,0,0,0,0,0,0,0,0,0,0,0,0,0,0,0,0,0,0,0,0,0,0,0,0,0,0,0,0,0,0,0,0,0,0,0,0,0,0,0,0,0,0,0,0],"sum_hessian":[3.2046E4,1.0124E4,2.1922E4,2.104E3,8.02E3,1.4089E4,7.833E3,5.92E2,1.512E3,4.002E3,4.018E3,9.1E3,4.989E3,1.333E3,6.5E3,2.55E2,3.37E2,7.4E2,7.72E2,3.496E3,5.06E2,2.69E3,1.328E3,2.523E3,6.577E3,2.575E3,2.414E3,7.4E2,5.93E2,4.576E3,1.924E3,1.99E2,5.6E1,3.2E2,1.7E1,2.88E2,4.52E2,5.82E2,1.9E2,3.439E3,5.7E1,5.01E2,5E0,2.483E3,2.07E2,7.46E2,5.82E2,1.855E3,6.68E2,3.274E3,3.303E3,4.93E2,2.082E3,2.084E3,3.3E2,3.5E2,3.9E2,3.62E2,2.31E2,1.695E3,2.881E3,1.379E3,5.45E2,2.41E2,7.9E1,1.6E1,1E0,1.87E2,1.01E2,4.45E2,7E0,1.55E2,4.27E2,1.3E2,6E1,3.323E3,1.16E2,2E0,5.5E1,1E0,5E2,1E0,4E0,1.771E3,7.12E2,1.45E2,6.2E1,4.57E2,2.89E2,2.5E1,5.57E2,1.06E3,7.95E2,2.29E2,4.39E2,1.457E3,1.817E3,1.225E3,2.078E3,2.39E2,2.54E2,1.278E3,8.04E2,9.91E2,1.093E3,1.93E2,1.37E2,1.45E2,2.05E2,6.1E1,3.29E2,5E0,3.57E2,2.26E2,5E0,3.3E1,1.662E3,1.6E3,1.281E3,1.373E3,6E0,5.31E2,1.4E1],"tree_param":{"num_deleted":"0","num_feature":"11","num_nodes":"123","size_leaf_vector":"1"}},{"base_weights":[-1.05081774E-1,2.0635303E1,-9.706368E0,2.4156548E1,9.645434E0,-1.3261443E0,-1.468421E1,2.6286179E1,1.8556211E1,1.6977175E1,7.401783E0,-4.5360336E0,2.5400007E0,-1.0043455E1,-1.9172787E1,2.7252155E1,2.3482874E1,1.9812025E1,1.4316478E1,2.5252674E1,1.4069093E1,8.8857424E-1,8.981069E0,-3.3032236E0,-7.8096476E0,4.53183E0,3.8384226E-1,-8.31478E0,-1.224944E1,-2.1592592E1,-1.8299898E1,2.8022017E1,2.6492468E1,2.3806984E1,1.695749E1,2.2213266E1,1.9101831E1,1.5189719E1,7.983409E0,2.574317E1,4.7728574E-1,1.1328024E1,1.5669254E1,8.527098E0,-1.195329E0,1.2496621E1,8.318308E0,-4.880861E0,-1.9876963E0,-1.0148982E1,-7.065263E0,2.6443665E0,5.4995446E0,-1.6734017E0,1.8186241E0,-7.1120687E0,-1.0712648E1,-1.0842815E1,-1.4244898E1,-1.7528181E1,-2.182117E1,-1.6677141E1,-1.8878902E1,8.4460735E-1,5.397442E-1,7.953344E-1,4.0213677E-1,7.3013383E-1,6.850947E-1,5.9540534E-1,3.9688385E-1,7.334736E-1,6.193737E-1,2.87327E-1,5.755681E-1,5.0820994E-1,4.273582E-1,-1.8392991E-2,2.679707E-1,2.5899848E-1,7.7789795E-1,3.7820137E-1,1.795873E-1,5.116923E-1,4.1870978E-1,2.8200692E-1,4.6873774E-2,-1.0657237E-2,-2.6231605E-1,1.4499106E-1,3.82265E-1,1.685711E-1,2.7558306E-1,-8.128885E-2,-1.6407897E-1,-1.2819175E-2,-8.526538E-2,-2.635462E-1,-3.4385735E-1,-1.8730119E-1,-2.710795E-1,1.4275044E-1,5.7375487E-2,1.1904961E-1,1.9894339E-1,-2.2428146E-2,-1.0268509E-1,8.984124E-2,-1.39791835E-2,-1.3219276E-1,-2.409964E-1,-2.0569307E-1,-3.356566E-1,-2.7199417E-1,-3.6700088E-1,-4.6965942E-1,-3.8921338E-1,-9.22043E-2,-5.2919286E-1,-6.685807E-1,-6.21703E-1,-4.390233E-1,-5.266269E-1,-5.420819E-1,-5.912522E-1],"categories":[],"categories_nodes":[],"categories_segments":[],"categories_sizes":[],"default_left":[0,0,0,0,0,0,0,0,0,0,0,0,0,0,0,0,0,0,0,0,0,0,0,0,0,0,0,0,0,0,0,0,0,0,0,0,0,0,0,0,0,0,0,0,0,0,0,0,0,0,0,0,0,0,0,0,0,0,0,0,0,0,0,0,0,0,0,0,0,0,0,0,0,0,0,0,0,0,0,0,0,0,0,0,0,0,0,0,0,0,0,0,0,0,0,0,0,0,0,0,0,0,0,0,0,0,0,0,0,0,0,0,0,0,0,0,0,0,0,0,0,0,0,0,0],"id":13,"left_children":[1,3,5,7,9,11,13,15,17,19,21,23,25,27,29,31,33,35,37,39,41,43,45,47,49,51,53,55,57,59,61,63,65,67,69,71,73,75,77,79,-1,81,83,85,87,89,91,93,95,97,99,101,103,105,107,109,111,113,115,117,119,121,123,-1,-1,-1,-1,-1,-1,-1,-1,-1,-1,-1,-1,-1,-1,-1,-1,-1,-1,-1,-1,-1,-1,-1,-1,-1,-1,-1,-1,-1,-1,-1,-1,-1,-1,-1,-1,-1,-1,-1,-1,-1,-1,-1,-1,-1,-1,-1,-1,-1,-1,-1,-1,-1,-1,-1,-1,-1,-1,-1,-1,-1,-1],"loss_changes":[6.3571675E6,3.90694E5,9.102946E5,9.07515E4,4.0225844E4,1.0094122E5,2.8497525E5,1.4362E4,1.0956E4,1.34585E4,1.933011E4,1.7909055E4,1.5845701E4,2.5573938E4,1.430175E4,1.6635E3,2.6143125E3,2.3485625E3,2.5664531E3,2.686953E2,1.6953906E3,5.8679966E3,3.421289E3,6.693918E3,2.0440547E3,3.4887344E3,5.236401E3,1.0819328E4,8.1426562E3,1.326E3,4.495875E3,2.167125E3,1.555E2,1.4325E2,5.022207E2,7.7440625E2,8.231875E2,4.630078E2,5.0309253E2,2.2030469E2,0E0,1.0242383E3,3.961172E2,4.6571533E2,1.8359103E3,3.8627734E2,2.9373047E3,1.86075E3,2.3494424E3,4.2048242E2,1.4418164E3,9.996201E2,2.1696445E3,1.1781448E3,2.8091824E3,6.2426875E3,2.2356094E3,4.1820938E3,1.9823281E3,1.119082E2,4.245E2,2.1711562E3,2.172625E3,0E0,0E0,0E0,0E0,0E0,0E0,0E0,0E0,0E0,0E0,0E0,0E0,0E0,0E0,0E0,0E0,0E0,0E0,0E0,0E0,0E0,0E0,0E0,0E0,0E0,0E0,0E0,0E0,0E0,0E0,0E0,0E0,0E0,0E0,0E0,0E0,0E0,0E0,0E0,0E0,0E0,0E0,0E0,0E0,0E0,0E0,0E0,0E0,0E0,0E0,0E0,0E0,0E0,0E0,0E0,0E0,0E0,0E0,0E0,0E0,0E0,0E0],"parents":[2147483647,0,0,1,1,2,2,3,3,4,4,5,5,6,6,7,7,8,8,9,9,10,10,11,11,12,12,13,13,14,14,15,15,16,16,17,17,18,18,19,19,20,20,21,21,22,22,23,23,24,24,25,25,26,26,27,27,28,28,29,29,30,30,31,31,32,32,33,33,34,34,35,35,36,36,37,37,38,38,39,39,41,41,42,42,43,43,44,44,45,45,46,46,47,47,48,48,49,49,50,50,51,51,52,52,53,53,54,54,55,55,56,56,57,57,58,58,59,59,60,60,61,61,62,62],"right_children":[2,4,6,8,10,12,14,16,18,20,22,24,26,28,30,32,34,36,38,40,42,44,46,48,50,52,54,56,58,60,62,64,66,68,70,72,74,76,78,80,-1,82,84,86,88,90,92,94,96,98,100,102,104,106,108,110,112,114,116,118,120,122,124,-1,-1,-1,-1,-1,-1,-1,-1,-1,-1,-1,-1,-1,-1,-1,-1,-1,-1,-1,-1,-1,-1,-1,-1,-1,-1,-1,-1,-1,-1,-1,-1,-1,-1,-1,-1,-1,-1,-1,-1,-1,-1,-1,-1,-1,-1,-1,-1,-1,-1,-1,-1,-1,-1,-1,-1,-1,-1,-1,-1,-1,-1],"split_conditions":[5.49E1,4.22E1,4E0,1.965E3,2E0,7.7E0,8.74E1,2E0,3.44E1,1.763E3,7.6E0,7.64E1,6.35E1,7.45E1,1.4E0,1.18E1,3.44E1,2.222E3,3E0,9.01E1,8.9E0,2.31E0,2.43E0,5.5E0,3.8E0,9E0,8.6E0,5E0,5E0,9.66E1,5E0,1.789E3,2.95E0,1.94E0,8.05E1,2E0,8.7E0,2E0,7.5E0,5.8E0,4.7728574E-1,2.98E0,3.14E0,5.16E1,5E0,1E0,9.1E0,6.28E1,3.07E0,8.13E1,3.57E0,5.74E1,3E0,7.24E1,3E0,6.4E1,3.13E0,3.54E0,5.2E0,8.86E1,1E0,9.57E1,9.94E1,8.4460735E-1,5.397442E-1,7.953344E-1,4.0213677E-1,7.3013383E-1,6.850947E-1,5.9540534E-1,3.9688385E-1,7.334736E-1,6.193737E-1,2.87327E-1,5.755681E-1,5.0820994E-1,4.273582E-1,-1.8392991E-2,2.679707E-1,2.5899848E-1,7.7789795E-1,3.7820137E-1,1.795873E-1,5.116923E-1,4.1870978E-1,2.8200692E-1,4.6873774E-2,-1.0657237E-2,-2.6231605E-1,1.4499106E-1,3.82265E-1,1.685711E-1,2.7558306E-1,-8.128885E-2,-1.6407897E-1,-1.2819175E-2,-8.526538E-2,-2.635462E-1,-3.4385735E-1,-1.8730119E-1,-2.710795E-1,1.4275044E-1,5.7375487E-2,1.1904961E-1,1.9894339E-1,-2.2428146E-2,-1.0268509E-1,8.984124E-2,-1.39791835E-2,-1.3219276E-1,-2.409964E-1,-2.0569307E-1,-3.356566E-1,-2.7199417E-1,-3.6700088E-1,-4.6965942E-1,-3.8921338E-1,-9.22043E-2,-5.2919286E-1,-6.685807E-1,-6.21703E-1,-4.390233E-1,-5.266269E-1,-5.420819E-1,-5.912522E-1],"split_indices":[5,5,9,6,9,7,5,9,5,6,7,5,5,5,7,7,5,6,9,1,7,10,10,7,7,7,7,9,9,5,9,6,10,10,1,9,7,9,7,7,0,10,10,0,9,3,7,5,10,5,10,5,3,5,9,5,10,10,7,1,7,5,5,0,0,0,0,0,0,0,0,0,0,0,0,0,0,0,0,0,0,0,0,0,0,0,0,0,0,0,0,0,0,0,0,0,0,0,0,0,0,0,0,0,0,0,0,0,0,0,0,0,0,0,0,0,0,0,0,0,0,0,0,0,0],"split_type":[0,0,0,0,0,0,0,0,0,0,0,0,0,0,0,0,0,0,0,0,0,0,0,0,0,0,0,0,0,0,0,0,0,0,0,0,0,0,0,0,0,0,0,0,0,0,0,0,0,0,0,0,0,0,0,0,0,0,0,0,0,0,0,0,0,0,0,0,0,0,0,0,0,0,0,0,0,0,0,0,0,0,0,0,0,0,0,0,0,0,0,0,0,0,0,0,0,0,0,0,0,0,0,0,0,0,0,0,0,0,0,0,0,0,0,0,0,0,0,0,0,0,0,0,0],"sum_hessian":[3.1922E4,1.0101E4,2.1821E4,7.649E3,2.452E3,8.132E3,1.3689E4,5.539E3,2.11E3,5.73E2,1.879E3,4.443E3,3.689E3,6.732E3,6.957E3,4.113E3,1.426E3,1.625E3,4.85E2,1.47E2,4.26E2,3.67E2,1.512E3,3.229E3,1.214E3,1.917E3,1.772E3,3.777E3,2.955E3,1.838E3,5.119E3,2.025E3,2.088E3,1.356E3,7E1,3.64E2,1.261E3,4.25E2,6E1,1.38E2,9E0,1.6E2,2.66E2,7.8E1,2.89E2,2.37E2,1.275E3,1.467E3,1.762E3,2.9E2,9.24E2,6.51E2,1.266E3,7.28E2,1.044E3,2.518E3,1.259E3,1.737E3,1.218E3,1.02E2,1.736E3,1.354E3,3.765E3,1.997E3,2.8E1,2.084E3,4E0,8.61E2,4.95E2,3.7E1,3.3E1,1.44E2,2.2E2,1.2E1,1.249E3,1.43E2,2.82E2,6E0,5.4E1,2E0,1.36E2,1.28E2,3.2E1,1.42E2,1.24E2,6.9E1,9E0,2.61E2,2.8E1,8E0,2.29E2,3.12E2,9.63E2,3.14E2,1.153E3,6.24E2,1.138E3,1.46E2,1.44E2,6.55E2,2.69E2,1.66E2,4.85E2,5.4E2,7.26E2,4.77E2,2.51E2,6.89E2,3.55E2,6.41E2,1.877E3,1.4E2,1.119E3,7.66E2,9.71E2,5.72E2,6.46E2,1E0,1.01E2,1.206E3,5.3E2,4.12E2,9.42E2,1.917E3,1.848E3],"tree_param":{"num_deleted":"0","num_feature":"11","num_nodes":"125","size_leaf_vector":"1"}},{"base_weights":[5.0936367E-2,2.0241245E1,-9.311017E0,8.621735E0,2.3236485E1,-4.8761086E0,-1.8133535E1,1.8486101E1,4.962353E0,2.781583E1,1.8746893E1,-3.715232E-1,-9.612785E0,-1.3060995E1,-1.8805603E1,2.041034E1,1.606484E1,8.031366E0,1.3173847E0,2.547711E1,2.7995506E1,2.0113693E1,1.3266779E1,4.0652475E0,-2.7040143E0,-6.917234E0,-1.22627325E1,-1.0584652E1,-1.662189E1,-1.7663712E1,-2.11289E1,1.3889717E1,2.0717958E1,5.838778E-1,1.5432951E1,4.1271315E0,9.068555E0,2.112087E0,-6.5633016E0,2.5687662E1,1.5908604E1,8.423161E-1,2.467314E1,2.1356993E1,1.7336283E1,1.1536441E1,1.5275507E1,6.4536256E-1,6.4591928E0,-1.13406554E-1,-4.0819616E0,-5.287974E0,-8.472091E0,-1.1019879E1,-1.4651955E1,-1.3373174E1,-9.418575E0,-1.4958314E1,-1.875136E1,-1.7246792E1,-1.9333155E1,-2.0254128E1,-2.2430035E1,1.5060703E-1,4.42129E-1,7.5175977E-1,6.044513E-1,4.1480115E-1,4.9160597E-1,1.4516217E-1,-4.8892956E-2,5.55145E-1,2.6359034E-1,1.2657867E-1,2.8431125E-2,-3.0931875E-1,-1.1184034E-1,7.7353495E-1,3.7098604E-1,8.6591944E-2,5.152674E-1,1.9537479E-1,7.4383426E-1,6.228775E-1,6.9865865E-1,5.5850613E-1,4.505444E-1,1.1386685E-1,3.5853925E-1,5.2667075E-1,3.7267804E-1,4.9840942E-2,-6.108095E-2,2.6772228E-1,1.6823404E-1,-5.6358784E-2,4.8571967E-2,-9.707234E-2,-1.8027379E-1,-1.8203954E-1,-8.129129E-2,-2.1326457E-1,-2.9274976E-1,-2.9338467E-1,-3.6933002E-1,-4.0352362E-1,-4.9962768E-1,-4.5996362E-1,-3.454925E-1,-1.825463E-1,-3.0582762E-1,-1.6286913E-1,-4.551785E-1,-9.568691E-2,-5.650318E-1,-4.9171022E-1,-5.349641E-1,-6.3940024E-1,-5.623975E-1,-6.301129E-1,-5.696639E-1,-6.487109E-1,-7.057482E-1],"categories":[],"categories_nodes":[],"categories_segments":[],"categories_sizes":[],"default_left":[0,0,0,0,0,0,0,0,0,0,0,0,0,0,0,0,0,0,0,0,0,0,0,0,0,0,0,0,0,0,0,0,0,0,0,0,0,0,0,0,0,0,0,0,0,0,0,0,0,0,0,0,0,0,0,0,0,0,0,0,0,0,0,0,0,0,0,0,0,0,0,0,0,0,0,0,0,0,0,0,0,0,0,0,0,0,0,0,0,0,0,0,0,0,0,0,0,0,0,0,0,0,0,0,0,0,0,0,0,0,0,0,0,0,0,0,0,0,0,0,0,0,0],"id":14,"left_children":[1,3,5,7,9,11,13,15,17,19,21,23,25,27,29,31,33,35,37,39,41,43,45,47,49,51,53,55,57,59,61,63,65,-1,67,69,71,73,75,77,79,-1,81,83,85,87,89,91,93,95,97,99,101,103,105,107,109,111,113,115,117,119,121,-1,-1,-1,-1,-1,-1,-1,-1,-1,-1,-1,-1,-1,-1,-1,-1,-1,-1,-1,-1,-1,-1,-1,-1,-1,-1,-1,-1,-1,-1,-1,-1,-1,-1,-1,-1,-1,-1,-1,-1,-1,-1,-1,-1,-1,-1,-1,-1,-1,-1,-1,-1,-1,-1,-1,-1,-1,-1,-1,-1],"loss_changes":[6.056791E6,3.5308725E5,8.5648125E5,7.50632E4,1.653925E5,3.1087306E5,2.471925E4,2.2951875E3,1.6992836E4,9.645E2,3.0278375E4,7.730564E4,5.064525E4,7.407547E3,1.677525E4,3.3404688E2,2.4496875E2,3.3033477E3,4.372771E3,1.876875E2,3.11E2,1.0893875E4,2.6634688E3,2.106921E4,1.747689E4,8.879906E3,1.0469125E4,1.5323711E3,9.629375E2,2.687375E3,1.964375E3,5.3863037E1,2.2199219E2,0E0,1.0898047E2,7.2480005E2,1.5710352E3,1.5491238E3,6.415459E2,5.2671875E1,9.891382E1,0E0,5.2265625E1,2.09875E3,2.7305625E3,1.3773047E3,2.2213516E3,2.8938677E3,3.127207E3,5.20503E3,5.19259E3,3.4486367E3,3.0886484E3,3.6575312E3,2.7150312E3,3.6175E2,8.766426E2,3.3014453E2,1.337539E2,1.45325E3,5.981875E2,8.1625E2,2.373125E2,0E0,0E0,0E0,0E0,0E0,0E0,0E0,0E0,0E0,0E0,0E0,0E0,0E0,0E0,0E0,0E0,0E0,0E0,0E0,0E0,0E0,0E0,0E0,0E0,0E0,0E0,0E0,0E0,0E0,0E0,0E0,0E0,0E0,0E0,0E0,0E0,0E0,0E0,0E0,0E0,0E0,0E0,0E0,0E0,0E0,0E0,0E0,0E0,0E0,0E0,0E0,0E0,0E0,0E0,0E0,0E0,0E0,0E0,0E0,0E0],"parents":[2147483647,0,0,1,1,2,2,3,3,4,4,5,5,6,6,7,7,8,8,9,9,10,10,11,11,12,12,13,13,14,14,15,15,16,16,17,17,18,18,19,19,20,20,21,21,22,22,23,23,24,24,25,25,26,26,27,27,28,28,29,29,30,30,31,31,32,32,34,34,35,35,36,36,37,37,38,38,39,39,40,40,42,42,43,43,44,44,45,45,46,46,47,47,48,48,49,49,50,50,51,51,52,52,53,53,54,54,55,55,56,56,57,57,58,58,59,59,60,60,61,61,62,62],"right_children":[2,4,6,8,10,12,14,16,18,20,22,24,26,28,30,32,34,36,38,40,42,44,46,48,50,52,54,56,58,60,62,64,66,-1,68,70,72,74,76,78,80,-1,82,84,86,88,90,92,94,96,98,100,102,104,106,108,110,112,114,116,118,120,122,-1,-1,-1,-1,-1,-1,-1,-1,-1,-1,-1,-1,-1,-1,-1,-1,-1,-1,-1,-1,-1,-1,-1,-1,-1,-1,-1,-1,-1,-1,-1,-1,-1,-1,-1,-1,-1,-1,-1,-1,-1,-1,-1,-1,-1,-1,-1,-1,-1,-1,-1,-1,-1,-1,-1,-1,-1,-1,-1,-1],"split_conditions":[5.46E1,1.582E2,8.58E1,2.99E1,3.05E1,1.095E2,1.1829E4,6E0,6.2E0,8.6E0,3.44E1,6.2E0,1.803E2,1.863E2,1.475E2,8E0,4.46E1,8.9E0,1.35E2,2.87E1,6.1E0,5.4E0,8.6E0,8.6E0,6.44E1,7.15E1,2.54E2,3.6E0,2.587E2,8.7E0,1.783E2,4.34E1,4.08E1,5.838778E-1,1.037E2,1.014E2,3.13E1,5.06E1,1.221E2,5.12E1,2.76E1,8.423161E-1,2.76E1,2.167E2,6E0,1.764E2,6.1E0,7.1E1,5.2E0,7.7E0,7.55E1,7.1E0,7.5E0,7.36E1,7.73E1,1.28E2,8.59E1,5.7E0,4.6E0,1.108E2,8E-1,1.9E0,1.993E2,1.5060703E-1,4.42129E-1,7.5175977E-1,6.044513E-1,4.1480115E-1,4.9160597E-1,1.4516217E-1,-4.8892956E-2,5.55145E-1,2.6359034E-1,1.2657867E-1,2.8431125E-2,-3.0931875E-1,-1.1184034E-1,7.7353495E-1,3.7098604E-1,8.6591944E-2,5.152674E-1,1.9537479E-1,7.4383426E-1,6.228775E-1,6.9865865E-1,5.5850613E-1,4.505444E-1,1.1386685E-1,3.5853925E-1,5.2667075E-1,3.7267804E-1,4.9840942E-2,-6.108095E-2,2.6772228E-1,1.6823404E-1,-5.6358784E-2,4.8571967E-2,-9.707234E-2,-1.8027379E-1,-1.8203954E-1,-8.129129E-2,-2.1326457E-1,-2.9274976E-1,-2.9338467E-1,-3.6933002E-1,-4.0352362E-1,-4.9962768E-1,-4.5996362E-1,-3.454925E-1,-1.825463E-1,-3.0582762E-1,-1.6286913E-1,-4.551785E-1,-9.568691E-2,-5.650318E-1,-4.9171022E-1,-5.349641E-1,-6.3940024E-1,-5.623975E-1,-6.301129E-1,-5.696639E-1,-6.487109E-1,-7.057482E-1],"split_indices":[5,2,5,8,8,8,6,4,4,7,5,4,8,8,8,7,5,7,8,8,4,4,7,7,5,5,8,7,8,4,8,5,5,0,2,8,5,8,2,5,0,0,0,2,4,2,4,5,4,7,5,7,4,5,5,2,8,4,4,8,7,7,8,0,0,0,0,0,0,0,0,0,0,0,0,0,0,0,0,0,0,0,0,0,0,0,0,0,0,0,0,0,0,0,0,0,0,0,0,0,0,0,0,0,0,0,0,0,0,0,0,0,0,0,0,0,0,0,0,0,0,0,0],"split_type":[0,0,0,0,0,0,0,0,0,0,0,0,0,0,0,0,0,0,0,0,0,0,0,0,0,0,0,0,0,0,0,0,0,0,0,0,0,0,0,0,0,0,0,0,0,0,0,0,0,0,0,0,0,0,0,0,0,0,0,0,0,0,0,0,0,0,0,0,0,0,0,0,0,0,0,0,0,0,0,0,0,0,0,0,0,0,0,0,0,0,0,0,0,0,0,0,0,0,0,0,0,0,0,0,0,0,0,0,0,0,0,0,0,0,0,0,0,0,0,0,0,0,0],"sum_hessian":[3.2041E4,1.015E4,2.1891E4,2.081E3,8.069E3,1.4569E4,7.322E3,5.62E2,1.519E3,3.992E3,4.077E3,7.468E3,7.101E3,8.59E2,6.463E3,3.09E2,2.53E2,8.24E2,6.95E2,2.95E2,3.697E3,3.261E3,8.16E2,2.573E3,4.895E3,3.522E3,3.579E3,5.09E2,3.5E2,4.339E3,2.124E3,1.6E1,2.93E2,3.5E1,2.18E2,1.74E2,6.5E2,6.32E2,6.3E1,2.87E2,8E0,3.601E3,9.6E1,2.248E3,1.013E3,4.42E2,3.74E2,1.06E3,1.513E3,1.7E3,3.195E3,1.722E3,1.8E3,2.358E3,1.221E3,1.47E2,3.62E2,2.01E2,1.49E2,3.481E3,8.58E2,1.28E3,8.44E2,2E0,1.4E1,2.9E1,2.64E2,8.7E1,1.31E2,1.55E2,1.9E1,1.7E1,6.33E2,2.24E2,4.08E2,2.6E1,3.7E1,2.84E2,3E0,1E0,7E0,1E0,9.5E1,1.728E3,5.2E2,6.48E2,3.65E2,2.3E1,4.19E2,2.05E2,1.69E2,7.69E2,2.91E2,3.86E2,1.127E3,8.42E2,8.58E2,2.222E3,9.73E2,1.321E3,4.01E2,8.77E2,9.23E2,1.207E3,1.151E3,7.68E2,4.53E2,6.8E1,7.9E1,7E1,2.92E2,5E0,1.96E2,1E0,1.48E2,1.425E3,2.056E3,1.88E2,6.7E2,7.94E2,4.86E2,4.98E2,3.46E2],"tree_param":{"num_deleted":"0","num_feature":"11","num_nodes":"123","size_leaf_vector":"1"}},{"base_weights":[4.383733E-2,1.9398603E1,-9.112539E0,2.2937853E1,9.372291E0,-4.812131E0,-1.761373E1,2.3779062E1,1.53156185E1,1.3178586E1,5.5447993E0,-7.2763815E0,1.360134E0,-1.1752872E1,-1.8179996E1,2.4606773E1,2.1867382E1,1.7969637E1,1.337752E1,1.8387825E1,1.1334799E1,-1.8653364E0,6.579772E0,-5.522232E0,-9.835186E0,4.852811E0,-1.5319222E0,-8.791458E0,-1.2800473E1,-1.7168774E1,-2.0161425E1,2.5711056E1,2.3557667E1,2.346262E1,1.9685524E1,1.6032017E1,2.1233704E1,9.5527115E0,1.4467953E1,1.3716076E1,2.1664095E1,6.6957116E0,1.2168825E1,-8.971274E-1,-7.516185E0,1.1222277E1,5.48166E0,-3.510497E0,-7.3000727E0,-8.370186E0,-1.1826998E1,9.772098E-1,6.2901373E0,1.3283512E-1,-4.62318E0,-9.127667E0,2.031618E0,-1.3114511E1,-6.6232233E0,-1.5715143E1,-1.7506119E1,-2.0913166E1,-1.8528988E1,6.648446E-1,7.8346556E-1,7.2178906E-1,6.0208476E-1,7.0734245E-1,4.2245018E-1,4.237683E-1,6.013479E-1,5.783932E-1,4.3087697E-1,6.800402E-1,5.0415313E-1,-9.09006E-3,3.0207556E-1,4.5574698E-1,3.559999E-1,6.5012324E-1,3.794388E-1,4.550452E-1,6.8221277E-1,-4.395992E-2,2.2375621E-1,4.0508252E-1,3.404233E-1,1.0321462E-1,-4.1952983E-2,-2.7262935E-1,-3.861578E-2,3.6409315E-1,2.784713E-1,6.842653E-3,1.8955891E-1,-8.276869E-2,-1.7807809E-1,-1.9053465E-1,-2.655147E-1,-1.5794912E-1,-2.6892483E-1,-3.1271848E-1,-4.0279067E-1,7.097432E-2,-3.5843536E-2,2.3040253E-1,1.5115085E-1,4.5130745E-2,-4.0614586E-2,-1.0366994E-1,-2.1558627E-1,-3.2124573E-1,-2.2969386E-1,-5.4264907E-2,1.3212149E-1,-3.3243784E-1,-4.1380736E-1,9.563633E-2,-2.2844897E-1,-4.782326E-1,-3.2753065E-1,-5.602504E-1,-5.1509285E-1,-6.2851715E-1,-2.9377797E-1,-5.106382E-1,-5.8038664E-1],"categories":[],"categories_nodes":[],"categories_segments":[],"categories_sizes":[],"default_left":[0,0,0,0,0,0,