{"learner":{"attributes":{"scikit_learn":"{\"_estimator_type\": \"regressor\"}"},"feature_names":["typing_speed","typing_accuracy","typing_latency","typing_errors","sleep_duration","sleep_quality","steps","screen_time","social_minutes","social_quality","question_affect"],"feature_types":["float","float","float","float","float","float","float","float","float","float","float"],"gradient_booster":{"model":{"cats":{"enc":[],"feature_segments":[],"sorted_idx":[]},"gbtree_model_param":{"num_parallel_tree":"1","num_trees":"300"},"iteration_indptr":[0,1,2,3,4,5,6,7,8,9,10,11,12,13,14,15,16,17,18,19,20,21,22,23,24,25,26,27,28,29,30,31,32,33,34,35,36,37,38,39,40,41,42,43,44,45,46,47,48,49,50,51,52,53,54,55,56,57,58,59,60,61,62,63,64,65,66,67,68,69,70,71,72,73,74,75,76,77,78,79,80,81,82,83,84,85,86,87,88,89,90,91,92,93,94,95,96,97,98,99,100,101,102,103,104,105,106,107,108,109,110,111,112,113,114,115,116,117,118,119,120,121,122,123,124,125,126,127,128,129,130,131,132,133,134,135,136,137,138,139,140,141,142,143,144,145,146,147,148,149,150,151,152,153,154,155,156,157,158,159,160,161,162,163,164,165,166,167,168,169,170,171,172,173,174,175,176,177,178,179,180,181,182,183,184,185,186,187,188,189,190,191,192,193,194,195,196,197,198,199,200,201,202,203,204,205,206,207,208,209,210,211,212,213,214,215,216,217,218,219,220,221,222,223,224,225,226,227,228,229,230,231,232,233,234,235,236,237,238,239,240,241,242,243,244,245,246,247,248,249,250,251,252,253,254,255,256,257,258,259,260,261,262,263,264,265,266,267,268,269,270,271,272,273,274,275,276,277,278,279,280,281,282,283,284,285,286,287,288,289,290,291,292,293,294,295,296,297,298,299,300],"tree_info":[0,0,0,0,0,0,0,0,0,0,0,0,0,0,0,0,0,0,0,0,0,0,0,0,0,0,0,0,0,0,0,0,0,0,0,0,0,0,0,0,0,0,0,0,0,0,0,0,0,0,0,0,0,0,0,0,0,0,0,0,0,0,0,0,0,0,0,0,0,0,0,0,0,0,0,0,0,0,0,0,0,0,0,0,0,0,0,0,0,0,0,0,0,0,0,0,0,0,0,0,0,0,0,0,0,0,0,0,0,0,0,0,0,0,0,0,0,0,0,0,0,0,0,0,0,0,0,0,0,0,0,0,0,0,0,0,0,0,0,0,0,0,0,0,0,0,0,0,0,0,0,0,0,0,0,0,0,0,0,0,0,0,0,0,0,0,0,0,0,0,0,0,0,0,0,0,0,0,0,0,0,0,0,0,0,0,0,0,0,0,0,0,0,0,0,0,0,0,0,0,0,0,0,0,0,0,0,0,0,0,0,0,0,0,0,0,0,0,0,0,0,0,0,0,0,0,0,0,0,0,0,0,0,0,0,0,0,0,0,0,0,0,0,0,0,0,0,0,0,0,0,0,0,0,0,0,0,0,0,0,0,0,0,0,0,0,0,0,0,0,0,0,0,0,0,0,0,0,0,0,0,0,0,0,0,0,0,0,0,0,0,0,0,0,0,0,0,0,0,0],"trees":[{"base_weights":[-1.2339002E-2,1.7861269E1,-2.3591145E1,3.4645367E1,9.815676E0,-1.6280344E1,-2.8918713E1,3.9994736E1,2.8878975E1,1.6513412E1,1.1236709E0,-1.020525E1,-2.1102419E1,-2.546395E1,-3.255006E1,1.2035722E0,3.48014E1,3.0611418E1,2.0606398E1,2.1990421E1,1.1999276E1,5.3671856E0,-3.6203146E0,-6.4656725E0,-1.7257921E1,-1.8465548E1,-2.7012915E1,-1.724778E1,-2.6351662E1,-3.1583174E1,-3.9544163E1,3.926181E-1,1.0558631E0,3.189811E1,2.6911572E1,2.2031078E1,1.4830598E1,2.41602E1,1.9026524E1,1.442879E1,6.350999E0,8.551459E0,2.8809156E0,-1.3988371E0,-9.622436E0,-4.536702E0,-9.462011E0,-1.2780783E1,-1.8004963E1,-1.5700055E1,-2.1289251E1,-2.5254625E1,-3.243105E1,-1.1786493E1,-1.8718718E1,-2.4081078E1,-2.7945578E1,-2.7229849E1,-3.317019E1,-3.7679134E1,-1.2719256E0,9.917754E-1,8.9907503E-1,8.510869E-1,7.6082605E-1,6.843146E-1,5.6184155E-1,4.799527E-1,2.8859726E-1,7.835999E-1,6.7444295E-1,6.2543947E-1,5.1724434E-1,4.7089627E-1,3.4661096E-1,2.61163E-1,1.1352615E-1,1.7718823E-1,3.2817954E-1,1.5694131E-1,1.8589342E-2,4.3173216E-2,-1.003429E-1,-2.0374122E-1,-3.799751E-1,-3.830471E-2,-1.6317853E-1,-1.9684213E-1,-3.2216704E-1,-4.2467022E-1,-2.3040378E-1,-5.5255455E-1,-4.2090088E-1,-4.1340086E-1,-5.611022E-1,-6.0410225E-1,-7.0826054E-1,-7.048591E-1,-8.467441E-1,-8.824055E-1,-1.0319366E0,-2.705102E-1,-4.9053937E-1,-4.8746246E-1,-6.1805534E-1,-6.7064524E-1,-7.503243E-1,-8.1296015E-1,-8.8753694E-1,-7.146727E-1,-8.939573E-1,-9.3907756E-1,-1.0348704E0,-9.985858E-1,-1.1681947E0],"categories":[],"categories_nodes":[],"categories_segments":[],"categories_sizes":[],"default_left":[0,0,0,0,0,0,0,0,0,0,0,0,0,0,0,0,0,0,0,0,0,0,0,0,0,0,0,0,0,0,0,0,0,0,0,0,0,0,0,0,0,0,0,0,0,0,0,0,0,0,0,0,0,0,0,0,0,0,0,0,0,0,0,0,0,0,0,0,0,0,0,0,0,0,0,0,0,0,0,0,0,0,0,0,0,0,0,0,0,0,0,0,0,0,0,0,0,0,0,0,0,0,0,0,0,0,0,0,0,0,0,0,0,0,0],"id":0,"left_children":[1,3,5,7,9,11,13,15,17,19,21,23,25,27,29,-1,31,33,35,37,39,41,43,45,47,49,51,53,55,57,59,-1,-1,61,63,65,67,69,71,73,75,77,79,81,83,85,87,89,91,93,95,97,99,101,103,105,107,109,111,113,-1,-1,-1,-1,-1,-1,-1,-1,-1,-1,-1,-1,-1,-1,-1,-1,-1,-1,-1,-1,-1,-1,-1,-1,-1,-1,-1,-1,-1,-1,-1,-1,-1,-1,-1,-1,-1,-1,-1,-1,-1,-1,-1,-1,-1,-1,-1,-1,-1,-1,-1,-1,-1,-1,-1],"loss_changes":[1.3482233E7,2.4569465E6,5.367895E5,1.807165E5,7.161639E5,1.7019112E5,9.9258E4,5.77E2,4.008575E4,1.7151812E5,1.0782186E5,6.782784E4,5.0028375E4,2.939825E4,2.503025E4,0E0,2.1532031E2,1.031475E4,3.7464688E3,1.9720875E4,5.2205062E4,2.2356625E4,3.3707156E4,9.696125E3,2.7532812E3,1.7196812E4,8.6885625E3,3.0087188E3,1.2689E4,2.2718E4,8.93E2,0E0,0E0,2.89725E3,6.641875E2,5.897031E2,4.6069922E2,5.36125E3,3.9681562E3,9.5286875E3,6.9048203E3,7.7613125E3,8.442341E3,1.0204742E4,5.79875E3,3.0148047E3,2.3703125E3,8.0996484E2,9.941094E2,6.3045312E3,2.4865E3,3.29775E3,4.1857812E2,9.6507324E2,1.1303984E3,1.8965E3,2.200625E3,7.3339375E3,5.1115E3,3.2096875E2,0E0,0E0,0E0,0E0,0E0,0E0,0E0,0E0,0E0,0E0,0E0,0E0,0E0,0E0,0E0,0E0,0E0,0E0,0E0,0E0,0E0,0E0,0E0,0E0,0E0,0E0,0E0,0E0,0E0,0E0,0E0,0E0,0E0,0E0,0E0,0E0,0E0,0E0,0E0,0E0,0E0,0E0,0E0,0E0,0E0,0E0,0E0,0E0,0E0,0E0,0E0,0E0,0E0,0E0,0E0],"parents":[2147483647,0,0,1,1,2,2,3,3,4,4,5,5,6,6,7,7,8,8,9,9,10,10,11,11,12,12,13,13,14,14,16,16,17,17,18,18,19,19,20,20,21,21,22,22,23,23,24,24,25,25,26,26,27,27,28,28,29,29,30,30,33,33,34,34,35,35,36,36,37,37,38,38,39,39,40,40,41,41,42,42,43,43,44,44,45,45,46,46,47,47,48,48,49,49,50,50,51,51,52,52,53,53,54,54,55,55,56,56,57,57,58,58,59,59],"right_children":[2,4,6,8,10,12,14,16,18,20,22,24,26,28,30,-1,32,34,36,38,40,42,44,46,48,50,52,54,56,58,60,-1,-1,62,64,66,68,70,72,74,76,78,80,82,84,86,88,90,92,94,96,98,100,102,104,106,108,110,112,114,-1,-1,-1,-1,-1,-1,-1,-1,-1,-1,-1,-1,-1,-1,-1,-1,-1,-1,-1,-1,-1,-1,-1,-1,-1,-1,-1,-1,-1,-1,-1,-1,-1,-1,-1,-1,-1,-1,-1,-1,-1,-1,-1,-1,-1,-1,-1,-1,-1,-1,-1,-1,-1,-1,-1],"split_conditions":[4E0,2E0,5E0,2.05E1,3E0,1.304E2,1.538E2,1.99E1,2.67E0,2.52E0,8.89E1,4.06E0,2.26E2,4.17E0,2.787E2,1.2035722E0,1.11E2,4.99E1,7.02E1,5.58E1,7.6E1,3.09E0,1.386E2,9.92E1,8.45E1,3.88E0,2.858E2,9.19E1,1.154E2,3.89E0,3.144E2,3.926181E-1,1.0558631E0,1.83E0,6.78E1,3.56E0,1.101E2,1.78E0,1.94E0,3.42E0,1.028E2,8.2E0,5.95E1,3.14E0,3.51E0,2.83E0,3.05E0,3.7E0,3.9E0,1.824E2,1.844E2,3.99E0,3.84E0,3.48E0,3.4E0,9.49E1,4.84E0,2.115E2,1.803E2,3.55E0,-1.2719256E0,9.917754E-1,8.9907503E-1,8.510869E-1,7.6082605E-1,6.843146E-1,5.6184155E-1,4.799527E-1,2.8859726E-1,7.835999E-1,6.7444295E-1,6.2543947E-1,5.1724434E-1,4.7089627E-1,3.4661096E-1,2.61163E-1,1.1352615E-1,1.7718823E-1,3.2817954E-1,1.5694131E-1,1.8589342E-2,4.3173216E-2,-1.003429E-1,-2.0374122E-1,-3.799751E-1,-3.830471E-2,-1.6317853E-1,-1.9684213E-1,-3.2216704E-1,-4.2467022E-1,-2.3040378E-1,-5.5255455E-1,-4.2090088E-1,-4.1340086E-1,-5.611022E-1,-6.0410225E-1,-7.0826054E-1,-7.048591E-1,-8.467441E-1,-8.824055E-1,-1.0319366E0,-2.705102E-1,-4.9053937E-1,-4.8746246E-1,-6.1805534E-1,-6.7064524E-1,-7.503243E-1,-8.1296015E-1,-8.8753694E-1,-7.146727E-1,-8.939573E-1,-9.3907756E-1,-1.0348704E0,-9.985858E-1,-1.1681947E0],"split_indices":[9,9,9,8,9,8,8,8,10,10,8,10,8,10,8,0,2,8,8,8,8,10,8,8,8,10,8,8,8,10,8,0,0,10,8,10,8,10,10,10,8,7,8,10,10,10,10,7,7,8,8,10,10,10,10,8,10,8,8,10,0,0,0,0,0,0,0,0,0,0,0,0,0,0,0,0,0,0,0,0,0,0,0,0,0,0,0,0,0,0,0,0,0,0,0,0,0,0,0,0,0,0,0,0,0,0,0,0,0,0,0,0,0,0,0],"split_type":[0,0,0,0,0,0,0,0,0,0,0,0,0,0,0,0,0,0,0,0,0,0,0,0,0,0,0,0,0,0,0,0,0,0,0,0,0,0,0,0,0,0,0,0,0,0,0,0,0,0,0,0,0,0,0,0,0,0,0,0,0,0,0,0,0,0,0,0,0,0,0,0,0,0,0,0,0,0,0,0,0,0,0,0,0,0,0,0,0,0,0,0,0,0,0,0,0,0,0,0,0,0,0,0,0,0,0,0,0,0,0,0,0,0,0],"sum_hessian":[3.1989E4,1.8196E4,1.3793E4,5.895E3,1.2301E4,5.816E3,7.977E3,3.055E3,2.84E3,6.947E3,5.354E3,2.575E3,3.241E3,4.092E3,3.885E3,2.977E3,7.8E1,2.346E3,4.94E2,3.137E3,3.81E3,2.826E3,2.528E3,1.684E3,8.91E2,2.244E3,9.97E2,4.01E2,3.691E3,3.418E3,4.67E2,2E0,7.6E1,1.735E3,6.11E2,3.94E2,1E2,1.807E3,1.33E3,2.663E3,1.147E3,1.238E3,1.588E3,1.846E3,6.82E2,1.026E3,6.58E2,1.3E2,7.61E2,1.137E3,1.107E3,7.57E2,2.4E2,8.7E1,3.14E2,1.529E3,2.162E3,9.18E2,2.5E3,2.91E2,1.76E2,1.073E3,6.62E2,3.06E2,3.05E2,3.14E2,8E1,8E1,2E1,8.27E2,9.8E2,6.53E2,6.77E2,1.845E3,8.18E2,5.97E2,5.5E2,5.89E2,6.49E2,7.78E2,8.1E2,7.51E2,1.095E3,3.55E2,3.27E2,2.23E2,8.03E2,2.03E2,4.55E2,1.01E2,2.9E1,6.86E2,7.5E1,6.97E2,4.4E2,7.46E2,3.61E2,4.81E2,2.76E2,1.01E2,1.39E2,5.6E1,3.1E1,1.4E2,1.74E2,5.44E2,9.85E2,1.437E3,7.25E2,3.99E2,5.19E2,1.048E3,1.452E3,7.1E1,2.2E2],"tree_param":{"num_deleted":"0","num_feature":"11","num_nodes":"115","size_leaf_vector":"1"}},{"base_weights":[8.7234005E-2,1.9203014E1,-1.7885572E1,9.11783E0,3.035983E1,-5.671205E0,-2.4371922E1,1.0769745E1,-1.9105177E1,3.869909E1,2.5631237E1,1.0944655E0,-1.9146793E1,-2.0232687E1,-2.8736006E1,2.8827517E1,8.565312E0,6.5598574E0,-1.9290855E1,3.8887867E1,9.873375E-1,2.7839016E1,2.1614378E1,1.7180826E1,-2.2612236E0,-1.4480849E1,-2.5373144E1,-8.572397E0,-2.4242365E1,-2.578507E1,-3.1753067E1,2.9227789E1,1.459351E1,1.2016256E1,4.0925474E0,3.1038013E-1,-7.1978755E-2,-5.106847E-1,-1.9779943E1,1.1670982E0,-1.3890552E-2,2.9271452E1,2.5824797E1,2.1975426E1,-4.7236934E-1,1.785406E1,2.9230518E0,-4.6988127E-1,-5.6021543E0,-1.1969007E1,-1.7135178E1,-2.2426449E1,-2.924394E1,-5.9000773E0,-1.3123431E1,-2.2380411E1,-2.5775043E1,-2.0919611E1,-3.0358887E1,-2.9448347E1,-3.3753635E1,9.4084764E-1,8.243482E-1,4.594547E-1,-4.089054E-2,3.9282846E-1,1.6121227E-1,2.0602712E-1,4.2009335E-2,-1.470888E-1,-5.9422255E-1,9.063966E-1,8.295176E-1,7.9284143E-1,6.035626E-1,7.0980763E-1,6.117163E-1,-1.1418186E-1,4.7733903E-2,5.7176864E-1,4.5715868E-1,1.4911859E-1,2.0783793E-2,1.0687542E-1,-3.894641E-2,-1.15664065E-1,-2.23775E-1,-2.934353E-1,-4.0886462E-1,-3.9971846E-1,-5.4216987E-1,-5.0746584E-1,-6.861306E-1,-8.1217474E-1,-9.7847784E-1,-8.454228E-2,-2.3335415E-1,-3.2352042E-1,-4.393194E-1,-6.7335373E-1,-1.9407243E-1,-7.415557E-1,-8.157752E-1,-5.6084675E-1,-7.145788E-1,-8.487499E-1,-1.0822686E0,-6.6188455E-1,-9.0357715E-1,-9.962664E-1,-1.2289356E0],"categories":[],"categories_nodes":[],"categories_segments":[],"categories_sizes":[],"default_left":[0,0,0,0,0,0,0,0,0,0,0,0,0,0,0,0,0,0,0,0,0,0,0,0,0,0,0,0,0,0,0,0,0,0,0,0,0,0,0,0,0,0,0,0,0,0,0,0,0,0,0,0,0,0,0,0,0,0,0,0,0,0,0,0,0,0,0,0,0,0,0,0,0,0,0,0,0,0,0,0,0,0,0,0,0,0,0,0,0,0,0,0,0,0,0,0,0,0,0,0,0,0,0,0,0,0,0,0,0,0,0],"id":1,"left_children":[1,3,5,7,9,11,13,15,17,19,21,23,25,27,29,31,33,35,37,39,-1,41,43,45,47,49,51,53,55,57,59,61,63,65,67,-1,-1,-1,69,-1,-1,71,73,75,77,79,81,83,85,87,89,91,93,95,97,99,101,103,105,107,109,-1,-1,-1,-1,-1,-1,-1,-1,-1,-1,-1,-1,-1,-1,-1,-1,-1,-1,-1,-1,-1,-1,-1,-1,-1,-1,-1,-1,-1,-1,-1,-1,-1,-1,-1,-1,-1,-1,-1,-1,-1,-1,-1,-1,-1,-1,-1,-1,-1,-1],"loss_changes":[1.1047995E7,1.7530995E6,1.3129645E6,3.8185338E5,2.907335E5,5.242565E5,1.94961E5,3.0762144E5,2.2852812E3,1.64275E3,4.1292E4,2.0673144E5,5.5470125E4,2.596975E5,4.60745E4,4.365125E3,1.0636147E5,1.6050572E2,1.6246875E2,1.58525E3,0E0,8.0295E3,1.34073125E4,6.292625E3,1.8963043E4,7.1355625E3,8.72E3,1.7241E4,1.122625E4,5.8738E4,1.0994E4,2.188125E3,3.0875E2,2.7792312E4,2.243332E4,0E0,0E0,0E0,5.1671875E1,0E0,0E0,1.869625E3,3.8536875E3,3.9315625E3,1.9867E2,1.6980469E3,1.3812115E2,6.898722E3,3.5586797E3,1.9329531E3,1.6629219E3,7.670625E2,1.694375E3,5.182588E3,1.7131641E3,1.7854375E3,2.715375E3,7.9151875E3,1.5205125E4,5.360625E3,4.080125E3,0E0,0E0,0E0,0E0,0E0,0E0,0E0,0E0,0E0,0E0,0E0,0E0,0E0,0E0,0E0,0E0,0E0,0E0,0E0,0E0,0E0,0E0,0E0,0E0,0E0,0E0,0E0,0E0,0E0,0E0,0E0,0E0,0E0,0E0,0E0,0E0,0E0,0E0,0E0,0E0,0E0,0E0,0E0,0E0,0E0,0E0,0E0,0E0,0E0,0E0],"parents":[2147483647,0,0,1,1,2,2,3,3,4,4,5,5,6,6,7,7,8,8,9,9,10,10,11,11,12,12,13,13,14,14,15,15,16,16,17,17,18,18,19,19,21,21,22,22,23,23,24,24,25,25,26,26,27,27,28,28,29,29,30,30,31,31,32,32,33,33,34,34,38,38,41,41,42,42,43,43,44,44,45,45,46,46,47,47,48,48,49,49,50,50,51,51,52,52,53,53,54,54,55,55,56,56,57,57,58,58,59,59,60,60],"right_children":[2,4,6,8,10,12,14,16,18,20,22,24,26,28,30,32,34,36,38,40,-1,42,44,46,48,50,52,54,56,58,60,62,64,66,68,-1,-1,-1,70,-1,-1,72,74,76,78,80,82,84,86,88,90,92,94,96,98,100,102,104,106,108,110,-1,-1,-1,-1,-1,-1,-1,-1,-1,-1,-1,-1,-1,-1,-1,-1,-1,-1,-1,-1,-1,-1,-1,-1,-1,-1,-1,-1,-1,-1,-1,-1,-1,-1,-1,-1,-1,-1,-1,-1,-1,-1,-1,-1,-1,-1,-1,-1,-1,-1],"split_conditions":[8.81E1,1.661E2,3.61E0,1.1829E4,2.05E1,1.487E2,1.512E2,1.99E1,6.95E1,1.99E1,4.86E1,4.84E1,2.115E2,1.1269E4,4.4E0,6.482E3,5.8E1,1.207E2,6.69E1,7.06E1,9.873375E-1,1.81E0,6.14E1,4.07E3,1.199E2,1.747E2,2.587E2,1.27E2,1.191E2,2.196E2,1.803E2,3.03E0,4.63E0,5.635E3,5.26E3,3.1038013E-1,-7.1978755E-2,-5.106847E-1,4.45E1,1.1670982E0,-1.3890552E-2,3.38E1,2.323E3,1.88E0,5.45E1,2.17E0,3.05E0,4.253E3,3.17E0,3.16E0,2.98E0,2.9E0,2.937E2,5.584E3,6.335E3,1.167E2,4.78E0,1.905E2,2.858E2,8.88E1,3.029E2,9.4084764E-1,8.243482E-1,4.594547E-1,-4.089054E-2,3.9282846E-1,1.6121227E-1,2.0602712E-1,4.2009335E-2,-1.470888E-1,-5.9422255E-1,9.063966E-1,8.295176E-1,7.9284143E-1,6.035626E-1,7.0980763E-1,6.117163E-1,-1.1418186E-1,4.7733903E-2,5.7176864E-1,4.5715868E-1,1.4911859E-1,2.0783793E-2,1.0687542E-1,-3.894641E-2,-1.15664065E-1,-2.23775E-1,-2.934353E-1,-4.0886462E-1,-3.9971846E-1,-5.4216987E-1,-5.0746584E-1,-6.861306E-1,-8.1217474E-1,-9.7847784E-1,-8.454228E-2,-2.3335415E-1,-3.2352042E-1,-4.393194E-1,-6.7335373E-1,-1.9407243E-1,-7.415557E-1,-8.157752E-1,-5.6084675E-1,-7.145788E-1,-8.487499E-1,-1.0822686E0,-6.6188455E-1,-9.0357715E-1,-9.962664E-1,-1.2289356E0],"split_indices":[8,2,10,6,8,8,8,8,5,8,8,5,8,6,10,6,8,2,8,0,0,10,5,6,8,8,8,8,8,8,8,10,10,6,6,0,0,0,0,0,0,8,6,10,0,10,10,6,10,10,10,10,8,6,6,2,10,8,8,5,8,0,0,0,0,0,0,0,0,0,0,0,0,0,0,0,0,0,0,0,0,0,0,0,0,0,0,0,0,0,0,0,0,0,0,0,0,0,0,0,0,0,0,0,0,0,0,0,0,0,0],"split_type":[0,0,0,0,0,0,0,0,0,0,0,0,0,0,0,0,0,0,0,0,0,0,0,0,0,0,0,0,0,0,0,0,0,0,0,0,0,0,0,0,0,0,0,0,0,0,0,0,0,0,0,0,0,0,0,0,0,0,0,0,0,0,0,0,0,0,0,0,0,0,0,0,0,0,0,0,0,0,0,0,0,0,0,0,0,0,0,0,0,0,0,0,0,0,0,0,0,0,0,0,0,0,0,0,0,0,0,0,0,0,0],"sum_hessian":[3.2155E4,1.5582E4,1.6573E4,8.185E3,7.397E3,5.749E3,1.0824E4,7.733E3,4.52E2,2.674E3,4.723E3,3.828E3,1.921E3,5.558E3,5.266E3,8.4E2,6.893E3,3E0,4.49E2,2.584E3,9E1,3.044E3,1.679E3,6.6E2,3.168E3,1.1E3,8.21E2,1.423E3,4.135E3,2.667E3,2.599E3,8.16E2,2.4E1,3.89E3,3.003E3,2E0,1E0,8.6E1,3.63E2,2.583E3,1E0,1.771E3,1.273E3,1.652E3,2.7E1,6.3E2,3E1,2.063E3,1.105E3,5.68E2,5.32E2,4.7E2,3.51E2,8.98E2,5.25E2,1.874E3,2.261E3,1.295E3,1.372E3,1.215E3,1.384E3,3.6E2,4.56E2,2.3E1,1E0,3.346E3,5.44E2,1.478E3,1.525E3,1E0,3.62E2,1.109E3,6.62E2,1.148E3,1.25E2,7.94E2,8.58E2,1E1,1.7E1,4.27E2,2.03E2,1.5E1,1.5E1,3.51E2,1.712E3,5.71E2,5.34E2,2.48E2,3.2E2,1.08E2,4.24E2,3.8E1,4.32E2,2.19E2,1.32E2,3.41E2,5.57E2,2.1E2,3.15E2,1.866E3,8E0,1.306E3,9.55E2,7.37E2,5.58E2,1.012E3,3.6E2,1.04E2,1.111E3,1.292E3,9.2E1],"tree_param":{"num_deleted":"0","num_feature":"11","num_nodes":"111","size_leaf_vector":"1"}},{"base_weights":[6.961203E-2,1.6998352E1,-2.2212395E1,3.2780296E1,9.364484E0,-1.5432177E1,-2.726865E1,3.768288E1,2.733314E1,1.5676086E1,1.1274164E0,-9.98962E0,-2.0068266E1,-2.4003424E1,-3.0691603E1,1.1339649E0,3.2864452E1,2.9108442E1,2.0305317E1,2.0616077E1,1.1540053E1,4.785076E0,-3.634035E0,-6.4922376E0,-1.617644E1,-1.757854E1,-2.539623E1,-1.6744877E1,-2.480336E1,-2.9762695E1,-3.7417595E1,9.965809E-1,3.7690917E-1,3.0431599E1,2.5786217E1,2.1668013E1,1.4652508E1,2.281817E1,1.7911196E1,1.380482E1,6.7284126E0,8.062604E0,2.576776E0,-1.4436655E0,-8.734416E0,-4.5503464E0,-9.316363E0,-1.6737856E1,-1.1620286E1,-1.4461189E1,-1.965684E1,-2.3335484E1,-2.922227E1,-1.3855111E1,-1.9298254E1,-2.2631685E1,-2.6315422E1,-2.6138391E1,-3.1501017E1,-1.0430571E0,-1.182788E0,9.37331E-1,8.437706E-1,7.033053E-1,8.144952E-1,7.141303E-1,6.00239E-1,4.8049402E-1,3.4143355E-1,7.3893034E-1,6.3621384E-1,4.4562685E-1,5.6170505E-1,4.519013E-1,3.2856104E-1,2.666207E-1,1.1732035E-1,1.6680916E-1,3.0195317E-1,1.5166879E-1,1.6503526E-2,4.060907E-2,-9.483858E-2,-1.8020785E-1,-3.509546E-1,-4.475837E-2,-1.6302939E-1,-2.0621127E-1,-3.3013397E-1,-4.2932013E-1,-5.234483E-1,-2.3093913E-1,-3.9131874E-1,-3.6547503E-1,-4.9584806E-1,-5.495007E-1,-6.555889E-1,-6.497652E-1,-7.8509146E-1,-8.3060724E-1,-9.8710454E-1,-3.1209138E-1,-4.8259935E-1,-5.2211803E-1,-6.2936413E-1,-6.099618E-1,-6.971821E-1,-7.6163155E-1,-8.326538E-1,-6.936538E-1,-8.604512E-1,-9.0190697E-1,-9.983442E-1],"categories":[],"categories_nodes":[],"categories_segments":[],"categories_sizes":[],"default_left":[0,0,0,0,0,0,0,0,0,0,0,0,0,0,0,0,0,0,0,0,0,0,0,0,0,0,0,0,0,0,0,0,0,0,0,0,0,0,0,0,0,0,0,0,0,0,0,0,0,0,0,0,0,0,0,0,0,0,0,0,0,0,0,0,0,0,0,0,0,0,0,0,0,0,0,0,0,0,0,0,0,0,0,0,0,0,0,0,0,0,0,0,0,0,0,0,0,0,0,0,0,0,0,0,0,0,0,0,0,0,0,0,0],"id":2,"left_children":[1,3,5,7,9,11,13,15,17,19,21,23,25,27,29,-1,31,33,35,37,39,41,43,45,47,49,51,53,55,57,59,-1,-1,61,63,65,67,69,71,73,75,77,79,81,83,85,87,89,91,93,95,97,99,101,103,105,107,109,111,-1,-1,-1,-1,-1,-1,-1,-1,-1,-1,-1,-1,-1,-1,-1,-1,-1,-1,-1,-1,-1,-1,-1,-1,-1,-1,-1,-1,-1,-1,-1,-1,-1,-1,-1,-1,-1,-1,-1,-1,-1,-1,-1,-1,-1,-1,-1,-1,-1,-1,-1,-1,-1,-1],"loss_changes":[1.2084936E7,2.193103E6,4.73775E5,1.57465E5,6.379924E5,1.4894688E5,8.7805E4,5.015E2,3.453025E4,1.417235E5,9.275636E4,5.8771094E4,4.188275E4,2.3153E4,2.302775E4,0E0,1.6624219E2,9.083875E3,4.0809688E3,1.844325E4,4.1142312E4,2.1779367E4,2.5838752E4,9.500023E3,2.317375E3,1.38265625E4,7.313E3,2.7283516E3,1.1403E4,2.059725E4,1.1034375E3,0E0,0E0,2.12E3,1.4271875E3,1.1479688E3,3.2638867E2,4.562375E3,3.2604062E3,9.0695E3,7.344324E3,6.0171953E3,9.045052E3,7.7878965E3,5.5484336E3,2.784629E3,2.8437578E3,1.2539062E3,5.194219E2,3.9200938E3,3.4375938E3,2.5885E3,1.0728438E3,1.3271094E3,3.1296875E2,1.6335E3,2.16425E3,7.837625E3,4.857E3,0E0,0E0,0E0,0E0,0E0,0E0,0E0,0E0,0E0,0E0,0E0,0E0,0E0,0E0,0E0,0E0,0E0,0E0,0E0,0E0,0E0,0E0,0E0,0E0,0E0,0E0,0E0,0E0,0E0,0E0,0E0,0E0,0E0,0E0,0E0,0E0,0E0,0E0,0E0,0E0,0E0,0E0,0E0,0E0,0E0,0E0,0E0,0E0,0E0,0E0,0E0,0E0,0E0,0E0],"parents":[2147483647,0,0,1,1,2,2,3,3,4,4,5,5,6,6,7,7,8,8,9,9,10,10,11,11,12,12,13,13,14,14,16,16,17,17,18,18,19,19,20,20,21,21,22,22,23,23,24,24,25,25,26,26,27,27,28,28,29,29,30,30,33,33,34,34,35,35,36,36,37,37,38,38,39,39,40,40,41,41,42,42,43,43,44,44,45,45,46,46,47,47,48,48,49,49,50,50,51,51,52,52,53,53,54,54,55,55,56,56,57,57,58,58],"right_children":[2,4,6,8,10,12,14,16,18,20,22,24,26,28,30,-1,32,34,36,38,40,42,44,46,48,50,52,54,56,58,60,-1,-1,62,64,66,68,70,72,74,76,78,80,82,84,86,88,90,92,94,96,98,100,102,104,106,108,110,112,-1,-1,-1,-1,-1,-1,-1,-1,-1,-1,-1,-1,-1,-1,-1,-1,-1,-1,-1,-1,-1,-1,-1,-1,-1,-1,-1,-1,-1,-1,-1,-1,-1,-1,-1,-1,-1,-1,-1,-1,-1,-1,-1,-1,-1,-1,-1,-1,-1,-1,-1,-1,-1,-1],"split_conditions":[4E0,2E0,5E0,2.05E1,3E0,1.331E2,1.538E2,1.99E1,2.5E0,2.52E0,9.28E1,4.06E0,2.26E2,4.17E0,2.787E2,1.1339649E0,7.2E1,4.79E1,7.18E1,5.42E1,7.28E1,3.05E0,1.386E2,9.92E1,3.9E0,3.7E0,2.727E2,1.162E2,1.154E2,4.03E0,3.89E0,9.965809E-1,3.7690917E-1,1.94E0,1.04E1,3.02E0,1.028E2,1.78E0,8.8E0,3.42E0,1.028E2,7.9E0,5.88E1,3.11E0,3.51E0,2.83E0,3.22E0,9.36E1,8.67E1,1.714E2,4.49E0,4.01E0,3.144E2,3.17E0,3.54E0,8.81E1,4.81E0,2.139E2,1.905E2,-1.0430571E0,-1.182788E0,9.37331E-1,8.437706E-1,7.033053E-1,8.144952E-1,7.141303E-1,6.00239E-1,4.8049402E-1,3.4143355E-1,7.3893034E-1,6.3621384E-1,4.4562685E-1,5.6170505E-1,4.519013E-1,3.2856104E-1,2.666207E-1,1.1732035E-1,1.6680916E-1,3.0195317E-1,1.5166879E-1,1.6503526E-2,4.060907E-2,-9.483858E-2,-1.8020785E-1,-3.509546E-1,-4.475837E-2,-1.6302939E-1,-2.0621127E-1,-3.3013397E-1,-4.2932013E-1,-5.234483E-1,-2.3093913E-1,-3.9131874E-1,-3.6547503E-1,-4.9584806E-1,-5.495007E-1,-6.555889E-1,-6.497652E-1,-7.8509146E-1,-8.3060724E-1,-9.8710454E-1,-3.1209138E-1,-4.8259935E-1,-5.2211803E-1,-6.2936413E-1,-6.099618E-1,-6.971821E-1,-7.6163155E-1,-8.326538E-1,-6.936538E-1,-8.604512E-1,-9.0190697E-1,-9.983442E-1],"split_indices":[9,9,9,8,9,8,8,8,10,10,8,10,8,10,8,0,0,8,8,8,8,10,8,8,7,10,8,8,8,10,10,0,0,10,7,10,8,10,7,10,8,7,8,10,10,10,10,8,8,8,10,10,8,10,10,8,10,8,8,0,0,0,0,0,0,0,0,0,0,0,0,0,0,0,0,0,0,0,0,0,0,0,0,0,0,0,0,0,0,0,0,0,0,0,0,0,0,0,0,0,0,0,0,0,0,0,0,0,0,0,0,0,0],"split_type":[0,0,0,0,0,0,0,0,0,0,0,0,0,0,0,0,0,0,0,0,0,0,0,0,0,0,0,0,0,0,0,0,0,0,0,0,0,0,0,0,0,0,0,0,0,0,0,0,0,0,0,0,0,0,0,0,0,0,0,0,0,0,0,0,0,0,0,0,0,0,0,0,0,0,0,0,0,0,0,0,0,0,0,0,0,0,0,0,0,0,0,0,0,0,0,0,0,0,0,0,0,0,0,0,0,0,0,0,0,0,0,0,0],"sum_hessian":[3.2036E4,1.8205E4,1.3831E4,5.934E3,1.2271E4,5.91E3,7.921E3,3.12E3,2.814E3,6.947E3,5.324E3,2.72E3,3.19E3,4.058E3,3.863E3,3.04E3,8E1,2.244E3,5.7E2,3.164E3,3.783E3,3.011E3,2.313E3,1.739E3,9.81E2,2.177E3,1.013E3,4.05E2,3.653E3,3.399E3,4.64E2,7.8E1,2E0,1.599E3,6.45E2,4.57E2,1.13E2,1.74E3,1.424E3,2.571E3,1.212E3,1.211E3,1.8E3,1.619E3,6.94E2,1.032E3,7.07E2,8.71E2,1.1E2,8.74E2,1.303E3,6.63E2,3.5E2,1.93E2,2.12E2,1.506E3,2.147E3,1.107E3,2.292E3,2.08E2,2.56E2,1.173E3,4.26E2,2.44E2,4.01E2,1.94E2,2.63E2,7.7E1,3.6E1,8.12E2,9.28E2,3.03E2,1.121E3,1.781E3,7.9E2,6.85E2,5.27E2,5.4E2,6.71E2,8.09E2,9.91E2,6.16E2,1.003E3,3.63E2,3.31E2,2.32E2,8E2,2.91E2,4.16E2,2.02E2,6.69E2,3.1E1,7.9E1,4.19E2,4.55E2,8.15E2,4.88E2,4.22E2,2.41E2,2.53E2,9.7E1,7.8E1,1.15E2,1.05E2,1.07E2,3.22E2,1.184E3,1.317E3,8.3E2,5.11E2,5.96E2,1.277E3,1.015E3],"tree_param":{"num_deleted":"0","num_feature":"11","num_nodes":"113","size_leaf_vector":"1"}},{"base_weights":[1.05716564E-1,1.6460651E1,-2.1493427E1,3.180105E1,9.025329E0,-1.48153925E1,-2.642351E1,3.6548645E1,2.661007E1,1.5189694E1,9.727839E-1,-1.1608662E1,-2.2051266E1,-2.3511696E1,-3.0109194E1,1.0999736E0,3.2218372E1,2.8119242E1,1.9040009E1,1.9698587E1,1.0803091E1,3.7313008E0,-4.9491463E0,-8.219497E0,-1.6904259E1,-2.0445833E1,-2.7836885E1,-1.602382E1,-2.4263752E1,-2.9174782E1,-3.60838E1,9.7592604E-1,3.6937103E-1,2.9009663E1,2.3928177E1,2.023201E1,1.3318776E1,2.176568E1,1.6990347E1,1.2852757E1,5.5322566E0,1.8239815E0,7.2643266E0,-2.5730886E0,-8.890253E0,-4.9686747E0,-1.1429836E1,-1.4779103E1,-1.829072E1,-1.7883595E1,-2.2113909E1,-2.6100113E1,-3.0629953E1,-1.2965942E1,-1.8735329E1,-2.2300095E1,-2.6169313E1,-2.5740042E1,-3.112643E1,-9.8086166E-1,-3.7684074E1,8.98072E-1,8.124216E-1,7.521567E-1,6.553589E-1,6.555671E-1,5.651568E-1,4.2853928E-1,2.908488E-1,6.8689495E-1,5.5675685E-1,5.32679E-1,3.70483E-1,4.2321983E-1,3.1553605E-1,1.992556E-1,3.5290282E-2,1.1494489E-1,-2.0786976E-2,2.951228E-1,1.4278613E-1,-2.4858896E-2,-1.5745345E-1,-2.207289E-1,-4.116612E-1,-9.988177E-2,-1.9337922E-1,-2.937336E-1,-3.987433E-1,-4.625983E-1,-3.0318427E-1,-4.9350888E-1,-5.764209E-1,-4.717858E-1,-5.8328265E-1,-6.265697E-1,-7.3145276E-1,-6.71453E-1,-8.146078E-1,-2.591641E-1,-9.217195E-1,-3.1008625E-1,-4.5364675E-1,-4.7011206E-1,-5.844377E-1,-6.1009824E-1,-6.942567E-1,-7.571433E-1,-8.3064973E-1,-6.875551E-1,-8.437197E-1,-8.8657445E-1,-9.7690564E-1,-1.0493013E0,-1.1835091E0],"categories":[],"categories_nodes":[],"categories_segments":[],"categories_sizes":[],"default_left":[0,0,0,0,0,0,0,0,0,0,0,0,0,0,0,0,0,0,0,0,0,0,0,0,0,0,0,0,0,0,0,0,0,0,0,0,0,0,0,0,0,0,0,0,0,0,0,0,0,0,0,0,0,0,0,0,0,0,0,0,0,0,0,0,0,0,0,0,0,0,0,0,0,0,0,0,0,0,0,0,0,0,0,0,0,0,0,0,0,0,0,0,0,0,0,0,0,0,0,0,0,0,0,0,0,0,0,0,0,0,0,0,0,0,0],"id":3,"left_children":[1,3,5,7,9,11,13,15,17,19,21,23,25,27,29,-1,31,33,35,37,39,41,43,45,47,49,51,53,55,57,59,-1,-1,61,63,65,67,69,71,73,75,77,79,81,83,85,87,89,91,93,95,97,99,101,103,105,107,109,111,-1,113,-1,-1,-1,-1,-1,-1,-1,-1,-1,-1,-1,-1,-1,-1,-1,-1,-1,-1,-1,-1,-1,-1,-1,-1,-1,-1,-1,-1,-1,-1,-1,-1,-1,-1,-1,-1,-1,-1,-1,-1,-1,-1,-1,-1,-1,-1,-1,-1,-1,-1,-1,-1,-1,-1],"loss_changes":[1.1310441E7,2.0780155E6,4.53851E5,1.456135E5,6.092523E5,1.35763E5,8.44615E4,3.935E2,3.1967375E4,1.3728888E5,8.6973625E4,7.280031E4,1.614075E4,2.4603E4,1.848125E4,0E0,1.593125E2,8.150125E3,2.9767344E3,1.8815125E4,3.8021875E4,2.4461379E4,1.5821516E4,2.5825094E4,4.39975E3,5.6394375E3,1.0827188E3,3.1399922E3,1.45E4,1.95165E4,1.3110625E3,0E0,0E0,2.67275E3,4.5520312E2,4.7334375E2,1.5902051E2,6.6108125E3,5.0678438E3,7.286125E3,4.772326E3,1.1926969E4,8.157758E3,4.9287275E3,4.6088086E3,2.9669316E3,3.6740156E3,1.7337656E3,1.30675E3,1.5846406E3,1.8612188E3,3.5589062E2,3.0296875E1,9.4909766E2,1.8396875E2,2.821875E3,2.18675E3,6.781375E3,3.39875E3,0E0,1.120625E2,0E0,0E0,0E0,0E0,0E0,0E0,0E0,0E0,0E0,0E0,0E0,0E0,0E0,0E0,0E0,0E0,0E0,0E0,0E0,0E0,0E0,0E0,0E0,0E0,0E0,0E0,0E0,0E0,0E0,0E0,0E0,0E0,0E0,0E0,0E0,0E0,0E0,0E0,0E0,0E0,0E0,0E0,0E0,0E0,0E0,0E0,0E0,0E0,0E0,0E0,0E0,0E0,0E0,0E0],"parents":[2147483647,0,0,1,1,2,2,3,3,4,4,5,5,6,6,7,7,8,8,9,9,10,10,11,11,12,12,13,13,14,14,16,16,17,17,18,18,19,19,20,20,21,21,22,22,23,23,24,24,25,25,26,26,27,27,28,28,29,29,30,30,33,33,34,34,35,35,36,36,37,37,38,38,39,39,40,40,41,41,42,42,43,43,44,44,45,45,46,46,47,47,48,48,49,49,50,50,51,51,52,52,53,53,54,54,55,55,56,56,57,57,58,58,60,60],"right_children":[2,4,6,8,10,12,14,16,18,20,22,24,26,28,30,-1,32,34,36,38,40,42,44,46,48,50,52,54,56,58,60,-1,-1,62,64,66,68,70,72,74,76,78,80,82,84,86,88,90,92,94,96,98,100,102,104,106,108,110,112,-1,114,-1,-1,-1,-1,-1,-1,-1,-1,-1,-1,-1,-1,-1,-1,-1,-1,-1,-1,-1,-1,-1,-1,-1,-1,-1,-1,-1,-1,-1,-1,-1,-1,-1,-1,-1,-1,-1,-1,-1,-1,-1,-1,-1,-1,-1,-1,-1,-1,-1,-1,-1,-1,-1,-1],"split_conditions":[4E0,2E0,5E0,2.05E1,3E0,1.824E2,1.606E2,1.99E1,2.67E0,2.65E0,1.067E2,4.03E0,2.675E2,3.94E0,2.787E2,1.0999736E0,7.2E1,6.03E1,7.6E1,5.58E1,7.85E1,8.6E0,1.408E2,1.101E2,1.154E2,3.7E0,3.029E2,1.207E2,1.223E2,4.09E0,3.79E0,9.7592604E-1,3.6937103E-1,1.91E0,2.01E0,3.14E0,1.101E2,3.49E1,5.12E1,3.4E0,1.248E2,3.3E0,3.08E0,3.41E0,1.884E2,3.19E0,3.42E0,3.9E0,4.51E0,2.139E2,4.27E0,3.55E0,5.67E1,3.17E0,3.1E0,9.63E1,4.83E0,2.169E2,1.884E2,-9.8086166E-1,3.029E2,8.98072E-1,8.124216E-1,7.521567E-1,6.553589E-1,6.555671E-1,5.651568E-1,4.2853928E-1,2.908488E-1,6.8689495E-1,5.5675685E-1,5.32679E-1,3.70483E-1,4.2321983E-1,3.1553605E-1,1.992556E-1,3.5290282E-2,1.1494489E-1,-2.0786976E-2,2.951228E-1,1.4278613E-1,-2.4858896E-2,-1.5745345E-1,-2.207289E-1,-4.116612E-1,-9.988177E-2,-1.9337922E-1,-2.937336E-1,-3.987433E-1,-4.625983E-1,-3.0318427E-1,-4.9350888E-1,-5.764209E-1,-4.717858E-1,-5.8328265E-1,-6.265697E-1,-7.3145276E-1,-6.71453E-1,-8.146078E-1,-2.591641E-1,-9.217195E-1,-3.1008625E-1,-4.5364675E-1,-4.7011206E-1,-5.844377E-1,-6.1009824E-1,-6.942567E-1,-7.571433E-1,-8.3064973E-1,-6.875551E-1,-8.437197E-1,-8.8657445E-1,-9.7690564E-1,-1.0493013E0,-1.1835091E0],"split_indices":[9,9,9,8,9,8,8,8,10,10,8,10,8,10,8,0,0,8,8,8,8,7,8,8,8,10,8,8,8,10,10,0,0,10,10,10,8,5,5,10,8,10,10,10,8,10,10,7,10,8,10,10,5,10,10,8,10,8,8,0,8,0,0,0,0,0,0,0,0,0,0,0,0,0,0,0,0,0,0,0,0,0,0,0,0,0,0,0,0,0,0,0,0,0,0,0,0,0,0,0,0,0,0,0,0,0,0,0,0,0,0,0,0,0,0],"split_type":[0,0,0,0,0,0,0,0,0,0,0,0,0,0,0,0,0,0,0,0,0,0,0,0,0,0,0,0,0,0,0,0,0,0,0,0,0,0,0,0,0,0,0,0,0,0,0,0,0,0,0,0,0,0,0,0,0,0,0,0,0,0,0,0,0,0,0,0,0,0,0,0,0,0,0,0,0,0,0,0,0,0,0,0,0,0,0,0,0,0,0,0,0,0,0,0,0,0,0,0,0,0,0,0,0,0,0,0,0,0,0,0,0,0,0],"sum_hessian":[3.2016E4,1.822E4,1.3796E4,5.947E3,1.2273E4,5.861E3,7.935E3,3.103E3,2.844E3,6.951E3,5.322E3,4.063E3,1.798E3,4.437E3,3.498E3,3.014E3,8.9E1,2.369E3,4.75E2,3.426E3,3.525E3,3.631E3,1.691E3,2.479E3,1.584E3,1.411E3,3.87E2,4.07E2,4.03E3,3.03E3,4.68E2,8.7E1,2E0,1.949E3,4.2E2,3.91E2,8.4E1,1.939E3,1.487E3,2.537E3,9.88E2,2.359E3,1.272E3,1.056E3,6.35E2,1.233E3,1.246E3,6.3E2,9.54E2,5.61E2,8.5E2,2.45E2,1.42E2,1.94E2,2.13E2,1.991E3,2.039E3,1.103E3,1.927E3,1.57E2,3.11E2,1.307E3,6.42E2,2.64E2,1.56E2,1.74E2,2.17E2,6.4E1,2E1,1.429E3,5.1E2,1.274E3,2.13E2,1.647E3,8.9E2,7.87E2,2.01E2,1.312E3,1.047E3,6.26E2,6.46E2,6.4E2,4.16E2,4.84E2,1.51E2,5.86E2,6.47E2,6.66E2,5.8E2,5.52E2,7.8E1,3.25E2,6.29E2,2.4E2,3.21E2,5.58E2,2.92E2,5.9E1,1.86E2,1E0,1.41E2,9E1,1.04E2,4.6E1,1.67E2,6.05E2,1.386E3,1.275E3,7.64E2,5.1E2,5.93E2,9.3E2,9.97E2,1.31E2,1.8E2],"tree_param":{"num_deleted":"0","num_feature":"11","num_nodes":"115","size_leaf_vector":"1"}},{"base_weights":[6.932162E-3,-1.5069773E1,1.950837E1,-4.4820437E0,-2.173483E1,2.6696774E1,9.9029255E0,1.033239E0,-1.7050014E1,-1.6004812E1,-2.5327524E1,3.5119705E1,2.2536238E1,1.1683404E1,-1.8242447E1,1.8768383E1,-1.23627685E-1,-1.2179979E1,-2.2928944E1,-4.643143E0,-2.0501938E1,-2.4245966E1,-3.1400032E1,3.5320465E1,2.875152E1,2.5377588E1,1.8494694E1,2.750955E1,9.5655775E0,-1.2028966E1,-2.2813133E1,2.230366E1,6.0569763E0,5.410515E0,-2.1254778E0,-1.00571165E1,-1.4825397E1,-2.0510942E1,-2.7086512E1,-2.031122E0,-7.8196974E0,-1.7977058E1,-2.1115307E1,-2.0287464E1,-2.6980177E1,-2.9201975E1,-1.049966E0,1.0647421E0,9.2028385E-1,8.7758183E-1,3.34906E-1,2.611875E1,2.1674248E1,2.1056376E1,1.631102E1,2.8450357E1,2.3232706E1,1.1674028E1,4.174322E0,-6.674199E0,-1.4487709E1,-1.9892252E1,-2.5225285E1,1.0438164E0,5.783362E-1,2.5702152E-1,3.9203696E-2,5.4380035E-1,1.3662806E-1,-1.1903794E-2,-1.4689337E-1,-1.775838E-1,-3.2750317E-1,-3.71291E-1,-4.7519472E-1,-4.881824E-1,-6.3543E-1,-7.553842E-1,-9.075553E-1,-1.08153254E-1,4.0220562E-2,-1.904135E-1,-3.2434997E-1,-4.7262463E-1,-5.55007E-1,-6.0298175E-1,-6.647789E-1,-5.253737E-1,-7.137993E-1,-7.338134E-1,-8.7929004E-1,-8.2179993E-1,-9.3967855E-1,8.223717E-1,7.382896E-1,6.916942E-1,5.493821E-1,6.6773707E-1,5.517926E-1,5.2139086E-1,3.8185835E-1,8.9434177E-1,7.8580016E-1,7.1572536E-1,2.0593338E-1,4.1101292E-1,2.9144534E-1,9.93204E-2,4.129728E-1,-3.036835E-1,-5.474898E-2,-2.4291363E-1,-4.8021147E-1,-2.3635273E-1,-6.097278E-1,-7.606502E-1,-1.7017588E-1],"categories":[],"categories_nodes":[],"categories_segments":[],"categories_sizes":[],"default_left":[0,0,0,0,0,0,0,0,0,0,0,0,0,0,0,0,0,0,0,0,0,0,0,0,0,0,0,0,0,0,0,0,0,0,0,0,0,0,0,0,0,0,0,0,0,0,0,0,0,0,0,0,0,0,0,0,0,0,0,0,0,0,0,0,0,0,0,0,0,0,0,0,0,0,0,0,0,0,0,0,0,0,0,0,0,0,0,0,0,0,0,0,0,0,0,0,0,0,0,0,0,0,0,0,0,0,0,0,0,0,0,0,0,0,0,0,0],"id":4,"left_children":[1,3,5,7,9,11,13,15,17,19,21,23,25,27,29,31,33,35,37,39,41,43,45,47,49,51,53,55,57,59,61,63,65,67,69,71,73,75,77,79,81,83,85,87,89,91,-1,-1,-1,-1,-1,93,95,97,99,101,103,105,107,109,111,113,115,-1,-1,-1,-1,-1,-1,-1,-1,-1,-1,-1,-1,-1,-1,-1,-1,-1,-1,-1,-1,-1,-1,-1,-1,-1,-1,-1,-1,-1,-1,-1,-1,-1,-1,-1,-1,-1,-1,-1,-1,-1,-1,-1,-1,-1,-1,-1,-1,-1,-1,-1,-1,-1,-1],"loss_changes":[9.413554E6,1.274146E6,9.63643E5,4.8363462E5,2.2771E5,2.789995E5,2.99734E5,9.951073E4,6.0646625E4,2.18233E5,4.39585E4,2.3575E3,6.09325E4,1.8816956E5,9.8359375E3,1.3211586E4,5.0463098E4,6.3989688E3,9.1255E3,1.0048654E4,4.361E3,6.205525E4,7.094E3,9.38E2,4.3154688E2,8.04425E3,1.20245625E4,2.0067188E3,5.633253E4,1.9177031E3,9.355078E2,8.097164E3,7.758479E2,1.3092117E4,1.6021041E4,2.2474062E3,1.0883828E3,1.3961562E3,1.3570625E3,3.544722E3,2.341414E3,4.12125E2,2.1605E3,2.2611312E4,1.934575E4,1.60825E3,0E0,0E0,0E0,0E0,0E0,4.418875E3,2.0357031E3,2.8354062E3,4.36525E3,8.74875E2,1.1146172E3,1.4020281E4,1.1518291E4,8.1767554E2,8.801738E2,3.433164E2,1.3010938E2,0E0,0E0,0E0,0E0,0E0,0E0,0E0,0E0,0E0,0E0,0E0,0E0,0E0,0E0,0E0,0E0,0E0,0E0,0E0,0E0,0E0,0E0,0E0,0E0,0E0,0E0,0E0,0E0,0E0,0E0,0E0,0E0,0E0,0E0,0E0,0E0,0E0,0E0,0E0,0E0,0E0,0E0,0E0,0E0,0E0,0E0,0E0,0E0,0E0,0E0,0E0,0E0,0E0,0E0],"parents":[2147483647,0,0,1,1,2,2,3,3,4,4,5,5,6,6,7,7,8,8,9,9,10,10,11,11,12,12,13,13,14,14,15,15,16,16,17,17,18,18,19,19,20,20,21,21,22,22,23,23,24,24,25,25,26,26,27,27,28,28,29,29,30,30,31,31,32,32,33,33,34,34,35,35,36,36,37,37,38,38,39,39,40,40,41,41,42,42,43,43,44,44,45,45,51,51,52,52,53,53,54,54,55,55,56,56,57,57,58,58,59,59,60,60,61,61,62,62],"right_children":[2,4,6,8,10,12,14,16,18,20,22,24,26,28,30,32,34,36,38,40,42,44,46,48,50,52,54,56,58,60,62,64,66,68,70,72,74,76,78,80,82,84,86,88,90,92,-1,-1,-1,-1,-1,94,96,98,100,102,104,106,108,110,112,114,116,-1,-1,-1,-1,-1,-1,-1,-1,-1,-1,-1,-1,-1,-1,-1,-1,-1,-1,-1,-1,-1,-1,-1,-1,-1,-1,-1,-1,-1,-1,-1,-1,-1,-1,-1,-1,-1,-1,-1,-1,-1,-1,-1,-1,-1,-1,-1,-1,-1,-1,-1,-1,-1,-1],"split_conditions":[7.6E0,3.66E0,2.5E0,1.418E2,1.286E2,2.05E1,1.418E2,2.11E0,2.017E2,1.1269E4,2.501E2,7.1E1,2E3,1.99E1,1.971E2,5.54E1,7.02E1,1.68E2,2.587E2,9.56E1,9.28E1,4.51E0,2.937E2,1.99E1,1.94E1,4.86E1,1.94E0,3.55E0,7.1E1,3.37E0,2.353E2,1.94E1,1.007E2,1.99E1,1.101E2,2.84E0,3.14E0,3.03E0,2.937E2,6.4E0,4.06E0,7.18E1,4.72E0,1.927E2,1.577E2,4.15E0,-1.049966E0,1.0647421E0,9.2028385E-1,8.7758183E-1,3.34906E-1,1.73E0,6.54E1,8.28E1,5.43E1,7.99E1,4.48E0,3.14E0,1.26E1,9.19E1,1.524E2,3.03E0,9.9E0,1.0438164E0,5.783362E-1,2.5702152E-1,3.9203696E-2,5.4380035E-1,1.3662806E-1,-1.1903794E-2,-1.4689337E-1,-1.775838E-1,-3.2750317E-1,-3.71291E-1,-4.7519472E-1,-4.881824E-1,-6.3543E-1,-7.553842E-1,-9.075553E-1,-1.08153254E-1,4.0220562E-2,-1.904135E-1,-3.2434997E-1,-4.7262463E-1,-5.55007E-1,-6.0298175E-1,-6.647789E-1,-5.253737E-1,-7.137993E-1,-7.338134E-1,-8.7929004E-1,-8.2179993E-1,-9.3967855E-1,8.223717E-1,7.382896E-1,6.916942E-1,5.493821E-1,6.6773707E-1,5.517926E-1,5.2139086E-1,3.8185835E-1,8.9434177E-1,7.8580016E-1,7.1572536E-1,2.0593338E-1,4.1101292E-1,2.9144534E-1,9.93204E-2,4.129728E-1,-3.036835E-1,-5.474898E-2,-2.4291363E-1,-4.8021147E-1,-2.3635273E-1,-6.097278E-1,-7.606502E-1,-1.7017588E-1],"split_indices":[7,10,10,8,8,8,8,10,8,6,8,0,6,8,8,5,8,8,8,8,8,10,8,8,8,8,10,10,8,10,8,8,8,8,8,10,10,10,8,7,10,8,10,8,8,10,0,0,0,0,0,10,8,8,5,0,10,10,7,1,8,10,7,0,0,0,0,0,0,0,0,0,0,0,0,0,0,0,0,0,0,0,0,0,0,0,0,0,0,0,0,0,0,0,0,0,0,0,0,0,0,0,0,0,0,0,0,0,0,0,0,0,0,0,0,0,0],"split_type":[0,0,0,0,0,0,0,0,0,0,0,0,0,0,0,0,0,0,0,0,0,0,0,0,0,0,0,0,0,0,0,0,0,0,0,0,0,0,0,0,0,0,0,0,0,0,0,0,0,0,0,0,0,0,0,0,0,0,0,0,0,0,0,0,0,0,0,0,0,0,0,0,0,0,0,0,0,0,0,0,0,0,0,0,0,0,0,0,0,0,0,0,0,0,0,0,0,0,0,0,0,0,0,0,0,0,0,0,0,0,0,0,0,0,0,0,0],"sum_hessian":[3.2015E4,1.8056E4,1.3959E4,6.976E3,1.108E4,7.983E3,5.976E3,4.849E3,2.127E3,4.272E3,6.808E3,2.637E3,5.346E3,5.621E3,3.55E2,2.96E2,4.553E3,1.165E3,9.62E2,1.212E3,3.06E3,5.783E3,1.025E3,2.552E3,8.5E1,3.136E3,2.21E3,6.62E2,4.959E3,1.52E2,2.03E2,2.31E2,6.5E1,1.209E3,3.344E3,6.49E2,5.16E2,6.12E2,3.5E2,6.66E2,5.46E2,6.04E2,2.456E3,2.366E3,3.417E3,6.42E2,3.83E2,2.455E3,9.7E1,8.2E1,3E0,2.608E3,5.28E2,1.013E3,1.197E3,5.38E2,1.24E2,3.564E3,1.395E3,4.9E1,1.03E2,9.6E1,1.07E2,4.3E1,1.88E2,4.2E1,2.3E1,7.5E1,1.134E3,2.06E3,1.284E3,1.13E2,5.36E2,1.55E2,3.61E2,8.7E1,5.25E2,2.24E2,1.26E2,4.54E2,2.12E2,3.68E2,1.78E2,1.21E2,4.83E2,1.255E3,1.201E3,1.324E3,1.042E3,1.647E3,1.77E3,3.54E2,2.88E2,1.395E3,1.213E3,3.7E2,1.58E2,6.93E2,3.2E2,9.19E2,2.78E2,3.28E2,2.1E2,1.19E2,5E0,1.749E3,1.815E3,1.281E3,1.14E2,2.8E1,2.1E1,2.1E1,8.2E1,4E0,9.2E1,1.06E2,1E0],"tree_param":{"num_deleted":"0","num_feature":"11","num_nodes":"117","size_leaf_vector":"1"}},{"base_weights":[-2.135584E-3,-1.463985E1,1.8793522E1,-4.2855587E0,-2.1038696E1,9.729243E0,2.615641E1,6.347925E-1,-1.7279469E1,-1.5508621E1,-2.4510492E1,1.1416844E1,-1.7500593E1,3.4266376E1,2.2148726E1,-4.183467E-1,2.064611E1,-1.2946315E1,-2.2695974E1,-4.507482E0,-1.9835655E1,-2.3458326E1,-3.057605E1,2.6374859E1,9.319263E0,-1.1268409E1,-2.1785347E1,3.443735E1,8.7385887E-1,2.4005848E1,1.693094E1,3.186909E0,-3.3320243E0,3.0386879E1,1.7410147E1,-1.0630282E1,-1.5662307E1,-2.1335361E1,-2.8433958E1,-2.4243097E0,-7.9498844E0,-1.7624033E1,-2.059605E1,-1.9540407E1,-2.6105915E1,-2.8758392E1,-1.0363342E0,2.6501541E1,6.6928353E0,1.1374985E1,3.6537542E0,-7.0902977E0,-1.3916196E1,-1.8795229E1,-2.4322077E1,1.0333178E0,2.7262104E-1,2.5386572E1,2.1730898E1,1.7211443E1,-6.3400607E0,5.567071E-1,7.938964E-2,-5.1297486E-2,-1.7212518E-1,1.009383E0,7.188098E-1,5.327715E-1,2.8465757E-2,-2.873501E-1,-3.9501095E-1,-3.4748277E-1,-4.9701244E-1,-5.8162844E-1,-6.8272793E-1,-2.9016814E-1,-8.583747E-1,-1.233198E-1,3.0152377E-2,-1.9114287E-1,-3.446917E-1,-5.352946E-1,-1.2283297E-1,-5.8204156E-1,-6.5193284E-1,-5.041911E-1,-6.9526404E-1,-7.243228E-1,-8.6925364E-1,-8.061911E-1,-9.1894084E-1,7.958625E-1,1.02450654E-1,5.2726744E-3,2.972231E-1,4.1010916E-1,2.8671825E-1,1.74173E-1,2.757267E-2,-3.4120053E-1,-1.0063618E-1,-1.7750719E-1,-4.4458684E-1,-4.496067E-1,-6.1292684E-1,-1.517565E-1,-7.3343354E-1,7.9658026E-1,7.010433E-1,6.837893E-1,5.855717E-1,5.647219E-1,4.6445423E-1,6.8039104E-2,-4.273092E-1],"categories":[],"categories_nodes":[],"categories_segments":[],"categories_sizes":[],"default_left":[0,0,0,0,0,0,0,0,0,0,0,0,0,0,0,0,0,0,0,0,0,0,0,0,0,0,0,0,0,0,0,0,0,0,0,0,0,0,0,0,0,0,0,0,0,0,0,0,0,0,0,0,0,0,0,0,0,0,0,0,0,0,0,0,0,0,0,0,0,0,0,0,0,0,0,0,0,0,0,0,0,0,0,0,0,0,0,0,0,0,0,0,0,0,0,0,0,0,0,0,0,0,0,0,0,0,0,0,0,0,0,0,0,0,0],"id":5,"left_children":[1,3,5,7,9,11,13,15,17,19,21,23,25,27,29,31,33,35,37,39,41,43,45,47,49,51,53,55,-1,57,59,61,63,65,67,69,71,73,75,77,79,81,83,85,87,89,-1,91,93,95,97,99,101,103,105,-1,-1,107,109,111,113,-1,-1,-1,-1,-1,-1,-1,-1,-1,-1,-1,-1,-1,-1,-1,-1,-1,-1,-1,-1,-1,-1,-1,-1,-1,-1,-1,-1,-1,-1,-1,-1,-1,-1,-1,-1,-1,-1,-1,-1,-1,-1,-1,-1,-1,-1,-1,-1,-1,-1,-1,-1,-1,-1],"loss_changes":[8.829052E6,1.1952252E6,9.374325E5,4.4064825E5,2.136925E5,2.8965844E5,2.511975E5,1.0538216E5,4.4135938E4,2.0474331E5,4.298675E4,1.8587444E5,9.581367E3,1.24775E3,4.989475E4,4.9917746E4,7.3511562E3,6.4635E3,5.9513438E3,8.700807E3,4.830125E3,6.00685E4,6.284625E3,1.6402812E3,6.0567906E4,1.5828652E3,1.1888281E3,9.95E1,0E0,1.1466E4,9.02575E3,1.759885E4,1.0244521E4,4.715078E2,1.0743984E3,1.4002734E3,1.5908984E3,1.4508125E3,2.525E2,4.393544E3,2.4858574E3,2.2897188E3,2.6863125E3,2.3055125E4,1.89E4,1.6416875E3,0E0,3.641875E2,1.2395758E2,1.5798969E4,8.157205E3,9.378755E2,5.771328E2,3.4164062E2,1.5239062E2,0E0,0E0,4.969625E3,2.966125E3,3.4740312E3,1.1888866E3,0E0,0E0,0E0,0E0,0E0,0E0,0E0,0E0,0E0,0E0,0E0,0E0,0E0,0E0,0E0,0E0,0E0,0E0,0E0,0E0,0E0,0E0,0E0,0E0,0E0,0E0,0E0,0E0,0E0,0E0,0E0,0E0,0E0,0E0,0E0,0E0,0E0,0E0,0E0,0E0,0E0,0E0,0E0,0E0,0E0,0E0,0E0,0E0,0E0,0E0,0E0,0E0,0E0,0E0],"parents":[2147483647,0,0,1,1,2,2,3,3,4,4,5,5,6,6,7,7,8,8,9,9,10,10,11,11,12,12,13,13,14,14,15,15,16,16,17,17,18,18,19,19,20,20,21,21,22,22,23,23,24,24,25,25,26,26,27,27,29,29,30,30,31,31,32,32,33,33,34,34,35,35,36,36,37,37,38,38,39,39,40,40,41,41,42,42,43,43,44,44,45,45,47,47,48,48,49,49,50,50,51,51,52,52,53,53,54,54,57,57,58,58,59,59,60,60],"right_children":[2,4,6,8,10,12,14,16,18,20,22,24,26,28,30,32,34,36,38,40,42,44,46,48,50,52,54,56,-1,58,60,62,64,66,68,70,72,74,76,78,80,82,84,86,88,90,-1,92,94,96,98,100,102,104,106,-1,-1,108,110,112,114,-1,-1,-1,-1,-1,-1,-1,-1,-1,-1,-1,-1,-1,-1,-1,-1,-1,-1,-1,-1,-1,-1,-1,-1,-1,-1,-1,-1,-1,-1,-1,-1,-1,-1,-1,-1,-1,-1,-1,-1,-1,-1,-1,-1,-1,-1,-1,-1,-1,-1,-1,-1,-1,-1],"split_conditions":[7.6E0,3.65E0,1.608E2,1.487E2,1.286E2,1.418E2,2.05E1,1.806E2,2.115E2,8.88E1,2.501E2,1.99E1,1.95E2,1.99E1,6.54E1,8.89E1,3.56E1,1.766E2,2.858E2,1.007E2,9.63E1,4.49E0,3.029E2,4.48E0,7.02E1,3.44E0,2.325E2,7.17E1,8.7385887E-1,1.89E0,5.69E1,2.1E1,1.185E2,1.94E1,5.86E1,3.43E0,5.14E1,2.386E2,5.67E1,6.4E0,4.06E0,1.17E2,4.71E0,1.95E2,1.68E2,4.12E0,-1.0363342E0,9.81E1,9.1E0,3.05E0,9.63E1,9.12E1,1.475E2,3.59E0,7.31E1,1.0333178E0,2.7262104E-1,3.86E1,4.52E1,1.98E0,9.63E1,5.567071E-1,7.938964E-2,-5.1297486E-2,-1.7212518E-1,1.009383E0,7.188098E-1,5.327715E-1,2.8465757E-2,-2.873501E-1,-3.9501095E-1,-3.4748277E-1,-4.9701244E-1,-5.8162844E-1,-6.8272793E-1,-2.9016814E-1,-8.583747E-1,-1.233198E-1,3.0152377E-2,-1.9114287E-1,-3.446917E-1,-5.352946E-1,-1.2283297E-1,-5.8204156E-1,-6.5193284E-1,-5.041911E-1,-6.9526404E-1,-7.243228E-1,-8.6925364E-1,-8.061911E-1,-9.1894084E-1,7.958625E-1,1.02450654E-1,5.2726744E-3,2.972231E-1,4.1010916E-1,2.8671825E-1,1.74173E-1,2.757267E-2,-3.4120053E-1,-1.0063618E-1,-1.7750719E-1,-4.4458684E-1,-4.496067E-1,-6.1292684E-1,-1.517565E-1,-7.3343354E-1,7.9658026E-1,7.010433E-1,6.837893E-1,5.855717E-1,5.647219E-1,4.6445423E-1,6.8039104E-2,-4.273092E-1],"split_indices":[7,10,2,8,8,8,8,2,8,5,8,8,8,8,8,8,8,8,8,8,8,10,8,10,8,10,8,0,0,10,5,8,8,8,5,10,0,8,5,7,10,2,10,8,8,10,0,1,7,10,8,1,8,10,2,0,0,8,8,10,8,0,0,0,0,0,0,0,0,0,0,0,0,0,0,0,0,0,0,0,0,0,0,0,0,0,0,0,0,0,0,0,0,0,0,0,0,0,0,0,0,0,0,0,0,0,0,0,0,0,0,0,0,0,0],"split_type":[0,0,0,0,0,0,0,0,0,0,0,0,0,0,0,0,0,0,0,0,0,0,0,0,0,0,0,0,0,0,0,0,0,0,0,0,0,0,0,0,0,0,0,0,0,0,0,0,0,0,0,0,0,0,0,0,0,0,0,0,0,0,0,0,0,0,0,0,0,0,0,0,0,0,0,0,0,0,0,0,0,0,0,0,0,0,0,0,0,0,0,0,0,0,0,0,0,0,0,0,0,0,0,0,0,0,0,0,0,0,0,0,0,0,0],"sum_hessian":[3.2089E4,1.804E4,1.4049E4,6.891E3,1.1149E4,6.298E3,7.751E3,4.999E3,1.892E3,4.302E3,6.847E3,5.931E3,3.67E2,2.561E3,5.19E3,4.75E3,2.49E2,1.053E3,8.39E2,1.215E3,3.087E3,5.839E3,1.008E3,7.28E2,5.203E3,1.51E2,2.16E2,2.473E3,8.8E1,3.825E3,1.365E3,2.123E3,2.627E3,6E1,1.89E2,5.71E2,4.82E2,6.82E2,1.57E2,7.58E2,4.57E2,7.96E2,2.291E3,2.358E3,3.481E3,6.97E2,3.11E2,7.23E2,5E0,3.817E3,1.386E3,6E1,9.1E1,1.03E2,1.13E2,2.472E3,1E0,2.374E3,1.451E3,1.349E3,1.6E1,7.1E1,2.052E3,1.57E3,1.057E3,3.7E1,2.3E1,1.85E2,4E0,4.07E2,1.64E2,9E1,3.92E2,2.94E2,3.88E2,2E0,1.55E2,5.08E2,2.5E2,3.18E2,1.39E2,7.83E2,1.3E1,1.125E3,1.166E3,1.349E3,1.009E3,2.073E3,1.408E3,3.55E2,3.42E2,7.22E2,1E0,2E0,3E0,1.684E3,2.133E3,7.75E2,6.11E2,2.7E1,3.3E1,1E1,8.1E1,3.4E1,6.9E1,1E0,1.12E2,1.497E3,8.77E2,9.74E2,4.77E2,6.93E2,6.56E2,8E0,8E0],"tree_param":{"num_deleted":"0","num_feature":"11","num_nodes":"115","size_leaf_vector":"1"}},{"base_weights":[-4.8305687E-2,1.5011568E1,-1.9838158E1,2.9130064E1,8.23891E0,-1.3695913E1,-2.4359526E1,3.3448933E1,2.4411833E1,1.3881504E1,8.5857785E-1,-9.65539E0,-1.8424782E1,-2.1621742E1,-2.7659414E1,1.0063477E0,2.9551493E1,2.6028818E1,1.9107393E1,1.857998E1,1.0730387E1,4.285159E0,-2.7855809E0,-6.993476E0,-1.5098482E1,-1.5979553E1,-2.2348688E1,-1.9077978E1,-2.3029928E1,-2.6747349E1,-3.3384346E1,8.9556766E-1,3.504204E-1,2.6599812E1,2.1542398E1,1.9855223E1,1.3669402E1,2.0266392E1,1.6156935E1,1.2308346E1,5.107523E0,6.7814975E0,2.6560323E0,-9.8112375E-1,-7.108308E0,-4.589645E0,-9.388451E0,-1.3738411E1,-1.6363525E1,-1.5433345E1,-1.964261E1,-2.0925629E1,-2.680469E1,-1.3150525E1,-1.9855255E1,-5.461536E-1,-2.359526E1,-2.8952847E1,-2.4901474E1,-9.466716E-1,-1.083889E0,8.051326E-1,6.969424E-1,6.5325934E-1,4.1464564E-1,6.7610145E-1,5.728778E-1,5.321272E-1,3.3827496E-1,6.392304E-1,5.750707E-1,5.034275E-1,4.0788534E-1,4.081603E-1,3.1662518E-1,1.7382066E-1,-1.7658506E-2,1.8641384E-1,2.9665703E-1,5.512585E-2,1.711491E-1,2.528E-1,-3.6751967E-2,-1.7616656E-1,-3.6213598E-1,-5.972608E-2,-1.6018999E-1,-2.5082472E-1,-3.1005558E-1,-3.158023E-1,-4.211203E-1,-2.2218738E-1,-4.9252373E-1,-4.1597486E-1,-5.226069E-1,-5.570439E-1,-6.754713E-1,-6.0195273E-1,-6.7355096E-1,-7.740756E-1,-9.0651405E-1,-2.5379264E-1,-4.2154613E-1,-5.348326E-1,-6.0988355E-1,-6.7861193E-1,-7.4704057E-1,-8.2579756E-1,-9.2375845E-1,-6.632932E-1,-8.0655825E-1],"categories":[],"categories_nodes":[],"categories_segments":[],"categories_sizes":[],"default_left":[0,0,0,0,0,0,0,0,0,0,0,0,0,0,0,0,0,0,0,0,0,0,0,0,0,0,0,0,0,0,0,0,0,0,0,0,0,0,0,0,0,0,0,0,0,0,0,0,0,0,0,0,0,0,0,0,0,0,0,0,0,0,0,0,0,0,0,0,0,0,0,0,0,0,0,0,0,0,0,0,0,0,0,0,0,0,0,0,0,0,0,0,0,0,0,0,0,0,0,0,0,0,0,0,0,0,0,0,0,0,0],"id":6,"left_children":[1,3,5,7,9,11,13,15,17,19,21,23,25,27,29,-1,31,33,35,37,39,41,43,45,47,49,51,53,55,57,59,-1,-1,61,63,65,67,69,71,73,75,77,79,81,83,85,87,89,91,93,95,97,99,101,103,-1,105,107,109,-1,-1,-1,-1,-1,-1,-1,-1,-1,-1,-1,-1,-1,-1,-1,-1,-1,-1,-1,-1,-1,-1,-1,-1,-1,-1,-1,-1,-1,-1,-1,-1,-1,-1,-1,-1,-1,-1,-1,-1,-1,-1,-1,-1,-1,-1,-1,-1,-1,-1,-1,-1],"loss_changes":[9.503666E6,1.7312422E6,3.82355E5,1.187995E5,5.0967175E5,1.11503125E5,7.1099E4,1.54E2,2.3596E4,1.0249125E5,6.6243016E4,4.5592844E4,2.547225E4,1.5114125E4,1.787825E4,0E0,9.2046875E1,4.93475E3,2.4126094E3,1.10445E4,3.6794094E4,1.1100766E4,2.0047277E4,1.2161992E4,1.5559688E3,3.0221562E3,5.9768125E3,6.8939375E3,7.180375E3,1.19235E4,1.3196875E3,0E0,0E0,9.01625E2,1.4501562E2,7.464844E2,6.082031E2,1.462125E3,1.604625E3,7.2347812E3,3.5696895E3,1.841793E3,4.122177E3,4.175665E3,4.5729844E3,2.0554531E3,9.458281E2,3.370703E2,1.349375E2,4.2775625E3,2.3639062E2,5.8171875E2,6.1609375E1,6.545703E2,9.556875E2,0E0,2.61225E3,2.848375E3,8.8095E3,0E0,0E0,0E0,0E0,0E0,0E0,0E0,0E0,0E0,0E0,0E0,0E0,0E0,0E0,0E0,0E0,0E0,0E0,0E0,0E0,0E0,0E0,0E0,0E0,0E0,0E0,0E0,0E0,0E0,0E0,0E0,0E0,0E0,0E0,0E0,0E0,0E0,0E0,0E0,0E0,0E0,0E0,0E0,0E0,0E0,0E0,0E0,0E0,0E0,0E0,0E0,0E0],"parents":[2147483647,0,0,1,1,2,2,3,3,4,4,5,5,6,6,7,7,8,8,9,9,10,10,11,11,12,12,13,13,14,14,16,16,17,17,18,18,19,19,20,20,21,21,22,22,23,23,24,24,25,25,26,26,27,27,28,28,29,29,30,30,33,33,34,34,35,35,36,36,37,37,38,38,39,39,40,40,41,41,42,42,43,43,44,44,45,45,46,46,47,47,48,48,49,49,50,50,51,51,52,52,53,53,54,54,56,56,57,57,58,58],"right_children":[2,4,6,8,10,12,14,16,18,20,22,24,26,28,30,-1,32,34,36,38,40,42,44,46,48,50,52,54,56,58,60,-1,-1,62,64,66,68,70,72,74,76,78,80,82,84,86,88,90,92,94,96,98,100,102,104,-1,106,108,110,-1,-1,-1,-1,-1,-1,-1,-1,-1,-1,-1,-1,-1,-1,-1,-1,-1,-1,-1,-1,-1,-1,-1,-1,-1,-1,-1,-1,-1,-1,-1,-1,-1,-1,-1,-1,-1,-1,-1,-1,-1,-1,-1,-1,-1,-1,-1,-1,-1,-1,-1,-1],"split_conditions":[4E0,2E0,5E0,2.05E1,3E0,1.463E2,1.606E2,1.99E1,4.34E1,4.14E1,8.74E1,1.1829E4,2.26E2,1.132E2,2.787E2,1.0063477E0,7.2E1,6.78E1,8.45E1,5.65E1,8.67E1,5.13E1,1.35E2,9.92E1,1.138E2,1.3265E4,2.858E2,9.952E3,8.88E1,2.9E0,3.144E2,8.9556766E-1,3.504204E-1,2.369E3,1.231E2,5.26E1,4.69E1,3.56E1,1E2,5.06E1,1.408E2,1.06E1,9.3E0,3.85E1,1.884E2,5.65E1,1.223E2,7.44E1,8.35E1,1.905E2,1.732E2,2.587E2,3.31E2,6.45E1,8.51E1,-5.461536E-1,1.368E2,1.884E2,2.115E2,-9.466716E-1,-1.083889E0,8.051326E-1,6.969424E-1,6.5325934E-1,4.1464564E-1,6.7610145E-1,5.728778E-1,5.321272E-1,3.3827496E-1,6.392304E-1,5.750707E-1,5.034275E-1,4.0788534E-1,4.081603E-1,3.1662518E-1,1.7382066E-1,-1.7658506E-2,1.8641384E-1,2.9665703E-1,5.512585E-2,1.711491E-1,2.528E-1,-3.6751967E-2,-1.7616656E-1,-3.6213598E-1,-5.972608E-2,-1.6018999E-1,-2.5082472E-1,-3.1005558E-1,-3.158023E-1,-4.211203E-1,-2.2218738E-1,-4.9252373E-1,-4.1597486E-1,-5.226069E-1,-5.570439E-1,-6.754713E-1,-6.0195273E-1,-6.7355096E-1,-7.740756E-1,-9.0651405E-1,-2.5379264E-1,-4.2154613E-1,-5.348326E-1,-6.0988355E-1,-6.7861193E-1,-7.4704057E-1,-8.2579756E-1,-9.2375845E-1,-6.632932E-1,-8.0655825E-1],"split_indices":[9,9,9,8,9,8,8,8,5,5,8,6,8,8,8,0,0,8,8,8,8,8,8,8,8,6,8,6,5,7,8,0,0,6,8,0,0,8,8,8,8,7,7,5,8,8,8,8,5,8,8,8,8,8,8,0,8,8,8,0,0,0,0,0,0,0,0,0,0,0,0,0,0,0,0,0,0,0,0,0,0,0,0,0,0,0,0,0,0,0,0,0,0,0,0,0,0,0,0,0,0,0,0,0,0,0,0,0,0,0,0],"split_type":[0,0,0,0,0,0,0,0,0,0,0,0,0,0,0,0,0,0,0,0,0,0,0,0,0,0,0,0,0,0,0,0,0,0,0,0,0,0,0,0,0,0,0,0,0,0,0,0,0,0,0,0,0,0,0,0,0,0,0,0,0,0,0,0,0,0,0,0,0,0,0,0,0,0,0,0,0,0,0,0,0,0,0,0,0,0,0,0,0,0,0,0,0,0,0,0,0,0,0,0,0,0,0,0,0,0,0,0,0,0,0],"sum_hessian":[3.1886E4,1.8107E4,1.3779E4,5.869E3,1.2238E4,5.844E3,7.935E3,3.061E3,2.808E3,6.935E3,5.303E3,3.153E3,2.691E3,4.341E3,3.594E3,2.98E3,8.1E1,2.149E3,6.59E2,2.782E3,4.153E3,2.733E3,2.57E3,2.119E3,1.034E3,1.661E3,1.03E3,1.552E3,2.789E3,3.105E3,4.89E2,7.9E1,2E0,1.902E3,2.47E2,5.77E2,8.2E1,1.636E3,1.146E3,3.242E3,9.11E2,1.078E3,1.655E3,1.814E3,7.56E2,1.059E3,1.06E3,5.04E2,5.3E2,1.45E3,2.11E2,7.85E2,2.45E2,1.82E2,1.37E3,2.96E2,2.493E3,1.408E3,1.697E3,3.01E2,1.88E2,1.77E3,1.32E2,2.38E2,9E0,1.21E2,4.56E2,2.8E1,5.4E1,8.3E2,8.06E2,9.17E2,2.29E2,1.86E3,1.382E3,8.13E2,9.8E1,9.14E2,1.64E2,1.306E3,3.49E2,4.5E1,1.769E3,6.07E2,1.49E2,2.38E2,8.21E2,5.13E2,5.47E2,4.6E1,4.58E2,4E0,5.26E2,8.15E2,6.35E2,1.59E2,5.2E1,5.11E2,2.74E2,1.96E2,4.9E1,3.1E1,1.51E2,2.67E2,1.103E3,1.438E3,1.055E3,8.02E2,6.06E2,7.1E2,9.87E2],"tree_param":{"num_deleted":"0","num_feature":"11","num_nodes":"111","size_leaf_vector":"1"}},{"base_weights":[3.2194823E-2,1.4604587E1,-1.9253365E1,2.8248596E1,8.0211525E0,-1.3289445E1,-2.3613636E1,2.9771357E1,2.4172014E1,1.3493312E1,8.7803346E-1,-8.2061405E0,-1.5860561E1,-2.6719538E1,-2.2911026E1,3.0360252E1,2.7874495E1,2.0378094E1,2.5229944E1,1.755335E1,9.781107E0,-1.1294198E0,5.023958E0,-4.944159E0,-9.550728E0,-1.3847714E1,-1.7029251E1,-2.4979448E1,-8.238595E-1,-1.7230946E1,-2.3260366E1,3.0887093E1,8.873511E-1,2.7931036E1,4.0595156E-1,2.1093508E1,1.294023E1,2.2998058E1,2.6065542E1,1.979083E1,1.59381485E1,5.7489066E0,1.1133923E1,1.2973402E0,-3.721689E0,7.6634526E0,2.8563638E0,-2.6419158E0,-5.9498143E0,-7.0987864E0,-1.0082388E1,-1.402479E1,-3.787088E0,-1.8404642E1,-1.5623947E1,-6.472637E-1,-7.6785827E-1,-1.4200813E1,-5.598184E-1,-2.1965055E1,-2.5072601E1,9.29462E-1,6.991624E-1,5.009323E-1,8.397491E-1,5.9481347E-1,7.26864E-1,4.681849E-1,2.911051E-1,7.026233E-1,4.7799057E-1,8.2916355E-1,7.410776E-1,6.432946E-1,5.5653363E-1,5.253443E-1,4.4455525E-1,2.1652119E-1,1.1302634E-1,3.6311117E-1,2.389541E-1,1.05029084E-1,6.8122814E-3,-8.0778524E-2,-1.9983408E-1,2.861942E-1,1.9442138E-1,1.1530716E-1,7.5114877E-3,1.4995789E-3,-1.0700989E-1,-1.3018303E-1,-2.2426063E-1,-2.289904E-1,-4.482961E-2,-2.5748482E-1,-3.3058205E-1,-3.7923068E-1,-4.4398654E-1,-3.591818E-2,-3.666078E-1,-5.0118244E-1,-6.0336167E-1,-6.309608E-1,-4.637881E-1,-1.649996E-1,-4.4955721E-1,-7.5381607E-1,-6.485793E-1,-6.7998606E-1,-7.8430104E-1],"categories":[],"categories_nodes":[],"categories_segments":[],"categories_sizes":[],"default_left":[0,0,0,0,0,0,0,0,0,0,0,0,0,0,0,0,0,0,0,0,0,0,0,0,0,0,0,0,0,0,0,0,0,0,0,0,0,0,0,0,0,0,0,0,0,0,0,0,0,0,0,0,0,0,0,0,0,0,0,0,0,0,0,0,0,0,0,0,0,0,0,0,0,0,0,0,0,0,0,0,0,0,0,0,0,0,0,0,0,0,0,0,0,0,0,0,0,0,0,0,0,0,0,0,0,0,0,0,0,0,0],"id":7,"left_children":[1,3,5,7,9,11,13,15,17,19,21,23,25,27,29,31,33,35,37,39,41,43,45,47,49,51,53,55,-1,57,59,61,-1,63,-1,65,67,69,71,73,75,77,79,81,83,85,87,89,91,93,95,97,99,101,103,-1,-1,105,-1,107,109,-1,-1,-1,-1,-1,-1,-1,-1,-1,-1,-1,-1,-1,-1,-1,-1,-1,-1,-1,-1,-1,-1,-1,-1,-1,-1,-1,-1,-1,-1,-1,-1,-1,-1,-1,-1,-1,-1,-1,-1,-1,-1,-1,-1,-1,-1,-1,-1,-1,-1],"loss_changes":[8.990085E6,1.6364645E6,3.577135E5,3.60915E4,4.8046144E5,7.5896625E4,1.67405E4,3.9715E3,5.980125E3,1.0472725E5,4.43909E4,8.531828E3,8.8491875E3,1.2015E3,1.2481E4,4.375E2,4.60625E2,1.632E3,1.75225E3,1.16938125E4,1.9780625E4,2.2614016E4,9.933266E3,1.3109277E3,1.7326094E3,2.48375E3,4.426625E3,3.8690625E2,0E0,1.3811953E3,1.3799E4,6.72625E2,0E0,2.330625E2,0E0,8.1003125E2,1.4194775E2,6.7809375E2,1.2685E3,2.447375E3,3.1491562E3,2.6379688E3,8.2714375E3,4.378876E3,5.2393438E3,1.6780586E3,2.4610596E3,4.38458E2,9.4532715E2,7.371074E2,1.5002188E3,1.3127812E3,5.532184E2,3.2224688E3,7.5296875E2,0E0,0E0,7.775547E2,0E0,3.36325E3,5.954875E3,0E0,0E0,0E0,0E0,0E0,0E0,0E0,0E0,0E0,0E0,0E0,0E0,0E0,0E0,0E0,0E0,0E0,0E0,0E0,0E0,0E0,0E0,0E0,0E0,0E0,0E0,0E0,0E0,0E0,0E0,0E0,0E0,0E0,0E0,0E0,0E0,0E0,0E0,0E0,0E0,0E0,0E0,0E0,0E0,0E0,0E0,0E0,0E0,0E0,0E0],"parents":[2147483647,0,0,1,1,2,2,3,3,4,4,5,5,6,6,7,7,8,8,9,9,10,10,11,11,12,12,13,13,14,14,15,15,16,16,17,17,18,18,19,19,20,20,21,21,22,22,23,23,24,24,25,25,26,26,27,27,29,29,30,30,31,31,33,33,35,35,36,36,37,37,38,38,39,39,40,40,41,41,42,42,43,43,44,44,45,45,46,46,47,47,48,48,49,49,50,50,51,51,52,52,53,53,54,54,57,57,59,59,60,60],"right_children":[2,4,6,8,10,12,14,16,18,20,22,24,26,28,30,32,34,36,38,40,42,44,46,48,50,52,54,56,-1,58,60,62,-1,64,-1,66,68,70,72,74,76,78,80,82,84,86,88,90,92,94,96,98,100,102,104,-1,-1,106,-1,108,110,-1,-1,-1,-1,-1,-1,-1,-1,-1,-1,-1,-1,-1,-1,-1,-1,-1,-1,-1,-1,-1,-1,-1,-1,-1,-1,-1,-1,-1,-1,-1,-1,-1,-1,-1,-1,-1,-1,-1,-1,-1,-1,-1,-1,-1,-1,-1,-1,-1,-1],"split_conditions":[4E0,2E0,5E0,1.89E3,3E0,3.47E0,1.2E0,1.93E0,8.5E0,2.6E0,8E0,2.9E0,3.94E0,4.81E0,3.23E0,1.17E1,3.81E0,3.65E0,4.5E1,1.926E3,7.4E0,3.31E0,3.08E0,2.59E0,6.37E1,9.2E0,1.2605E4,9.86E1,-8.238595E-1,2.86E0,1.017E2,1.737E3,8.873511E-1,6.8E0,4.0595156E-1,7.32E1,1.125E2,2.57E0,2.86E0,1.69E0,1.94E0,3.42E0,3.56E0,2.8E0,3.92E0,2.57E0,3.7E0,2.29E0,7.1E1,9.3E0,3.17E0,3.64E0,6.977E3,4.24E0,7E-1,-6.472637E-1,-7.6785827E-1,6.04E1,-5.598184E-1,6.54E1,3.79E0,9.29462E-1,6.991624E-1,5.009323E-1,8.397491E-1,5.9481347E-1,7.26864E-1,4.681849E-1,2.911051E-1,7.026233E-1,4.7799057E-1,8.2916355E-1,7.410776E-1,6.432946E-1,5.5653363E-1,5.253443E-1,4.4455525E-1,2.1652119E-1,1.1302634E-1,3.6311117E-1,2.389541E-1,1.05029084E-1,6.8122814E-3,-8.0778524E-2,-1.9983408E-1,2.861942E-1,1.9442138E-1,1.1530716E-1,7.5114877E-3,1.4995789E-3,-1.0700989E-1,-1.3018303E-1,-2.2426063E-1,-2.289904E-1,-4.482961E-2,-2.5748482E-1,-3.3058205E-1,-3.7923068E-1,-4.4398654E-1,-3.591818E-2,-3.666078E-1,-5.0118244E-1,-6.0336167E-1,-6.309608E-1,-4.637881E-1,-1.649996E-1,-4.4955721E-1,-7.5381607E-1,-6.485793E-1,-6.7998606E-1,-7.8430104E-1],"split_indices":[9,9,9,6,9,10,7,10,7,10,7,10,10,10,10,7,10,10,0,6,7,10,10,10,5,7,6,5,0,10,2,6,0,7,0,0,2,10,10,10,10,10,10,10,10,10,10,10,5,7,10,10,6,10,7,0,0,5,0,0,10,0,0,0,0,0,0,0,0,0,0,0,0,0,0,0,0,0,0,0,0,0,0,0,0,0,0,0,0,0,0,0,0,0,0,0,0,0,0,0,0,0,0,0,0,0,0,0,0,0,0],"split_type":[0,0,0,0,0,0,0,0,0,0,0,0,0,0,0,0,0,0,0,0,0,0,0,0,0,0,0,0,0,0,0,0,0,0,0,0,0,0,0,0,0,0,0,0,0,0,0,0,0,0,0,0,0,0,0,0,0,0,0,0,0,0,0,0,0,0,0,0,0,0,0,0,0,0,0,0,0,0,0,0,0,0,0,0,0,0,0,0,0,0,0,0,0,0,0,0,0,0,0,0,0,0,0,0,0,0,0,0,0,0,0],"sum_hessian":[3.1987E4,1.822E4,1.3767E4,5.929E3,1.2291E4,5.816E3,7.951E3,4.312E3,1.617E3,6.959E3,5.332E3,1.955E3,3.861E3,1.46E3,6.491E3,3.279E3,1.033E3,3.57E2,1.26E3,3.322E3,3.637E3,3.593E3,1.739E3,5.72E2,1.383E3,1.423E3,2.438E3,4.47E2,1.013E3,3.79E2,6.112E3,1.936E3,1.343E3,1.028E3,5E0,3.24E2,3.3E1,3.51E2,9.09E2,1.388E3,1.934E3,9.15E2,2.722E3,1.856E3,1.737E3,7.83E2,9.56E2,1.75E2,3.97E2,2.49E2,1.134E3,1.398E3,2.5E1,1.226E3,1.212E3,7.4E1,3.73E2,1.25E2,2.54E2,3.572E3,2.54E3,1.909E3,2.7E1,7E0,1.021E3,2.36E2,8.8E1,1.6E1,1.7E1,3.29E2,2.2E1,4.13E2,4.96E2,5.88E2,8E2,7.98E2,1.136E3,5.24E2,3.91E2,2.082E3,6.4E2,6.06E2,1.25E3,1.288E3,4.49E2,3E2,4.83E2,6.93E2,2.63E2,4.5E1,1.3E2,1.95E2,2.02E2,2.27E2,2.2E1,4.4E2,6.94E2,5.08E2,8.9E2,2E1,5E0,6.2E2,6.06E2,3.2E1,1.18E3,1.1E1,1.14E2,3.45E2,3.227E3,7.89E2,1.751E3],"tree_param":{"num_deleted":"0","num_feature":"11","num_nodes":"111","size_leaf_vector":"1"}},{"base_weights":[3.0391648E-2,1.4186579E1,-1.8634418E1,2.738516E1,7.8240275E0,-1.2824898E1,-2.2903826E1,3.1568266E1,2.2829945E1,1.3101974E1,8.059581E-1,-8.231936E0,-1.6677685E1,-2.0303333E1,-2.5912125E1,9.4995683E-1,2.7312674E1,1.6957563E1,2.42019E1,1.745725E1,1.0153697E1,3.9713535E0,-2.702477E0,-5.9100876E0,-1.3552591E1,-1.4635009E1,-2.11923E1,-1.4986146E1,-2.0962639E1,-2.4986357E1,-3.0504793E1,8.4258723E-1,5.5299574E-1,1.8165668E1,1.261401E1,2.4983744E1,2.0162472E1,1.9032127E1,1.4999753E1,1.15156765E1,4.429574E0,6.638076E0,2.5653994E0,-1.1631267E0,-7.335932E0,-3.5051167E0,-7.746397E0,-1.1369951E1,-1.416162E1,-1.39274E1,-1.760818E1,-1.9057938E1,-2.4313786E1,-1.2756693E1,-1.6941628E1,-1.9354755E1,-2.2625757E1,-2.7143145E1,-2.3140074E1,-8.7187886E-1,-1.0162203E0,5.698499E-1,5.104721E-1,4.106093E-1,3.0297232E-1,6.791514E-1,7.5891095E-1,6.08482E-1,3.2673323E-1,5.8550704E-1,4.8848316E-1,4.686341E-1,3.7416667E-1,3.8675743E-1,2.9383758E-1,1.6954227E-1,4.7264412E-2,1.1311678E-1,2.1784706E-1,5.4007772E-2,1.587232E-1,-8.556233E-2,-1.4119386E-3,-1.8916433E-1,-3.821031E-1,-3.2526623E-2,-1.2606727E-1,-1.980852E-1,-2.6046905E-1,5.3900585E-2,-3.4357867E-1,-4.2680722E-1,-2.1921308E-1,-3.713735E-1,-4.9530652E-1,-5.103899E-1,-6.368112E-1,-5.7220834E-1,-1.4692E-1,-6.933962E-1,-8.2981133E-1,-2.4360016E-1,-4.0777457E-1,-5.0920665E-1,-1.3487805E-1,-5.404832E-1,-6.064633E-1,-7.181726E-1,-6.6209334E-1,-7.772878E-1,-8.8657844E-1,-6.240323E-1,-7.4764097E-1],"categories":[],"categories_nodes":[],"categories_segments":[],"categories_sizes":[],"default_left":[0,0,0,0,0,0,0,0,0,0,0,0,0,0,0,0,0,0,0,0,0,0,0,0,0,0,0,0,0,0,0,0,0,0,0,0,0,0,0,0,0,0,0,0,0,0,0,0,0,0,0,0,0,0,0,0,0,0,0,0,0,0,0,0,0,0,0,0,0,0,0,0,0,0,0,0,0,0,0,0,0,0,0,0,0,0,0,0,0,0,0,0,0,0,0,0,0,0,0,0,0,0,0,0,0,0,0,0,0,0,0,0,0],"id":8,"left_children":[1,3,5,7,9,11,13,15,17,19,21,23,25,27,29,-1,31,33,35,37,39,41,43,45,47,49,51,53,55,57,59,-1,-1,61,63,65,67,69,71,73,75,77,79,81,83,85,87,89,91,93,95,97,99,101,103,105,107,109,111,-1,-1,-1,-1,-1,-1,-1,-1,-1,-1,-1,-1,-1,-1,-1,-1,-1,-1,-1,-1,-1,-1,-1,-1,-1,-1,-1,-1,-1,-1,-1,-1,-1,-1,-1,-1,-1,-1,-1,-1,-1,-1,-1,-1,-1,-1,-1,-1,-1,-1,-1,-1,-1,-1],"loss_changes":[8.461198E6,1.5290845E6,3.422885E5,1.121415E5,4.551862E5,1.0343569E5,6.17455E4,4.085E2,2.24625E4,8.9886375E4,5.860379E4,3.292914E4,2.9033938E4,1.4669E4,1.491375E4,0E0,4.3164062E0,2.60975E3,6.756875E3,1.06673125E4,3.2575844E4,1.0383504E4,1.7844137E4,8.195941E3,9.1703125E2,4.370625E3,6.1256875E3,1.8547109E3,9.723625E3,1.1612625E4,1.9989375E3,0E0,0E0,7.828125E1,1.8828516E2,8.39625E2,2.005625E2,1.9759375E3,1.5485E3,7.8796562E3,2.8018057E3,1.6836172E3,3.78154E3,3.543617E3,3.3924453E3,1.3590801E3,1.0717969E3,2.186836E2,1.7797656E2,6.9017188E3,5.391797E2,3.8E1,9.5978125E2,7.654492E2,2.3023438E1,1.8698125E3,8.313125E2,3.431125E3,6.4104375E3,0E0,0E0,0E0,0E0,0E0,0E0,0E0,0E0,0E0,0E0,0E0,0E0,0E0,0E0,0E0,0E0,0E0,0E0,0E0,0E0,0E0,0E0,0E0,0E0,0E0,0E0,0E0,0E0,0E0,0E0,0E0,0E0,0E0,0E0,0E0,0E0,0E0,0E0,0E0,0E0,0E0,0E0,0E0,0E0,0E0,0E0,0E0,0E0,0E0,0E0,0E0,0E0,0E0,0E0],"parents":[2147483647,0,0,1,1,2,2,3,3,4,4,5,5,6,6,7,7,8,8,9,9,10,10,11,11,12,12,13,13,14,14,16,16,17,17,18,18,19,19,20,20,21,21,22,22,23,23,24,24,25,25,26,26,27,27,28,28,29,29,30,30,33,33,34,34,35,35,36,36,37,37,38,38,39,39,40,40,41,41,42,42,43,43,44,44,45,45,46,46,47,47,48,48,49,49,50,50,51,51,52,52,53,53,54,54,55,55,56,56,57,57,58,58],"right_children":[2,4,6,8,10,12,14,16,18,20,22,24,26,28,30,-1,32,34,36,38,40,42,44,46,48,50,52,54,56,58,60,-1,-1,62,64,66,68,70,72,74,76,78,80,82,84,86,88,90,92,94,96,98,100,102,104,106,108,110,112,-1,-1,-1,-1,-1,-1,-1,-1,-1,-1,-1,-1,-1,-1,-1,-1,-1,-1,-1,-1,-1,-1,-1,-1,-1,-1,-1,-1,-1,-1,-1,-1,-1,-1,-1,-1,-1,-1,-1,-1,-1,-1,-1,-1,-1,-1,-1,-1,-1,-1,-1,-1,-1,-1],"split_conditions":[4E0,2E0,5E0,2.05E1,3E0,1.331E2,1.577E2,1.99E1,1.531E2,4.14E1,8.89E1,1.1829E4,2.26E2,8.88E1,2.675E2,9.4995683E-1,3.85E1,6.61E1,6.29E1,5.88E1,9.12E1,4.79E1,1.408E2,8.74E1,9.43E1,1.2605E4,2.675E2,1.215E2,1.223E2,2.6E0,3.144E2,8.4258723E-1,5.5299574E-1,4.46E1,1E2,9.3E0,1.231E2,2.416E3,1.007E2,5.06E1,1.248E2,6.9E0,9.2E0,5.3E0,2.041E2,5.06E1,1.095E2,6.37E1,3.8E0,1.905E2,1.747E2,9.9E0,3.144E2,6.45E1,8E0,1.007E2,1.5E0,1.927E2,2.088E2,-8.7187886E-1,-1.0162203E0,5.698499E-1,5.104721E-1,4.106093E-1,3.0297232E-1,6.791514E-1,7.5891095E-1,6.08482E-1,3.2673323E-1,5.8550704E-1,4.8848316E-1,4.686341E-1,3.7416667E-1,3.8675743E-1,2.9383758E-1,1.6954227E-1,4.7264412E-2,1.1311678E-1,2.1784706E-1,5.4007772E-2,1.587232E-1,-8.556233E-2,-1.4119386E-3,-1.8916433E-1,-3.821031E-1,-3.2526623E-2,-1.2606727E-1,-1.980852E-1,-2.6046905E-1,5.3900585E-2,-3.4357867E-1,-4.2680722E-1,-2.1921308E-1,-3.713735E-1,-4.9530652E-1,-5.103899E-1,-6.368112E-1,-5.7220834E-1,-1.4692E-1,-6.933962E-1,-8.2981133E-1,-2.4360016E-1,-4.0777457E-1,-5.0920665E-1,-1.3487805E-1,-5.404832E-1,-6.064633E-1,-7.181726E-1,-6.6209334E-1,-7.772878E-1,-8.8657844E-1,-6.240323E-1,-7.4764097E-1],"split_indices":[9,9,9,8,9,8,8,8,2,5,8,6,8,5,8,0,5,8,8,8,8,8,8,8,8,6,8,8,8,7,8,0,0,8,8,7,8,6,8,8,8,7,7,7,8,8,8,5,7,8,8,7,8,8,3,8,7,8,8,0,0,0,0,0,0,0,0,0,0,0,0,0,0,0,0,0,0,0,0,0,0,0,0,0,0,0,0,0,0,0,0,0,0,0,0,0,0,0,0,0,0,0,0,0,0,0,0,0,0,0,0,0,0],"split_type":[0,0,0,0,0,0,0,0,0,0,0,0,0,0,0,0,0,0,0,0,0,0,0,0,0,0,0,0,0,0,0,0,0,0,0,0,0,0,0,0,0,0,0,0,0,0,0,0,0,0,0,0,0,0,0,0,0,0,0,0,0,0,0,0,0,0,0,0,0,0,0,0,0,0,0,0,0,0,0,0,0,0,0,0,0,0,0,0,0,0,0,0,0,0,0,0,0,0,0,0,0,0,0,0,0,0,0,0,0,0,0,0,0],"sum_hessian":[3.2021E4,1.821E4,1.3811E4,5.922E3,1.2288E4,5.852E3,7.959E3,3.084E3,2.838E3,7.013E3,5.275E3,2.671E3,3.181E3,4.273E3,3.686E3,3.009E3,7.5E1,5.4E2,2.298E3,2.829E3,4.184E3,2.773E3,2.502E3,1.861E3,8.1E2,2.193E3,9.88E2,4.74E2,3.799E3,3.073E3,6.13E2,6.7E1,8E0,4.2E2,1.2E2,1.921E3,3.77E2,1.72E3,1.109E3,3.379E3,8.05E2,9.56E2,1.817E3,1.879E3,6.23E2,8.07E2,1.054E3,1.81E2,6.29E2,1.776E3,4.17E2,5.91E2,3.97E2,2.25E2,2.49E2,1.938E3,1.861E3,1.411E3,1.662E3,4.36E2,1.77E2,2.35E2,1.85E2,8.1E1,3.9E1,2.35E2,1.686E3,3.71E2,6E0,1.457E3,2.63E2,8.86E2,2.23E2,1.874E3,1.505E3,5.63E2,2.42E2,1.72E2,7.84E2,1.42E3,3.97E2,7.47E2,1.132E3,5.25E2,9.8E1,1.81E2,6.26E2,4.78E2,5.76E2,1E0,1.8E2,6.22E2,7E0,1.114E3,6.62E2,3.63E2,5.4E1,5.9E2,1E0,2.98E2,9.9E1,3.6E1,1.89E2,2.48E2,1E0,7.67E2,1.171E3,5.41E2,1.32E3,9.41E2,4.7E2,7.24E2,9.38E2],"tree_param":{"num_deleted":"0","num_feature":"11","num_nodes":"113","size_leaf_vector":"1"}},{"base_weights":[-1.7626444E-2,-1.2661383E1,1.7167664E1,-3.8534167E0,-1.9005981E1,9.1823015E0,2.3277632E1,1.0877498E0,-1.48578825E1,-1.41234665E1,-2.2061708E1,1.1734935E1,-2.3694954E0,3.0445026E1,1.9619644E1,3.9480757E-2,1.847228E1,-1.0790311E1,-1.9915983E1,-4.123317E0,-1.7556421E1,-2.119238E1,-2.8125475E1,2.3436945E1,9.768989E0,1.3347825E0,-1.6767927E1,3.0575708E1,2.6227896E1,2.1987467E1,1.634642E1,6.3394895E0,-1.4399709E0,9.025821E-1,1.5946371E1,-8.60039E0,-1.3159533E1,-1.7711784E1,-2.3478516E1,1.4574616E0,-5.705065E0,-1.6213413E1,-1.8492672E1,-1.8496721E1,-2.3890978E1,-2.6414352E1,-9.368736E-1,2.3973711E1,1.9151556E1,1.1004882E1,6.6567416E0,2.4917192E0,-2.5010426E0,-1.1335866E1,-1.9207367E1,9.174366E-1,2.511613E-1,7.909298E-1,2.2151583E-1,2.3384941E1,2.0606165E1,1.7467972E1,1.3196614E1,5.1188815E-1,1.6022101E-1,-2.1193325E-4,-1.2557057E-1,4.867724E-1,-3.1321656E-2,-1.6274625E-1,-2.877106E-1,-3.220862E-1,-4.2526594E-1,-4.1400188E-1,-5.48156E-1,-6.579143E-1,-7.8451794E-1,-2.9407887E-2,1.293165E-1,-1.4735684E-1,-3.1490865E-1,-4.0857673E-1,-4.950706E-1,-5.3067374E-1,-5.972368E-1,-4.99802E-1,-6.3707113E-1,-6.463557E-1,-7.772824E-1,-7.426284E-1,-8.259654E-1,7.201501E-1,7.326679E-2,4.1977063E-1,6.3891107E-1,3.620133E-1,2.7133024E-1,2.4370088E-1,1.2827401E-1,1.2206391E-1,2.706481E-2,-2.4995895E-3,-1.5778482E-1,-3.6940768E-1,-1.9636281E-1,-5.113492E-1,-6.66511E-1,7.373404E-1,6.7451936E-1,6.1915034E-1,-6.737534E-2,5.6449556E-1,4.7820917E-1,4.045645E-1,-1.8538831E-1],"categories":[],"categories_nodes":[],"categories_segments":[],"categories_sizes":[],"default_left":[0,0,0,0,0,0,0,0,0,0,0,0,0,0,0,0,0,0,0,0,0,0,0,0,0,0,0,0,0,0,0,0,0,0,0,0,0,0,0,0,0,0,0,0,0,0,0,0,0,0,0,0,0,0,0,0,0,0,0,0,0,0,0,0,0,0,0,0,0,0,0,0,0,0,0,0,0,0,0,0,0,0,0,0,0,0,0,0,0,0,0,0,0,0,0,0,0,0,0,0,0,0,0,0,0,0,0,0,0,0,0,0,0,0,0],"id":9,"left_children":[1,3,5,7,9,11,13,15,17,19,21,23,25,27,29,31,33,35,37,39,41,43,45,47,49,51,53,55,57,59,61,63,65,-1,67,69,71,73,75,77,79,81,83,85,87,89,-1,91,93,95,97,99,101,103,105,-1,-1,-1,-1,107,109,111,113,-1,-1,-1,-1,-1,-1,-1,-1,-1,-1,-1,-1,-1,-1,-1,-1,-1,-1,-1,-1,-1,-1,-1,-1,-1,-1,-1,-1,-1,-1,-1,-1,-1,-1,-1,-1,-1,-1,-1,-1,-1,-1,-1,-1,-1,-1,-1,-1,-1,-1,-1,-1],"loss_changes":[6.951651E6,1.02996225E6,6.6143175E5,4.19736E5,1.5953725E5,1.7341434E5,2.0081125E5,9.709496E4,4.89985E4,1.4160769E5,3.4132E4,1.1056556E5,5.6825004E4,6.275E2,3.90825E4,4.6854254E4,8.408859E3,6.7770312E3,7.9470938E3,9.330031E3,3.5629375E3,4.1503E4,3.5458125E3,1.132625E3,1.5793156E4,3.7694917E3,2.6710195E3,5.125E1,2.3855469E1,5.212625E3,7.329375E3,1.014807E4,1.6016718E4,0E0,1.2083633E3,2.1265156E3,1.4136953E3,1.1982031E3,1.0976562E3,1.6317054E3,3.0764863E3,7.271875E2,1.6981875E3,1.41795E4,1.30685E4,3.1496875E2,0E0,3.530625E2,6.096582E2,6.0364375E3,4.068289E3,1.6308005E3,1.3133887E3,2.4726367E2,5.9101953E2,0E0,0E0,0E0,0E0,1.0156875E3,1.1435625E3,2.94475E3,3.2513516E3,0E0,0E0,0E0,0E0,0E0,0E0,0E0,0E0,0E0,0E0,0E0,0E0,0E0,0E0,0E0,0E0,0E0,0E0,0E0,0E0,0E0,0E0,0E0,0E0,0E0,0E0,0E0,0E0,0E0,0E0,0E0,0E0,0E0,0E0,0E0,0E0,0E0,0E0,0E0,0E0,0E0,0E0,0E0,0E0,0E0,0E0,0E0,0E0,0E0,0E0,0E0,0E0],"parents":[2147483647,0,0,1,1,2,2,3,3,4,4,5,5,6,6,7,7,8,8,9,9,10,10,11,11,12,12,13,13,14,14,15,15,16,16,17,17,18,18,19,19,20,20,21,21,22,22,23,23,24,24,25,25,26,26,27,27,28,28,29,29,30,30,31,31,32,32,34,34,35,35,36,36,37,37,38,38,39,39,40,40,41,41,42,42,43,43,44,44,45,45,47,47,48,48,49,49,50,50,51,51,52,52,53,53,54,54,59,59,60,60,61,61,62,62],"right_children":[2,4,6,8,10,12,14,16,18,20,22,24,26,28,30,32,34,36,38,40,42,44,46,48,50,52,54,56,58,60,62,64,66,-1,68,70,72,74,76,78,80,82,84,86,88,90,-1,92,94,96,98,100,102,104,106,-1,-1,-1,-1,108,110,112,114,-1,-1,-1,-1,-1,-1,-1,-1,-1,-1,-1,-1,-1,-1,-1,-1,-1,-1,-1,-1,-1,-1,-1,-1,-1,-1,-1,-1,-1,-1,-1,-1,-1,-1,-1,-1,-1,-1,-1,-1,-1,-1,-1,-1,-1,-1,-1,-1,-1,-1,-1,-1],"split_conditions":[7.8E0,3.72E0,1.608E2,1.418E2,1.286E2,8.59E1,2.05E1,1.823E2,2.041E2,1.1269E4,2.587E2,1.99E1,1.551E2,1.99E1,4.86E1,6.12E1,1.94E1,1.68E2,2.587E2,6.54E1,1.043E2,4.64E0,3.029E2,3.67E0,3.43E0,3.71E0,1.971E2,5.46E1,2.5E0,1.73E0,8.97E1,1.99E1,1.101E2,9.025821E-1,5.69E1,2.96E0,3.14E0,3.03E0,2.937E2,6.4E0,4.3E0,7.28E1,4.79E0,1.95E2,1.577E2,4.11E0,-9.368736E-1,1.1E1,9.1E0,5.27E1,5.49E1,1.067E2,1.124E2,7.9E0,2.464E2,9.174366E-1,2.511613E-1,7.909298E-1,2.2151583E-1,1.42E0,3.13E0,1.94E0,5.69E1,5.1188815E-1,1.6022101E-1,-2.1193325E-4,-1.2557057E-1,4.867724E-1,-3.1321656E-2,-1.6274625E-1,-2.877106E-1,-3.220862E-1,-4.2526594E-1,-4.1400188E-1,-5.48156E-1,-6.579143E-1,-7.8451794E-1,-2.9407887E-2,1.293165E-1,-1.4735684E-1,-3.1490865E-1,-4.0857673E-1,-4.950706E-1,-5.3067374E-1,-5.972368E-1,-4.99802E-1,-6.3707113E-1,-6.463557E-1,-7.772824E-1,-7.426284E-1,-8.259654E-1,7.201501E-1,7.326679E-2,4.1977063E-1,6.3891107E-1,3.620133E-1,2.7133024E-1,2.4370088E-1,1.2827401E-1,1.2206391E-1,2.706481E-2,-2.4995895E-3,-1.5778482E-1,-3.6940768E-1,-1.9636281E-1,-5.113492E-1,-6.66511E-1,7.373404E-1,6.7451936E-1,6.1915034E-1,-6.737534E-2,5.6449556E-1,4.7820917E-1,4.045645E-1,-1.8538831E-1],"split_indices":[7,10,2,8,8,8,8,2,8,6,8,8,8,8,8,8,8,8,8,8,8,10,8,10,10,10,8,5,10,10,8,8,8,0,5,10,10,10,8,7,10,8,10,8,8,10,0,3,7,8,8,8,8,4,8,0,0,0,0,10,10,10,5,0,0,0,0,0,0,0,0,0,0,0,0,0,0,0,0,0,0,0,0,0,0,0,0,0,0,0,0,0,0,0,0,0,0,0,0,0,0,0,0,0,0,0,0,0,0,0,0,0,0,0,0],"split_type":[0,0,0,0,0,0,0,0,0,0,0,0,0,0,0,0,0,0,0,0,0,0,0,0,0,0,0,0,0,0,0,0,0,0,0,0,0,0,0,0,0,0,0,0,0,0,0,0,0,0,0,0,0,0,0,0,0,0,0,0,0,0,0,0,0,0,0,0,0,0,0,0,0,0,0,0,0,0,0,0,0,0,0,0,0,0,0,0,0,0,0,0,0,0,0,0,0,0,0,0,0,0,0,0,0,0,0,0,0,0,0,0,0,0,0],"sum_hessian":[3.1991E4,1.8431E4,1.356E4,7.718E3,1.0713E4,5.879E3,7.681E3,5.327E3,2.391E3,4.126E3,6.587E3,4.815E3,1.064E3,2.593E3,5.088E3,5.025E3,3.02E2,1.327E3,1.064E3,1.055E3,3.071E3,5.765E3,8.22E2,6.91E2,4.124E3,8.47E2,2.17E2,2.509E3,8.4E1,2.949E3,2.139E3,9.55E2,4.07E3,5.2E1,2.5E2,6.92E2,6.35E2,6.61E2,4.03E2,2.33E2,8.22E2,1.269E3,1.802E3,2.888E3,2.877E3,5.36E2,2.86E2,6.1E2,8.1E1,2.95E3,1.174E3,6.51E2,1.96E2,6.9E1,1.48E2,2.508E3,1E0,8.3E1,1E0,1.458E3,1.491E3,1.574E3,5.65E2,8E1,8.75E2,2.675E3,1.395E3,2.46E2,4E0,1.66E2,5.26E2,1.91E2,4.44E2,8.6E1,5.75E2,2.61E2,1.42E2,1.26E2,1.07E2,7.07E2,1.15E2,1.32E2,1.137E3,1.158E3,6.44E2,1.733E3,1.155E3,1.336E3,1.541E3,2.25E2,3.11E2,6.09E2,1E0,2.6E1,5.5E1,1.91E3,1.04E3,7.25E2,4.49E2,3.26E2,3.25E2,1.05E2,9.1E1,5.6E1,1.3E1,9E1,5.8E1,6.16E2,8.42E2,1.489E3,2E0,8.3E2,7.44E2,5.57E2,8E0],"tree_param":{"num_deleted":"0","num_feature":"11","num_nodes":"115","size_leaf_vector":"1"}},{"base_weights":[1.142459E-2,1.3352588E1,-1.7520443E1,2.5940935E1,7.3227005E0,-1.2051555E1,-2.1587479E1,8.9266455E-1,2.1799887E1,1.2286942E1,8.288358E-1,-9.432883E0,-1.789212E1,-1.8722578E1,-2.4031164E1,1.6495106E1,2.297822E1,9.452437E0,1.609907E1,2.9196053E0,-3.751561E0,-7.631834E0,-1.381366E1,-1.6525953E1,-2.267168E1,-1.3567096E1,-1.9311546E1,-2.3259245E1,-2.931599E1,1.7344698E1,1.1491056E1,2.3700111E1,1.9343027E1,1.0875764E1,4.6817555E0,1.7690722E1,1.3606555E1,5.354671E0,1.2796688E0,-2.4342866E0,-8.050902E0,-4.6042438E0,-1.0181496E1,-1.2083057E1,-1.5266226E1,-1.5126538E1,-1.7566343E1,-2.1905107E1,-8.328822E-1,-9.7769E0,-1.4519958E1,-1.765279E1,-2.0447062E1,-2.5149542E1,-2.1891882E1,-8.234395E-1,-9.373171E-1,5.503097E-1,4.8394945E-1,3.6587194E-1,2.1088648E-1,6.434861E-1,7.204835E-1,5.3783625E-1,6.010685E-1,3.6640728E-1,2.8033373E-1,1.9250485E-1,9.653575E-2,5.68604E-1,4.9820656E-1,4.1363773E-1,7.710133E-2,1.15869835E-1,1.9536348E-1,3.084049E-2,2.4202675E-1,-1.2421643E-1,-3.824859E-2,-2.0464827E-1,-3.453905E-1,-5.242604E-2,-1.5716758E-1,-2.5822604E-1,-3.5492447E-1,-3.2235825E-1,-3.8317657E-1,-4.3179187E-1,-4.9939162E-1,-4.4355664E-1,-6.1542434E-1,-5.515448E-1,-5.018107E-1,-6.257729E-1,-6.9878846E-1,-3.1559646E-2,-3.0684605E-1,-3.8267073E-1,-4.53752E-1,-4.7309032E-1,-5.450937E-1,-5.910731E-1,-6.355769E-1,-7.151525E-1,-8.2032543E-1,-6.166769E-1,-7.330159E-1],"categories":[],"categories_nodes":[],"categories_segments":[],"categories_sizes":[],"default_left":[0,0,0,0,0,0,0,0,0,0,0,0,0,0,0,0,0,0,0,0,0,0,0,0,0,0,0,0,0,0,0,0,0,0,0,0,0,0,0,0,0,0,0,0,0,0,0,0,0,0,0,0,0,0,0,0,0,0,0,0,0,0,0,0,0,0,0,0,0,0,0,0,0,0,0,0,0,0,0,0,0,0,0,0,0,0,0,0,0,0,0,0,0,0,0,0,0,0,0,0,0,0,0,0,0,0,0],"id":10,"left_children":[1,3,5,7,9,11,13,-1,15,17,19,21,23,25,27,29,31,33,35,37,39,41,43,45,47,49,51,53,55,57,59,61,63,65,67,69,71,73,75,77,79,81,83,85,87,89,91,93,-1,95,97,99,101,103,105,-1,-1,-1,-1,-1,-1,-1,-1,-1,-1,-1,-1,-1,-1,-1,-1,-1,-1,-1,-1,-1,-1,-1,-1,-1,-1,-1,-1,-1,-1,-1,-1,-1,-1,-1,-1,-1,-1,-1,-1,-1,-1,-1,-1,-1,-1,-1,-1,-1,-1,-1,-1],"loss_changes":[7.4834865E6,1.378952E6,3.072605E5,9.229625E4,3.9605494E5,9.0053625E4,5.505325E4,0E0,1.72795E4,7.5086375E4,5.0996527E4,3.2046312E4,1.15419375E4,1.0833E4,1.6758E4,1.9986719E3,5.600875E3,2.7082875E4,1.1534E4,1.4592846E4,9.432639E3,2.2262E4,2.7969062E3,1.8060938E3,9.64625E2,1.2231953E3,5.811375E3,9.10325E3,1.0907188E3,2.3728125E2,1.5949512E2,8.5175E2,2.109375E1,6.1894062E3,2.316123E3,2.15975E3,2.2885156E3,2.5157148E3,3.725808E3,2.524745E3,1.5855391E3,2.3895566E3,3.968625E3,3.663828E2,5.328906E2,8.257656E2,2.4892188E2,2.9484375E1,0E0,3.0030762E2,1.2733984E2,1.0170625E3,6.493125E2,3.8398125E3,6.8843125E3,0E0,0E0,0E0,0E0,0E0,0E0,0E0,0E0,0E0,0E0,0E0,0E0,0E0,0E0,0E0,0E0,0E0,0E0,0E0,0E0,0E0,0E0,0E0,0E0,0E0,0E0,0E0,0E0,0E0,0E0,0E0,0E0,0E0,0E0,0E0,0E0,0E0,0E0,0E0,0E0,0E0,0E0,0E0,0E0,0E0,0E0,0E0,0E0,0E0,0E0,0E0,0E0],"parents":[2147483647,0,0,1,1,2,2,3,3,4,4,5,5,6,6,8,8,9,9,10,10,11,11,12,12,13,13,14,14,15,15,16,16,17,17,18,18,19,19,20,20,21,21,22,22,23,23,24,24,25,25,26,26,27,27,28,28,29,29,30,30,31,31,32,32,33,33,34,34,35,35,36,36,37,37,38,38,39,39,40,40,41,41,42,42,43,43,44,44,45,45,46,46,47,47,49,49,50,50,51,51,52,52,53,53,54,54],"right_children":[2,4,6,8,10,12,14,-1,16,18,20,22,24,26,28,30,32,34,36,38,40,42,44,46,48,50,52,54,56,58,60,62,64,66,68,70,72,74,76,78,80,82,84,86,88,90,92,94,-1,96,98,100,102,104,106,-1,-1,-1,-1,-1,-1,-1,-1,-1,-1,-1,-1,-1,-1,-1,-1,-1,-1,-1,-1,-1,-1,-1,-1,-1,-1,-1,-1,-1,-1,-1,-1,-1,-1,-1,-1,-1,-1,-1,-1,-1,-1,-1,-1,-1,-1,-1,-1,-1,-1,-1,-1],"split_conditions":[4E0,2E0,5E0,2.05E1,3E0,1.824E2,1.463E2,8.9266455E-1,1.531E2,1.608E2,1.067E2,1.1829E4,2.675E2,8.88E1,2.727E2,7.28E1,6.2E1,8.51E1,6.12E1,5.95E1,1.564E2,1.101E2,1.169E2,2.139E2,3.31E2,8.28E1,1.124E2,2.1E0,3.029E2,4.46E1,1.191E2,9.3E0,9.3E0,4.66E1,1.067E2,3.62E1,4.025E3,8.6E0,1.16E1,5E0,2.041E2,5.8E1,1.44E2,9.49E1,1.408E2,1.5259E4,5.8E0,2.937E2,-8.328822E-1,3.15E1,1.067E2,8.67E1,1.286E2,1.844E2,2.26E2,-8.234395E-1,-9.373171E-1,5.503097E-1,4.8394945E-1,3.6587194E-1,2.1088648E-1,6.434861E-1,7.204835E-1,5.3783625E-1,6.010685E-1,3.6640728E-1,2.8033373E-1,1.9250485E-1,9.653575E-2,5.68604E-1,4.9820656E-1,4.1363773E-1,7.710133E-2,1.15869835E-1,1.9536348E-1,3.084049E-2,2.4202675E-1,-1.2421643E-1,-3.824859E-2,-2.0464827E-1,-3.453905E-1,-5.242604E-2,-1.5716758E-1,-2.5822604E-1,-3.5492447E-1,-3.2235825E-1,-3.8317657E-1,-4.3179187E-1,-4.9939162E-1,-4.4355664E-1,-6.1542434E-1,-5.515448E-1,-5.018107E-1,-6.257729E-1,-6.9878846E-1,-3.1559646E-2,-3.0684605E-1,-3.8267073E-1,-4.53752E-1,-4.7309032E-1,-5.450937E-1,-5.910731E-1,-6.355769E-1,-7.151525E-1,-8.2032543E-1,-6.166769E-1,-7.330159E-1],"split_indices":[9,9,9,8,9,8,8,0,2,2,8,6,8,5,8,8,8,8,8,8,8,8,8,8,8,8,8,7,8,8,8,7,7,8,8,8,6,7,7,7,8,8,8,8,8,6,7,8,0,8,8,8,8,8,8,0,0,0,0,0,0,0,0,0,0,0,0,0,0,0,0,0,0,0,0,0,0,0,0,0,0,0,0,0,0,0,0,0,0,0,0,0,0,0,0,0,0,0,0,0,0,0,0,0,0,0,0],"split_type":[0,0,0,0,0,0,0,0,0,0,0,0,0,0,0,0,0,0,0,0,0,0,0,0,0,0,0,0,0,0,0,0,0,0,0,0,0,0,0,0,0,0,0,0,0,0,0,0,0,0,0,0,0,0,0,0,0,0,0,0,0,0,0,0,0,0,0,0,0,0,0,0,0,0,0,0,0,0,0,0,0,0,0,0,0,0,0,0,0,0,0,0,0,0,0,0,0,0,0,0,0,0,0,0,0,0,0],"sum_hessian":[3.1993E4,1.8168E4,1.3825E4,5.883E3,1.2285E4,5.898E3,7.927E3,3.059E3,2.824E3,6.962E3,5.323E3,4.074E3,1.824E3,3.653E3,4.274E3,5.16E2,2.308E3,3.995E3,2.967E3,3.655E3,1.668E3,2.889E3,1.185E3,1.422E3,4.02E2,3.77E2,3.276E3,3.734E3,5.4E2,4.39E2,7.7E1,1.921E3,3.87E2,3.076E3,9.19E2,1.807E3,1.16E3,1.47E3,2.185E3,1.278E3,3.9E2,1.322E3,1.567E3,5.45E2,6.4E2,6.13E2,8.09E2,3.54E2,4.8E1,7.8E1,2.99E2,1.338E3,1.938E3,1.56E3,2.174E3,2.82E2,2.58E2,2.33E2,2.06E2,6.5E1,1.2E1,2.45E2,1.676E3,1.36E2,2.51E2,1.638E3,1.438E3,4.19E2,5E2,8.27E2,9.8E2,1.141E3,1.9E1,6.44E2,8.26E2,2.108E3,7.7E1,5.16E2,7.62E2,2.9E2,1E2,2.41E2,1.081E3,8.05E2,7.62E2,1.91E2,3.54E2,3.99E2,2.41E2,5.8E2,3.3E1,3.99E2,4.1E2,2.11E2,1.43E2,4E0,7.4E1,8.2E1,2.17E2,2.95E2,1.043E3,9.79E2,9.59E2,9.84E2,5.76E2,1.431E3,7.43E2],"tree_param":{"num_deleted":"0","num_feature":"11","num_nodes":"107","size_leaf_vector":"1"}},{"base_weights":[-7.179095E-2,-1.2278569E1,1.5748946E1,-3.5407991E0,-1.7770245E1,2.1843542E1,8.1762085E0,6.2215686E-1,-1.4477593E1,-1.331678E1,-2.078255E1,2.8515596E1,1.8425083E1,9.837003E0,-1.1802006E1,-2.6807708E-1,1.7767422E1,-1.0752001E1,-1.9090313E1,-4.040731E0,-1.6662632E1,-1.9835638E1,-2.5947748E1,2.8655205E1,7.291107E-1,2.0550358E1,1.5395962E1,2.2356182E1,8.068742E0,-3.9849334E0,-1.6644062E1,2.8275023E0,-2.7099032E0,8.4809554E-1,1.5300035E1,-8.675868E0,-1.2541874E1,-1.7354557E1,-2.2675451E1,-1.910693E0,-7.2071023E0,-1.5268802E1,-1.7607658E1,-1.5677763E1,-2.1663973E1,-2.4397797E1,-8.824535E-1,2.4221933E1,8.6339647E-1,2.1523655E1,1.8675684E1,1.754484E1,1.4053676E1,8.338635E-1,2.180796E1,9.84531E0,4.715745E0,3.3467323E-1,-5.991908E0,-1.3771412E1,-2.0342165E1,4.0634218E-1,6.6741526E-2,-3.3545524E-2,-1.3780628E-1,4.6775955E-1,1.861226E-2,-1.0361352E-1,-2.7460396E-1,-3.024428E-1,-4.058004E-1,-4.8276907E-1,-5.6524056E-1,-5.8768713E-1,-7.214012E-1,-1.0153685E-1,3.2107856E-2,-1.6994585E-1,-3.0455682E-1,-4.128111E-1,-4.7392926E-1,-5.0558007E-1,-5.6688344E-1,-3.4359127E-1,-5.440539E-1,-7.2594666E-1,-6.042666E-1,-6.933448E-1,-7.998558E-1,3.0346328E-1,7.3409534E-1,7.051241E-1,6.255464E-1,5.7705224E-1,4.460824E-1,5.671278E-1,4.7139347E-1,4.468335E-1,3.3951524E-1,1.9205782E-1,6.575443E-1,3.5511246E-1,2.538984E-1,2.5175992E-1,9.301867E-2,8.958652E-2,-9.436807E-2,-1.2185923E-1,-2.7997908E-1,-3.03864E-1,-4.6799943E-1,-5.586185E-1,-6.969635E-1],"categories":[],"categories_nodes":[],"categories_segments":[],"categories_sizes":[],"default_left":[0,0,0,0,0,0,0,0,0,0,0,0,0,0,0,0,0,0,0,0,0,0,0,0,0,0,0,0,0,0,0,0,0,0,0,0,0,0,0,0,0,0,0,0,0,0,0,0,0,0,0,0,0,0,0,0,0,0,0,0,0,0,0,0,0,0,0,0,0,0,0,0,0,0,0,0,0,0,0,0,0,0,0,0,0,0,0,0,0,0,0,0,0,0,0,0,0,0,0,0,0,0,0,0,0,0,0,0,0,0,0,0,0],"id":11,"left_children":[1,3,5,7,9,11,13,15,17,19,21,23,25,27,29,31,33,35,37,39,41,43,45,47,-1,49,51,53,55,57,59,61,63,-1,65,67,69,71,73,75,77,79,81,83,85,87,-1,89,-1,91,93,95,97,-1,99,101,103,105,107,109,111,-1,-1,-1,-1,-1,-1,-1,-1,-1,-1,-1,-1,-1,-1,-1,-1,-1,-1,-1,-1,-1,-1,-1,-1,-1,-1,-1,-1,-1,-1,-1,-1,-1,-1,-1,-1,-1,-1,-1,-1,-1,-1,-1,-1,-1,-1,-1,-1,-1,-1,-1,-1],"loss_changes":[6.146631E6,8.620355E5,6.39591E5,3.1575538E5,1.4771975E5,1.7464125E5,2.0526622E5,7.668756E4,3.2652688E4,1.3816831E5,3.1663E4,8.325E2,3.23935E4,1.2620075E5,1.7912758E4,3.611637E4,5.9940312E3,3.830164E3,4.914625E3,7.958217E3,4.042375E3,4.195775E4,4.742625E3,6.90875E2,0E0,5.041E3,5.8077812E3,1.4990938E3,2.9761562E4,1.5884951E3,2.8325078E3,1.3581477E4,8.003121E3,0E0,8.603281E2,1.2004453E3,1.2375078E3,7.834219E2,6.926094E2,3.1142454E3,2.0997422E3,8.4359375E2,1.572625E3,1.7472344E4,1.4406375E4,1.4456875E3,0E0,1.4761719E1,0E0,2.1148125E3,1.9006562E3,1.7024844E3,2.8155469E3,0E0,9.5625E2,8.901094E3,1.0275711E4,5.538516E2,7.680137E2,9.61E2,1.9427734E2,0E0,0E0,0E0,0E0,0E0,0E0,0E0,0E0,0E0,0E0,0E0,0E0,0E0,0E0,0E0,0E0,0E0,0E0,0E0,0E0,0E0,0E0,0E0,0E0,0E0,0E0,0E0,0E0,0E0,0E0,0E0,0E0,0E0,0E0,0E0,0E0,0E0,0E0,0E0,0E0,0E0,0E0,0E0,0E0,0E0,0E0,0E0,0E0,0E0,0E0,0E0,0E0],"parents":[2147483647,0,0,1,1,2,2,3,3,4,4,5,5,6,6,7,7,8,8,9,9,10,10,11,11,12,12,13,13,14,14,15,15,16,16,17,17,18,18,19,19,20,20,21,21,22,22,23,23,25,25,26,26,27,27,28,28,29,29,30,30,31,31,32,32,34,34,35,35,36,36,37,37,38,38,39,39,40,40,41,41,42,42,43,43,44,44,45,45,47,47,49,49,50,50,51,51,52,52,54,54,55,55,56,56,57,57,58,58,59,59,60,60],"right_children":[2,4,6,8,10,12,14,16,18,20,22,24,26,28,30,32,34,36,38,40,42,44,46,48,-1,50,52,54,56,58,60,62,64,-1,66,68,70,72,74,76,78,80,82,84,86,88,-1,90,-1,92,94,96,98,-1,100,102,104,106,108,110,112,-1,-1,-1,-1,-1,-1,-1,-1,-1,-1,-1,-1,-1,-1,-1,-1,-1,-1,-1,-1,-1,-1,-1,-1,-1,-1,-1,-1,-1,-1,-1,-1,-1,-1,-1,-1,-1,-1,-1,-1,-1,-1,-1,-1,-1,-1,-1,-1,-1,-1,-1,-1],"split_conditions":[7.6E0,3.66E0,2.43E0,1.487E2,1.312E2,2.05E1,1.27E2,1.806E2,2.088E2,1.0797E4,2.501E2,1.99E1,1.965E3,1.99E1,1.635E2,8.81E1,1.94E1,1.714E2,2.675E2,1.014E2,1.05E2,4.27E0,3.029E2,1.545E2,7.291107E-1,3.86E1,1.83E0,3.05E1,6.38E1,3.25E0,2.26E2,2.45E1,3.19E0,8.4809554E-1,5.86E1,2.59E0,3.12E0,2.386E2,3.25E0,6.4E0,4.03E0,8.51E1,4.79E0,1.732E2,1.4E0,4.27E0,-8.824535E-1,4.5E0,8.6339647E-1,1.42E0,6.54E1,7.18E1,8.97E1,8.338635E-1,7.7E0,3.03E0,2.96E0,6.121E3,1.475E2,3.59E0,4.03E0,4.0634218E-1,6.6741526E-2,-3.3545524E-2,-1.3780628E-1,4.6775955E-1,1.861226E-2,-1.0361352E-1,-2.7460396E-1,-3.024428E-1,-4.058004E-1,-4.8276907E-1,-5.6524056E-1,-5.8768713E-1,-7.214012E-1,-1.0153685E-1,3.2107856E-2,-1.6994585E-1,-3.0455682E-1,-4.128111E-1,-4.7392926E-1,-5.0558007E-1,-5.6688344E-1,-3.4359127E-1,-5.440539E-1,-7.2594666E-1,-6.042666E-1,-6.933448E-1,-7.998558E-1,3.0346328E-1,7.3409534E-1,7.051241E-1,6.255464E-1,5.7705224E-1,4.460824E-1,5.671278E-1,4.7139347E-1,4.468335E-1,3.3951524E-1,1.9205782E-1,6.575443E-1,3.5511246E-1,2.538984E-1,2.5175992E-1,9.301867E-2,8.958652E-2,-9.436807E-2,-1.2185923E-1,-2.7997908E-1,-3.03864E-1,-4.6799943E-1,-5.586185E-1,-6.969635E-1],"split_indices":[7,10,10,8,8,8,8,2,8,6,8,8,6,8,8,8,8,8,8,8,8,10,8,2,0,8,10,5,8,10,8,8,10,0,5,10,10,8,10,7,10,8,10,8,7,10,0,4,0,10,8,8,8,0,7,10,10,6,8,10,10,0,0,0,0,0,0,0,0,0,0,0,0,0,0,0,0,0,0,0,0,0,0,0,0,0,0,0,0,0,0,0,0,0,0,0,0,0,0,0,0,0,0,0,0,0,0,0,0,0,0,0,0],"split_type":[0,0,0,0,0,0,0,0,0,0,0,0,0,0,0,0,0,0,0,0,0,0,0,0,0,0,0,0,0,0,0,0,0,0,0,0,0,0,0,0,0,0,0,0,0,0,0,0,0,0,0,0,0,0,0,0,0,0,0,0,0,0,0,0,0,0,0,0,0,0,0,0,0,0,0,0,0,0,0,0,0,0,0,0,0,0,0,0,0,0,0,0,0,0,0,0,0,0,0,0,0,0,0,0,0,0,0,0,0,0,0,0,0],"sum_hessian":[3.1826E4,1.7965E4,1.3861E4,6.934E3,1.1031E4,7.679E3,6.182E3,5.023E3,1.911E3,4.453E3,6.578E3,2.599E3,5.08E3,5.708E3,4.74E2,4.776E3,2.47E2,1.059E3,8.52E2,1.181E3,3.272E3,5.563E3,1.015E3,2.51E3,8.9E1,2.982E3,2.098E3,7.05E2,5.003E3,1.82E2,2.92E2,2.106E3,2.67E3,4.5E1,2.02E2,4.93E2,5.66E2,5.78E2,2.74E2,7.07E2,4.74E2,1.329E3,1.943E3,1.702E3,3.861E3,7.07E2,3.08E2,7.4E1,2.436E3,1.956E3,1.026E3,8.02E2,1.296E3,6E1,6.45E2,3.269E3,1.734E3,5.8E1,1.24E2,1.67E2,1.25E2,1.11E2,1.995E3,1.448E3,1.222E3,1.98E2,4E0,4.2E1,4.51E2,1.65E2,4.01E2,3.19E2,2.59E2,8.9E1,1.85E2,4.73E2,2.34E2,3.13E2,1.61E2,3.52E2,9.77E2,1.234E3,7.09E2,6.28E2,1.074E3,1.443E3,2.418E3,4.58E2,2.49E2,2E0,7.2E1,4.87E2,1.469E3,8.91E2,1.35E2,4.55E2,3.47E2,9.88E2,3.08E2,5E0,6.4E2,1.336E3,1.933E3,5.28E2,1.206E3,3.3E1,2.5E1,8E1,4.4E1,5.8E1,1.09E2,8.3E1,4.2E1],"tree_param":{"num_deleted":"0","num_feature":"11","num_nodes":"113","size_leaf_vector":"1"}},{"base_weights":[2.0743044E-2,1.39690485E1,-1.2720026E1,6.791328E0,2.1794083E1,-6.3148785E0,-1.7603262E1,2.1113869E1,5.125991E0,2.7760857E1,1.8439487E1,3.1370625E-1,-1.6441671E1,-1.5105962E1,-2.0800257E1,2.1440619E1,1.0172551E1,6.2433195E0,-1.3355357E1,2.7778677E1,2.8847275E0,2.0089296E1,1.5675868E1,1.2301798E1,-1.8960754E0,-1.5447643E1,-1.719729E1,-9.7318125E0,-2.0518894E1,-1.9795029E1,-2.594102E1,2.1644506E1,1.1856209E1,8.453147E0,6.16108E-1,8.16669E0,2.179892E0,3.1851047E-1,-1.3440343E1,8.372315E-1,2.3871613E1,1.807585E-1,-5.0945777E-2,2.0385595E1,1.6211237E1,1.5892554E1,-1.3513806E0,1.2903037E1,2.3293371E0,-4.7753918E-1,-3.6182373E0,2.3177805E0,-1.5492313E1,-1.686641E1,-1.9066242E1,-6.9585166E0,-1.2011746E1,-1.9226767E1,-2.2521408E1,-1.8746275E1,-2.5938576E1,-2.4753767E1,-8.853332E-1,7.973312E-1,6.407736E-1,2.0848107E-1,4.96083E-1,4.3850031E-1,1.6759798E-1,2.8425175E-1,1.5636523E-1,1.6533221E-1,3.0238505E-2,-3.571668E-1,-4.2258507E-1,7.194413E-1,2.0989254E-1,6.332383E-1,5.842844E-1,4.9825567E-1,-7.8959465E-3,5.056116E-1,4.310772E-1,-8.337486E-2,9.4715804E-2,4.059202E-1,3.439744E-1,1.3619325E-1,3.3971132E-3,2.0873666E-2,-5.2965745E-2,-7.985441E-2,-1.7694502E-1,-5.0110646E-2,1.261183E-1,-4.6513695E-1,-3.766136E-3,-5.074105E-1,-1.5431817E-1,-5.7318914E-1,-1.4477389E-1,1.9737568E-1,-2.1573536E-1,-2.8612345E-1,-3.8167253E-1,-5.569182E-1,-6.2483275E-1,-6.544922E-1,-7.079547E-1,-5.1374E-1,-6.300746E-1,-2.454897E-1,-7.7978396E-1,-6.8901044E-1,-7.713233E-1],"categories":[],"categories_nodes":[],"categories_segments":[],"categories_sizes":[],"default_left":[0,0,0,0,0,0,0,0,0,0,0,0,0,0,0,0,0,0,0,0,0,0,0,0,0,0,0,0,0,0,0,0,0,0,0,0,0,0,0,0,0,0,0,0,0,0,0,0,0,0,0,0,0,0,0,0,0,0,0,0,0,0,0,0,0,0,0,0,0,0,0,0,0,0,0,0,0,0,0,0,0,0,0,0,0,0,0,0,0,0,0,0,0,0,0,0,0,0,0,0,0,0,0,0,0,0,0,0,0,0,0,0,0,0,0],"id":12,"left_children":[1,3,5,7,9,11,13,15,17,19,21,23,25,27,29,31,33,35,37,39,41,43,45,47,49,51,53,55,57,59,61,63,65,67,-1,69,71,-1,73,-1,75,-1,-1,77,79,81,83,85,87,89,91,93,95,97,99,101,103,105,107,109,111,113,-1,-1,-1,-1,-1,-1,-1,-1,-1,-1,-1,-1,-1,-1,-1,-1,-1,-1,-1,-1,-1,-1,-1,-1,-1,-1,-1,-1,-1,-1,-1,-1,-1,-1,-1,-1,-1,-1,-1,-1,-1,-1,-1,-1,-1,-1,-1,-1,-1,-1,-1,-1,-1],"loss_changes":[5.695319E6,8.5913425E5,5.2376125E5,1.9025338E5,1.45986E5,4.8646947E5,7.55565E4,2.7527812E3,1.4774969E5,1.086625E3,2.105975E4,1.1608068E5,1.88775E3,1.5511138E5,2.1009625E4,1.318375E3,2.8973267E2,5.268978E4,9.739297E2,6.59875E2,5.341085E1,3.0385E3,6.5040625E3,4.0590938E3,9.037182E3,1.0262812E3,6.8021875E2,1.6868203E4,6.447125E3,2.1987125E4,2.1432188E3,5.4175E2,3.2139038E2,3.4237585E2,0E0,1.7643438E4,8.458213E3,0E0,2.3571094E2,0E0,7.734375E-1,0E0,0E0,1.37575E3,1.3984609E3,2.298125E3,1.5683127E2,4.248828E2,1.9542801E2,3.069025E3,3.6280488E3,3.711118E1,2.3246875E2,6.8053125E2,4.2429688E1,3.8647617E3,2.4635312E3,1.335625E3,2.72625E2,1.05541875E4,2.744375E2,2.90125E2,0E0,0E0,0E0,0E0,0E0,0E0,0E0,0E0,0E0,0E0,0E0,0E0,0E0,0E0,0E0,0E0,0E0,0E0,0E0,0E0,0E0,0E0,0E0,0E0,0E0,0E0,0E0,0E0,0E0,0E0,0E0,0E0,0E0,0E0,0E0,0E0,0E0,0E0,0E0,0E0,0E0,0E0,0E0,0E0,0E0,0E0,0E0,0E0,0E0,0E0,0E0,0E0,0E0],"parents":[2147483647,0,0,1,1,2,2,3,3,4,4,5,5,6,6,7,7,8,8,9,9,10,10,11,11,12,12,13,13,14,14,15,15,16,16,17,17,18,18,19,19,20,20,21,21,22,22,23,23,24,24,25,25,26,26,27,27,28,28,29,29,30,30,31,31,32,32,33,33,35,35,36,36,38,38,40,40,43,43,44,44,45,45,46,46,47,47,48,48,49,49,50,50,51,51,52,52,53,53,54,54,55,55,56,56,57,57,58,58,59,59,60,60,61,61],"right_children":[2,4,6,8,10,12,14,16,18,20,22,24,26,28,30,32,34,36,38,40,42,44,46,48,50,52,54,56,58,60,62,64,66,68,-1,70,72,-1,74,-1,76,-1,-1,78,80,82,84,86,88,90,92,94,96,98,100,102,104,106,108,110,112,114,-1,-1,-1,-1,-1,-1,-1,-1,-1,-1,-1,-1,-1,-1,-1,-1,-1,-1,-1,-1,-1,-1,-1,-1,-1,-1,-1,-1,-1,-1,-1,-1,-1,-1,-1,-1,-1,-1,-1,-1,-1,-1,-1,-1,-1,-1,-1,-1,-1,-1,-1,-1,-1],"split_conditions":[8.67E1,1.661E2,1.312E2,1.99E1,2.05E1,1.1829E4,1.905E2,6.482E3,1.1829E4,7.17E1,4.72E1,4.89E1,1.101E2,1.2605E4,2.858E2,7.7E0,9.691E3,5.26E3,4.34E1,1.99E1,7.2E1,2.278E3,6.14E1,4.025E3,6.535E3,6.91E1,8.8E0,1.538E2,1.577E2,1.3265E4,3.31E2,3.91E1,6.61E1,6.5E0,6.16108E-1,5.8E1,5.21E1,3.1851047E-1,7.1E1,8.372315E-1,4.34E1,1.807585E-1,-5.0945777E-2,3.21E1,5.498E3,6.85E1,6.38E1,1.05E2,7.2E0,1.067E2,1.169E2,4.81E1,1.243E2,1.189E2,1.235E2,4.8E1,5.28E1,8.8E0,1.747E2,2.386E2,8.9E1,7.3E0,-8.853332E-1,7.973312E-1,6.407736E-1,2.0848107E-1,4.96083E-1,4.3850031E-1,1.6759798E-1,2.8425175E-1,1.5636523E-1,1.6533221E-1,3.0238505E-2,-3.571668E-1,-4.2258507E-1,7.194413E-1,2.0989254E-1,6.332383E-1,5.842844E-1,4.9825567E-1,-7.8959465E-3,5.056116E-1,4.310772E-1,-8.337486E-2,9.4715804E-2,4.059202E-1,3.439744E-1,1.3619325E-1,3.3971132E-3,2.0873666E-2,-5.2965745E-2,-7.985441E-2,-1.7694502E-1,-5.0110646E-2,1.261183E-1,-4.6513695E-1,-3.766136E-3,-5.074105E-1,-1.5431817E-1,-5.7318914E-1,-1.4477389E-1,1.9737568E-1,-2.1573536E-1,-2.8612345E-1,-3.8167253E-1,-5.569182E-1,-6.2483275E-1,-6.544922E-1,-7.079547E-1,-5.1374E-1,-6.300746E-1,-2.454897E-1,-7.7978396E-1,-6.8901044E-1,-7.713233E-1],"split_indices":[8,2,8,8,8,6,8,6,6,0,8,5,8,6,8,4,6,6,0,8,0,6,5,6,6,5,4,8,8,6,8,5,0,4,0,8,8,0,8,0,5,0,0,8,6,8,0,8,4,8,8,0,2,2,2,5,0,4,8,8,1,4,0,0,0,0,0,0,0,0,0,0,0,0,0,0,0,0,0,0,0,0,0,0,0,0,0,0,0,0,0,0,0,0,0,0,0,0,0,0,0,0,0,0,0,0,0,0,0,0,0,0,0,0,0],"split_type":[0,0,0,0,0,0,0,0,0,0,0,0,0,0,0,0,0,0,0,0,0,0,0,0,0,0,0,0,0,0,0,0,0,0,0,0,0,0,0,0,0,0,0,0,0,0,0,0,0,0,0,0,0,0,0,0,0,0,0,0,0,0,0,0,0,0,0,0,0,0,0,0,0,0,0,0,0,0,0,0,0,0,0,0,0,0,0,0,0,0,0,0,0,0,0,0,0,0,0,0,0,0,0,0,0,0,0,0,0,0,0,0,0,0,0],"sum_hessian":[3.2046E4,1.5298E4,1.6748E4,7.98E3,7.318E3,7.246E3,9.502E3,8.3E2,7.15E3,2.631E3,4.687E3,4.38E3,2.866E3,5.338E3,4.164E3,8.05E2,2.5E1,6.743E3,4.07E2,2.629E3,2E0,2.931E3,1.756E3,6.81E2,3.699E3,1.247E3,1.619E3,2.68E3,2.658E3,3.487E3,6.77E2,7.87E2,1.8E1,2.3E1,2E0,4.576E3,2.167E3,1E0,4.06E2,2.539E3,9E1,1E0,1E0,2.719E3,2.12E2,1.734E3,2.2E1,6.42E2,3.9E1,2.029E3,1.67E3,3E0,1.244E3,1.384E3,2.35E2,1.211E3,1.469E3,1.622E3,1.036E3,2.982E3,5.05E2,5.14E2,1.63E2,3.8E1,7.49E2,1E1,8E0,6E0,1.7E1,3.17E3,1.406E3,5.63E2,1.604E3,1.26E2,2.8E2,8.9E1,1E0,1.503E3,1.216E3,2.07E2,5E0,1.057E3,6.77E2,1.7E1,5E0,4.41E2,2.01E2,1.9E1,2E1,1.062E3,9.67E2,1.178E3,4.92E2,1E0,2E0,1.243E3,1E0,1.378E3,6E0,2.34E2,1E0,2E1,1.191E3,3.31E2,1.138E3,1.156E3,4.66E2,6.39E2,3.97E2,1.74E3,1.242E3,2E0,5.03E2,1.88E2,3.26E2],"tree_param":{"num_deleted":"0","num_feature":"11","num_nodes":"115","size_leaf_vector":"1"}},{"base_weights":[-7.960941E-2,1.2248365E1,-1.6140741E1,2.376673E1,6.753324E0,-1.1061686E1,-1.989258E1,2.4868237E1,2.0635979E1,1.1259123E1,7.913781E-1,-7.0396323E0,-1.30464525E1,-2.1194883E1,-1.8847073E1,2.538476E1,2.33672E1,1.7361696E1,2.1579376E1,1.4450292E1,8.070217E0,3.3108485E0,-1.4397146E0,-3.974683E0,-8.128901E0,-1.1207957E1,-1.38463745E1,-1.6282375E1,-2.2042421E1,-2.1335096E1,-1.8555586E1,7.718106E-1,2.4733896E1,2.3448935E1,1.38935995E1,1.8080437E1,1.1060302E1,1.9663206E1,2.2307245E1,1.635841E1,1.3310513E1,4.776523E0,9.0912E0,1.1652497E0,5.619406E0,-3.0260289E0,9.431759E-1,-5.319454E0,-2.6660686E0,-7.771894E0,-1.0473751E1,-1.1374385E1,-2.1894462E0,-1.4905741E1,-1.2573892E1,-1.29024515E1,-1.7689293E1,-2.1449707E1,-2.3033365E1,-5.5761814E-1,-6.6009057E-1,-2.0166836E1,-1.8041332E1,4.2992324E-1,7.4330384E-1,7.1858656E-1,6.6894394E-1,4.3410367E-1,1.1327774E-1,4.998176E-1,6.4536E-1,5.12577E-1,2.7445576E-1,6.2242186E-1,5.30794E-1,7.078175E-1,6.383743E-1,5.273057E-1,4.5332864E-1,4.4085625E-1,3.7110403E-1,1.8373568E-1,9.0065435E-2,3.0060518E-1,1.8714075E-1,8.100852E-2,3.6693255E-3,2.294177E-1,1.3314682E-1,-6.0042076E-2,-1.7197445E-1,4.364233E-2,-1.08448856E-1,-9.1243275E-2,-1.963385E-1,8.1172185E-3,-9.0982035E-2,-2.7756813E-1,-2.1687669E-1,-3.2596305E-1,-7.363151E-2,-2.8668416E-1,-3.510953E-1,-2.626564E-2,-3.1971312E-1,-4.0553296E-1,-5.046023E-1,-3.517348E-1,-4.0225825E-1,-3.122066E-1,-4.3217292E-1,-5.328929E-1,-1.9597755E-1,-6.710722E-1,-6.036987E-1,-8.2012516E-1,-6.822348E-1,-5.421612E-1,-6.5105665E-1,-5.161278E-1,-5.6167024E-1],"categories":[],"categories_nodes":[],"categories_segments":[],"categories_sizes":[],"default_left":[0,0,0,0,0,0,0,0,0,0,0,0,0,0,0,0,0,0,0,0,0,0,0,0,0,0,0,0,0,0,0,0,0,0,0,0,0,0,0,0,0,0,0,0,0,0,0,0,0,0,0,0,0,0,0,0,0,0,0,0,0,0,0,0,0,0,0,0,0,0,0,0,0,0,0,0,0,0,0,0,0,0,0,0,0,0,0,0,0,0,0,0,0,0,0,0,0,0,0,0,0,0,0,0,0,0,0,0,0,0,0,0,0,0,0,0,0,0,0,0,0],"id":13,"left_children":[1,3,5,7,9,11,13,15,17,19,21,23,25,27,29,31,33,35,37,39,41,43,45,47,49,51,53,55,57,59,61,-1,63,65,67,69,71,73,75,77,79,81,83,85,87,89,91,93,95,97,99,101,103,105,107,109,111,113,115,-1,-1,117,119,-1,-1,-1,-1,-1,-1,-1,-1,-1,-1,-1,-1,-1,-1,-1,-1,-1,-1,-1,-1,-1,-1,-1,-1,-1,-1,-1,-1,-1,-1,-1,-1,-1,-1,-1,-1,-1,-1,-1,-1,-1,-1,-1,-1,-1,-1,-1,-1,-1,-1,-1,-1,-1,-1,-1,-1,-1,-1],"loss_changes":[6.320991E6,1.1429908E6,2.6395025E5,1.9602E4,3.2850275E5,4.6943062E4,1.0455E4,2.7485E3,4.3329375E3,7.076156E4,2.9600236E4,6.4745312E3,5.6450625E3,1.4388375E4,2.817625E3,7.5375E1,5.383125E2,1.3670859E3,1.2056875E3,7.3506875E3,1.1679328E4,1.22428125E4,1.056043E4,8.8858936E2,1.1215469E3,1.7777188E3,3.5115625E3,2.2682969E3,1.2785E3,4.3160938E2,2.928875E3,0E0,1.47875E2,1.0675E2,1.5358643E1,1.1471328E3,2.814336E2,3.4417188E2,6.18375E2,1.7057812E3,2.6620938E3,1.9596406E3,6.987875E3,2.053685E3,2.8188086E3,4.6390215E3,2.6098796E3,6.8341064E2,2.8293372E2,9.381094E2,5.6071094E2,5.929844E2,2.4656439E2,3.7369375E3,7.3115625E2,4.4283594E2,1.8696094E2,1.8705E3,7.81875E2,0E0,0E0,2.6722812E3,1.4006875E3,0E0,0E0,0E0,0E0,0E0,0E0,0E0,0E0,0E0,0E0,0E0,0E0,0E0,0E0,0E0,0E0,0E0,0E0,0E0,0E0,0E0,0E0,0E0,0E0,0E0,0E0,0E0,0E0,0E0,0E0,0E0,0E0,0E0,0E0,0E0,0E0,0E0,0E0,0E0,0E0,0E0,0E0,0E0,0E0,0E0,0E0,0E0,0E0,0E0,0E0,0E0,0E0,0E0,0E0,0E0,0E0,0E0,0E0],"parents":[2147483647,0,0,1,1,2,2,3,3,4,4,5,5,6,6,7,7,8,8,9,9,10,10,11,11,12,12,13,13,14,14,15,15,16,16,17,17,18,18,19,19,20,20,21,21,22,22,23,23,24,24,25,25,26,26,27,27,28,28,29,29,30,30,32,32,33,33,34,34,35,35,36,36,37,37,38,38,39,39,40,40,41,41,42,42,43,43,44,44,45,45,46,46,47,47,48,48,49,49,50,50,51,51,52,52,53,53,54,54,55,55,56,56,57,57,58,58,61,61,62,62],"right_children":[2,4,6,8,10,12,14,16,18,20,22,24,26,28,30,32,34,36,38,40,42,44,46,48,50,52,54,56,58,60,62,-1,64,66,68,70,72,74,76,78,80,82,84,86,88,90,92,94,96,98,100,102,104,106,108,110,112,114,116,-1,-1,118,120,-1,-1,-1,-1,-1,-1,-1,-1,-1,-1,-1,-1,-1,-1,-1,-1,-1,-1,-1,-1,-1,-1,-1,-1,-1,-1,-1,-1,-1,-1,-1,-1,-1,-1,-1,-1,-1,-1,-1,-1,-1,-1,-1,-1,-1,-1,-1,-1,-1,-1,-1,-1,-1,-1,-1,-1,-1,-1],"split_conditions":[4E0,2E0,5E0,1.926E3,3E0,3.46E0,6.92E1,1.91E0,8.5E0,2.67E0,3.19E0,2.86E0,3.85E0,3.54E0,1.2E0,1.62E0,3.54E0,3.65E0,4.55E1,1.822E3,7.2E0,7.1E0,7E0,5.5E0,7.47E1,9.2E0,1.2605E4,3.05E0,4.84E0,4.7E0,1.1829E4,7.718106E-1,6.4E0,2.26E0,6.73E1,7.32E1,3.566E3,2.01E0,2.87E0,1.78E0,1.94E0,3.42E0,3.56E0,2.8E0,2.68E0,3.86E0,4.06E0,6.89E1,2.31E0,4.2E0,9E0,6.39E1,7.089E3,4.24E0,4.72E0,7.03E1,8.6E0,9.05E1,9.05E1,-5.5761814E-1,-6.6009057E-1,3.74E0,4.69E0,4.2992324E-1,7.4330384E-1,7.1858656E-1,6.6894394E-1,4.3410367E-1,1.1327774E-1,4.998176E-1,6.4536E-1,5.12577E-1,2.7445576E-1,6.2242186E-1,5.30794E-1,7.078175E-1,6.383743E-1,5.273057E-1,4.5332864E-1,4.4085625E-1,3.7110403E-1,1.8373568E-1,9.0065435E-2,3.0060518E-1,1.8714075E-1,8.100852E-2,3.6693255E-3,2.294177E-1,1.3314682E-1,-6.0042076E-2,-1.7197445E-1,4.364233E-2,-1.08448856E-1,-9.1243275E-2,-1.963385E-1,8.1172185E-3,-9.0982035E-2,-2.7756813E-1,-2.1687669E-1,-3.2596305E-1,-7.363151E-2,-2.8668416E-1,-3.510953E-1,-2.626564E-2,-3.1971312E-1,-4.0553296E-1,-5.046023E-1,-3.517348E-1,-4.0225825E-1,-3.122066E-1,-4.3217292E-1,-5.328929E-1,-1.9597755E-1,-6.710722E-1,-6.036987E-1,-8.2012516E-1,-6.822348E-1,-5.421612E-1,-6.5105665E-1,-5.161278E-1,-5.6167024E-1],"split_indices":[9,9,9,6,9,10,0,10,7,10,10,10,10,10,7,10,10,10,0,6,7,7,7,7,0,7,6,10,10,10,6,0,7,10,5,0,6,10,10,10,10,10,10,10,10,10,10,5,10,7,7,5,6,10,10,5,7,5,5,0,0,10,10,0,0,0,0,0,0,0,0,0,0,0,0,0,0,0,0,0,0,0,0,0,0,0,0,0,0,0,0,0,0,0,0,0,0,0,0,0,0,0,0,0,0,0,0,0,0,0,0,0,0,0,0,0,0,0,0,0,0],"split_type":[0,0,0,0,0,0,0,0,0,0,0,0,0,0,0,0,0,0,0,0,0,0,0,0,0,0,0,0,0,0,0,0,0,0,0,0,0,0,0,0,0,0,0,0,0,0,0,0,0,0,0,0,0,0,0,0,0,0,0,0,0,0,0,0,0,0,0,0,0,0,0,0,0,0,0,0,0,0,0,0,0,0,0,0,0,0,0,0,0,0,0,0,0,0,0,0,0,0,0,0,0,0,0,0,0,0,0,0,0,0,0,0,0,0,0,0,0,0,0,0,0],"sum_hessian":[3.1922E4,1.806E4,1.3862E4,5.832E3,1.2228E4,5.891E3,7.971E3,4.309E3,1.523E3,6.964E3,5.264E3,1.948E3,3.943E3,3.541E3,4.43E3,3.194E3,1.115E3,3.45E2,1.178E3,3.479E3,3.485E3,2.472E3,2.792E3,5.12E2,1.436E3,1.2E3,2.743E3,5.24E2,3.017E3,4.57E2,3.973E3,2.068E3,1.126E3,1.104E3,1.1E1,3.08E2,3.7E1,3.32E2,8.46E2,1.296E3,2.183E3,8.26E2,2.659E3,1.282E3,1.19E3,1.676E3,1.116E3,2.51E2,2.61E2,1.25E3,1.86E2,1.178E3,2.2E1,1.491E3,1.252E3,1.57E2,3.67E2,1.902E3,1.115E3,9.5E1,3.62E2,9.52E2,3.021E3,6E0,1.12E3,7.54E2,3.5E2,1E1,1E0,2.22E2,8.6E1,7E0,3E1,2.08E2,1.24E2,3.66E2,4.8E2,6.49E2,6.47E2,8.77E2,1.306E3,4.68E2,3.58E2,2.004E3,6.55E2,5.18E2,7.64E2,4.36E2,7.54E2,1.217E3,4.59E2,1.004E3,1.12E2,8.9E1,1.62E2,2.9E1,2.32E2,3.31E2,9.19E2,1.77E2,9E0,1.85E2,9.93E2,2E1,2E0,8.69E2,6.22E2,6.28E2,6.24E2,6.2E1,9.5E1,3.64E2,3E0,1.114E3,7.88E2,6.5E1,1.05E3,4.08E2,5.44E2,1.367E3,1.654E3],"tree_param":{"num_deleted":"0","num_feature":"11","num_nodes":"121","size_leaf_vector":"1"}},{"base_weights":[3.626255E-2,-1.0877237E1,1.4819084E1,-1.4920175E0,-1.5004916E1,8.012991E0,2.0020784E1,2.1297896E0,-1.36232195E1,-1.1929811E1,-1.8732204E1,1.0057164E1,-3.3628E0,2.620589E1,1.6914099E1,1.0320106E0,1.609889E1,-1.3727756E1,4.90995E0,-5.5762486E0,-1.7207796E1,-1.7649124E1,-2.3243622E1,2.0453682E1,8.288814E0,6.4148164E-1,-1.4360562E1,7.897256E-1,6.7144793E-1,1.8356028E1,1.3170592E1,5.9211183E0,-1.06700785E-1,7.741094E-1,1.3676168E1,-1.2532585E1,-1.4172593E1,8.262404E0,-1.029483E-1,-3.881602E0,-8.057502E0,-1.6294485E1,-1.8565948E1,-1.5646311E1,-2.2630226E1,-2.2001978E1,-2.6808018E1,2.1470821E1,1.91398E1,9.591918E0,6.312047E0,1.4163903E0,-2.9298477E0,-9.841177E0,-1.6163597E1,1.9607862E1,1.6963762E1,1.4221983E1,1.134899E1,4.214133E-1,1.4301145E-1,-3.1348348E-2,5.919768E-2,4.214687E-1,-4.614575E-2,-4.4147145E-2,-3.7771776E-1,-7.351433E-2,-4.2585573E-1,2.7018678E-1,6.814945E-2,-1.551028E-1,-6.3230656E-2,-2.2018977E-1,-2.9459244E-1,-4.8138535E-1,-5.5639356E-1,-5.591133E-1,-1.3311103E-1,-3.8876295E-1,-5.315393E-1,-6.472519E-1,-7.376538E-1,-6.9722813E-1,-6.171876E-1,-8.712073E-1,-7.607086E-1,6.11061E-1,7.229853E-1,6.023339E-1,5.1010793E-1,4.9571645E-1,2.8477865E-1,1.3882986E-1,2.176318E-1,5.3738162E-2,-1.274549E-1,-5.6898154E-2,-1.6942254E-1,-1.7470284E-1,-3.2712287E-1,-4.1956717E-1,-5.370216E-1,5.885451E-1,1.9186127E-1,5.2761835E-1,4.4788828E-1,3.678135E-1,4.346856E-1,3.4536216E-1,-1.4355062E-1],"categories":[],"categories_nodes":[],"categories_segments":[],"categories_sizes":[],"default_left":[0,0,0,0,0,0,0,0,0,0,0,0,0,0,0,0,0,0,0,0,0,0,0,0,0,0,0,0,0,0,0,0,0,0,0,0,0,0,0,0,0,0,0,0,0,0,0,0,0,0,0,0,0,0,0,0,0,0,0,0,0,0,0,0,0,0,0,0,0,0,0,0,0,0,0,0,0,0,0,0,0,0,0,0,0,0,0,0,0,0,0,0,0,0,0,0,0,0,0,0,0,0,0,0,0,0,0,0,0,0,0],"id":14,"left_children":[1,3,5,7,9,11,13,15,17,19,21,23,25,27,29,31,33,35,37,39,41,43,45,47,49,51,53,-1,-1,55,57,59,61,-1,63,65,67,69,-1,71,73,75,77,79,81,83,85,87,89,91,93,95,97,99,101,103,105,107,109,-1,-1,-1,-1,-1,-1,-1,-1,-1,-1,-1,-1,-1,-1,-1,-1,-1,-1,-1,-1,-1,-1,-1,-1,-1,-1,-1,-1,-1,-1,-1,-1,-1,-1,-1,-1,-1,-1,-1,-1,-1,-1,-1,-1,-1,-1,-1,-1,-1,-1,-1,-1],"loss_changes":[5.1695715E6,7.1409575E5,4.816425E5,2.474815E5,1.46522E5,1.3716319E5,1.4776325E5,6.6506555E4,2.5763125E3,2.3524575E5,2.7861375E4,9.173553E4,3.95995E4,5.76625E2,2.7487125E4,2.2397807E4,7.076875E3,5.0714062E2,2.52071E2,1.3365383E4,4.452E3,4.6235E4,4.3536875E3,5.5928125E2,1.0949E4,1.8306694E3,1.7965977E3,0E0,0E0,6.1265E3,2.5811875E3,7.060283E3,6.371782E3,0E0,1.4679023E3,2.1116797E2,2.1184375E2,6.2773438E0,0E0,4.320449E3,1.5623281E3,9.885625E2,1.459625E3,1.8333062E4,2.2320625E3,9.985E2,1.8353125E2,6.70875E2,3.1183594E2,1.6148594E3,2.6663828E3,1.1607595E3,3.2062244E2,2.3970898E2,3.9283984E2,1.394375E2,1.9722188E3,2.9675E2,1.4469688E3,0E0,0E0,0E0,0E0,0E0,0E0,0E0,0E0,0E0,0E0,0E0,0E0,0E0,0E0,0E0,0E0,0E0,0E0,0E0,0E0,0E0,0E0,0E0,0E0,0E0,0E0,0E0,0E0,0E0,0E0,0E0,0E0,0E0,0E0,0E0,0E0,0E0,0E0,0E0,0E0,0E0,0E0,0E0,0E0,0E0,0E0,0E0,0E0,0E0,0E0,0E0,0E0],"parents":[2147483647,0,0,1,1,2,2,3,3,4,4,5,5,6,6,7,7,8,8,9,9,10,10,11,11,12,12,13,13,14,14,15,15,16,16,17,17,18,18,19,19,20,20,21,21,22,22,23,23,24,24,25,25,26,26,29,29,30,30,31,31,32,32,34,34,35,35,36,36,37,37,39,39,40,40,41,41,42,42,43,43,44,44,45,45,46,46,47,47,48,48,49,49,50,50,51,51,52,52,53,53,54,54,55,55,56,56,57,57,58,58],"right_children":[2,4,6,8,10,12,14,16,18,20,22,24,26,28,30,32,34,36,38,40,42,44,46,48,50,52,54,-1,-1,56,58,60,62,-1,64,66,68,70,-1,72,74,76,78,80,82,84,86,88,90,92,94,96,98,100,102,104,106,108,110,-1,-1,-1,-1,-1,-1,-1,-1,-1,-1,-1,-1,-1,-1,-1,-1,-1,-1,-1,-1,-1,-1,-1,-1,-1,-1,-1,-1,-1,-1,-1,-1,-1,-1,-1,-1,-1,-1,-1,-1,-1,-1,-1,-1,-1,-1,-1,-1,-1,-1,-1,-1],"split_conditions":[7.8E0,1.05E2,1.632E2,1.1829E4,1.635E2,9.36E1,2.05E1,1.806E2,4.1E0,1.1829E4,2.632E2,1.99E1,1.551E2,1.99E1,6.29E1,5.21E1,2.05E1,8.51E1,9.28E1,1.35E2,1.359E2,1.3265E4,3.144E2,1.33E1,5.27E1,6.535E3,1.95E2,7.897256E-1,6.7144793E-1,3.56E1,9.05E1,1.99E1,6.4E0,7.741094E-1,5.86E1,8.96E1,4.81E1,9.28E1,-1.029483E-1,5.6E0,1.551E2,9E0,1.261E2,2.041E2,1.927E2,5.4E0,4.3E0,9.32E1,8.21E1,3.29E1,8.9E0,1.418E2,8.479E3,6.75E1,2.26E2,7.1E0,2.278E3,8.8E0,5.62E1,4.214133E-1,1.4301145E-1,-3.1348348E-2,5.919768E-2,4.214687E-1,-4.614575E-2,-4.4147145E-2,-3.7771776E-1,-7.351433E-2,-4.2585573E-1,2.7018678E-1,6.814945E-2,-1.551028E-1,-6.3230656E-2,-2.2018977E-1,-2.9459244E-1,-4.8138535E-1,-5.5639356E-1,-5.591133E-1,-1.3311103E-1,-3.8876295E-1,-5.315393E-1,-6.472519E-1,-7.376538E-1,-6.9722813E-1,-6.171876E-1,-8.712073E-1,-7.607086E-1,6.11061E-1,7.229853E-1,6.023339E-1,5.1010793E-1,4.9571645E-1,2.8477865E-1,1.3882986E-1,2.176318E-1,5.3738162E-2,-1.274549E-1,-5.6898154E-2,-1.6942254E-1,-1.7470284E-1,-3.2712287E-1,-4.1956717E-1,-5.370216E-1,5.885451E-1,1.9186127E-1,5.2761835E-1,4.4788828E-1,3.678135E-1,4.346856E-1,3.4536216E-1,-1.4355062E-1],"split_indices":[7,8,2,6,8,8,8,2,7,6,8,8,8,8,8,8,8,8,8,8,8,6,8,8,8,6,8,0,0,8,8,8,7,0,5,1,0,1,0,7,8,4,2,8,8,7,7,1,0,5,7,8,6,5,8,4,6,7,5,0,0,0,0,0,0,0,0,0,0,0,0,0,0,0,0,0,0,0,0,0,0,0,0,0,0,0,0,0,0,0,0,0,0,0,0,0,0,0,0,0,0,0,0,0,0,0,0,0,0,0,0],"split_type":[0,0,0,0,0,0,0,0,0,0,0,0,0,0,0,0,0,0,0,0,0,0,0,0,0,0,0,0,0,0,0,0,0,0,0,0,0,0,0,0,0,0,0,0,0,0,0,0,0,0,0,0,0,0,0,0,0,0,0,0,0,0,0,0,0,0,0,0,0,0,0,0,0,0,0,0,0,0,0,0,0,0,0,0,0,0,0,0,0,0,0,0,0,0,0,0,0,0,0,0,0,0,0,0,0,0,0,0,0,0,0],"sum_hessian":[3.2041E4,1.8433E4,1.3608E4,5.631E3,1.2802E4,5.896E3,7.712E3,4.337E3,1.294E3,7.017E3,5.785E3,4.998E3,8.98E2,2.576E3,5.136E3,4.022E3,3.15E2,1.287E3,7E0,3.185E3,3.832E3,4.669E3,1.116E3,7.25E2,4.273E3,6.59E2,2.39E2,2.493E3,8.3E1,3.705E3,1.431E3,7.59E2,3.263E3,6.1E1,2.54E2,3.57E2,9.3E2,5E0,2E0,1.894E3,1.291E3,2.299E3,1.533E3,3.333E3,1.336E3,8.33E2,2.83E2,4E2,3.25E2,2.573E3,1.7E3,5.42E2,1.17E2,7E1,1.69E2,1.944E3,1.761E3,9.03E2,5.28E2,9.3E1,6.66E2,2.249E3,1.014E3,2.48E2,6E0,2E0,3.55E2,2E0,9.28E2,4E0,1E0,1.096E3,7.98E2,9.21E2,3.7E2,2.078E3,2.21E2,1.525E3,8E0,1.454E3,1.879E3,8.76E2,4.6E2,4.38E2,3.95E2,1.04E2,1.79E2,2.88E2,1.12E2,2.2E2,1.05E2,3.4E1,2.539E3,6.12E2,1.088E3,5.09E2,3.3E1,8.6E1,3.1E1,1.6E1,5.4E1,7.9E1,9E1,1.942E3,2E0,1.342E3,4.19E2,1.14E2,7.89E2,5.23E2,5E0],"tree_param":{"num_deleted":"0","num_feature":"11","num_nodes":"111","size_leaf_vector":"1"}},{"base_weights":[3.7233606E-2,-1.0535469E1,1.4344264E1,-2.6901062E0,-1.5596504E1,7.757197E0,1.9437904E1,1.1027364E1,-3.7917805E0,-1.1288869E1,-1.7123148E1,9.024566E0,1.4418944E0,2.1113617E1,1.6555916E1,1.564771E1,4.6000404E0,-7.5637716E-1,-6.0659504E0,-1.2068889E1,-7.1369E0,-2.0543991E1,-1.6275808E1,1.0238331E1,4.455208E0,5.9711103E0,-1.0002248E0,2.21118E1,1.9652132E1,1.822552E1,1.3514218E1,1.3928173E1,1.9260492E1,3.5353503E0,9.462467E0,-1.9852872E0,2.4002466E0,-6.7644825E0,-9.4740474E-1,-1.1026258E1,-1.39223E1,-2.9785368E0,-8.554383E0,-1.752083E1,-2.1155323E1,-1.585182E1,-1.8746197E1,1.22589655E1,9.0315075E0,-2.2096827E0,6.592136E0,7.7429357E0,1.7396839E0,4.4706067E-1,-8.461449E0,2.2549719E1,1.6859692E1,2.029432E1,1.645725E1,2.1658243E1,1.7779055E1,1.3703216E1,-6.661286E0,5.8811545E-1,4.0119976E-1,3.5691902E-1,6.165637E-1,1.3328539E-1,-7.912974E-3,2.025756E-1,3.8194978E-1,-1.2661504E-2,-9.114298E-2,1.9254959E-1,2.8718626E-2,-1.0995679E-1,-2.2488177E-1,8.33932E-2,-8.06783E-2,-2.1720316E-1,-3.4314087E-1,-3.567195E-1,-4.5638922E-1,1.3149921E-2,-1.9208129E-1,-9.0682924E-2,-2.8361404E-1,-4.845989E-1,-6.5192765E-1,-5.9167343E-1,-6.478542E-1,-3.7238333E-1,-4.7938243E-1,-6.2129855E-1,-5.181172E-1,4.8583242E-1,3.531368E-1,2.0611125E-1,2.9864335E-1,1.1031639E-2,-2.6465186E-1,2.337369E-1,1.0219607E-1,6.851618E-2,2.7081716E-1,6.544443E-2,-4.1583946E-1,1.1473151E-1,-4.2497076E-2,-1.5706566E-1,-4.0718073E-1,5.2422047E-1,6.8401796E-1,4.6194482E-1,6.240722E-1,6.7148066E-1,5.923055E-1,5.242345E-1,4.3936887E-1,6.734439E-1,3.8232523E-1,4.4061983E-1,5.496928E-1,4.8493984E-1,3.757467E-1,-2.864685E-2,-2.3905565E-1],"categories":[],"categories_nodes":[],"categories_segments":[],"categories_sizes":[],"default_left":[0,0,0,0,0,0,0,0,0,0,0,0,0,0,0,0,0,0,0,0,0,0,0,0,0,0,0,0,0,0,0,0,0,0,0,0,0,0,0,0,0,0,0,0,0,0,0,0,0,0,0,0,0,0,0,0,0,0,0,0,0,0,0,0,0,0,0,0,0,0,0,0,0,0,0,0,0,0,0,0,0,0,0,0,0,0,0,0,0,0,0,0,0,0,0,0,0,0,0,0,0,0,0,0,0,0,0,0,0,0,0,0,0,0,0,0,0,0,0,0,0,0,0,0,0,0,0],"id":15,"left_children":[1,3,5,7,9,11,13,15,17,19,21,23,25,27,29,31,33,35,37,39,41,43,45,47,49,51,53,55,57,59,61,63,65,67,69,71,73,75,77,79,81,83,85,87,89,91,93,95,97,99,101,103,105,107,109,111,113,115,117,119,121,123,125,-1,-1,-1,-1,-1,-1,-1,-1,-1,-1,-1,-1,-1,-1,-1,-1,-1,-1,-1,-1,-1,-1,-1,-1,-1,-1,-1,-1,-1,-1,-1,-1,-1,-1,-1,-1,-1,-1,-1,-1,-1,-1,-1,-1,-1,-1,-1,-1,-1,-1,-1,-1,-1,-1,-1,-1,-1,-1,-1,-1,-1,-1,-1,-1],"loss_changes":[4.8424135E6,7.308995E5,4.5629225E5,1.0915178E5,7.339475E4,4.7481656E4,3.669675E4,1.5875012E4,4.6135227E4,9.406281E3,2.3608E4,2.7363344E4,1.0989431E4,6.6365E3,1.410025E4,1.6699844E3,1.1365444E3,1.1114813E4,1.3655453E4,4.6118438E3,2.7213164E3,2.6529375E3,6.641875E3,9.409375E3,1.481241E4,2.5956074E3,6.9796274E3,6.225375E3,3.7201875E3,2.4058125E3,3.9234531E3,4.1489453E2,6.875156E2,6.458887E2,2.6840234E2,3.3923481E3,4.649582E3,7.595328E3,2.993919E3,2.385125E3,2.137125E3,1.4067998E3,1.6978301E3,1.2668125E3,4.28625E2,2.28575E3,2.4386875E3,